{"gradients/decoder.bias": {"values": [1.0, 0.0, 0.0, 0.0, 0.0, 0.0, 0.0, 1.0, 0.0, 0.0, 0.0, 1.0, 1.0, 0.0, 0.0, 2.0, 0.0, 0.0, 1.0, 1.0, 1.0, 0.0, 1.0, 2.0, 0.0, 1.0, 3.0, 10.0, 6.0, 5.0, 5.0, 7.0, 224.0, 54.0, 20.0, 11.0, 4.0, 32612.0, 217.0, 51.0, 14.0, 13.0, 1.0, 2.0, 1.0, 0.0, 0.0, 1.0, 0.0, 0.0, 1.0, 0.0, 1.0, 0.0, 0.0, 0.0, 1.0, 0.0, 0.0, 0.0, 0.0, 0.0, 0.0, 1.0], "_type": "histogram", "bins": [-0.01135869137942791, -0.011051996611058712, -0.010745301842689514, -0.010438606142997742, -0.010131911374628544, -0.009825216606259346, -0.009518521837890148, -0.00921182706952095, -0.008905131369829178, -0.00859843660145998, -0.008291741833090782, -0.007985047064721584, -0.0076783522963523865, -0.007371657062321901, -0.0070649622939527035, -0.006758267059922218, -0.0064515722915530205, -0.006144877523183823, -0.0058381822891533375, -0.00553148752078414, -0.0052247922867536545, -0.004918097518384457, -0.004611402750015259, -0.004304707515984774, -0.003998012747615576, -0.003691317979246378, -0.003384622745215893, -0.003077927976846695, -0.002771233208477497, -0.0024645384401082993, -0.002157842740416527, -0.001851147972047329, -0.001544453203678131, -0.0012377584353089333, -0.0009310636669397354, -0.000624367967247963, -0.0003176731988787651, -1.097843050956726e-05, 0.0002957163378596306, 0.0006024111062288284, 0.0009091068059206009, 0.0012158015742897987, 0.0015224963426589966, 0.0018291911110281944, 0.0021358858793973923, 0.00244258064776659, 0.0027492763474583626, 0.0030559711158275604, 0.0033626658841967583, 0.003669360652565956, 0.003976055420935154, 0.004282750189304352, 0.004589445888996124, 0.0048961397260427475, 0.00520283542573452, 0.005509531125426292, 0.005816224962472916, 0.006122920662164688, 0.006429614499211311, 0.006736310198903084, 0.007043005898594856, 0.0073496997356414795, 0.007656395435333252, 0.007963089272379875, 0.008269784972071648]}, "_runtime": 3090.430862426758, "gradients/rnn.weight_ih_l0": {"values": [1.0, 0.0, 0.0, 1.0, 0.0, 0.0, 0.0, 2.0, 3.0, 0.0, 5.0, 10.0, 2.0, 6.0, 9.0, 5.0, 17.0, 21.0, 26.0, 28.0, 40.0, 41.0, 66.0, 91.0, 106.0, 149.0, 193.0, 291.0, 442.0, 864.0, 2711.0, 26738.0, 5097.0, 1196.0, 547.0, 344.0, 252.0, 152.0, 115.0, 91.0, 86.0, 60.0, 54.0, 32.0, 23.0, 19.0, 14.0, 9.0, 7.0, 5.0, 9.0, 5.0, 3.0, 0.0, 0.0, 4.0, 1.0, 1.0, 1.0, 1.0, 2.0, 0.0, 1.0, 1.0], "_type": "histogram", "bins": [-5.916603186051361e-05, -5.7297420426039025e-05, -5.542880899156444e-05, -5.356019755708985e-05, -5.169158612261526e-05, -4.9822974688140675e-05, -4.795436325366609e-05, -4.60857518191915e-05, -4.421714038471691e-05, -4.2348528950242326e-05, -4.047991751576774e-05, -3.861130608129315e-05, -3.674269464681856e-05, -3.4874083212343976e-05, -3.300547177786939e-05, -3.11368603433948e-05, -2.9268248908920214e-05, -2.7399637474445626e-05, -2.553102603997104e-05, -2.366241460549645e-05, -2.1793803171021864e-05, -1.9925191736547276e-05, -1.805658030207269e-05, -1.61879688675981e-05, -1.4319357433123514e-05, -1.2450745998648927e-05, -1.058213456417434e-05, -8.713523129699752e-06, -6.844911695225164e-06, -4.976300260750577e-06, -3.1076888262759894e-06, -1.239077391801402e-06, 6.295340426731855e-07, 2.498145477147773e-06, 4.36675691162236e-06, 6.235368346096948e-06, 8.103979780571535e-06, 9.972591215046123e-06, 1.184120264952071e-05, 1.3709814083995298e-05, 1.5578425518469885e-05, 1.7447036952944472e-05, 1.931564838741906e-05, 2.1184259821893647e-05, 2.3052871256368235e-05, 2.4921482690842822e-05, 2.679009412531741e-05, 2.8658705559791997e-05, 3.0527316994266585e-05, 3.239592842874117e-05, 3.426453986321576e-05, 3.613315129769035e-05, 3.8001762732164934e-05, 3.987037416663952e-05, 4.173898560111411e-05, 4.3607597035588697e-05, 4.5476208470063284e-05, 4.734481990453787e-05, 4.921343133901246e-05, 5.1082042773487046e-05, 5.2950654207961634e-05, 5.481926564243622e-05, 5.668787707691081e-05, 5.8556488511385396e-05, 6.0425099945859984e-05]}, "_step": 0, "gradients/rnn.weight_ih_l1": {"values": [3.0, 3.0, 1.0, 7.0, 6.0, 9.0, 11.0, 6.0, 10.0, 16.0, 11.0, 6.0, 10.0, 15.0, 13.0, 16.0, 20.0, 37.0, 47.0, 65.0, 63.0, 69.0, 114.0, 98.0, 113.0, 153.0, 190.0, 297.0, 320.0, 980.0, 34990.0, 633.0, 313.0, 259.0, 215.0, 163.0, 106.0, 114.0, 88.0, 70.0, 73.0, 58.0, 33.0, 29.0, 23.0, 14.0, 17.0, 10.0, 4.0, 9.0, 10.0, 11.0, 12.0, 5.0, 2.0, 6.0, 4.0, 5.0, 7.0, 3.0, 1.0, 3.0, 0.0, 1.0], "_type": "histogram", "bins": [-0.006606864742934704, -0.006389235146343708, -0.006171605084091425, -0.005953975021839142, -0.005736345425248146, -0.00551871582865715, -0.005301085766404867, -0.005083455704152584, -0.004865826107561588, -0.0046481965109705925, -0.004430566448718309, -0.004212936386466026, -0.0039953067898750305, -0.003777676960453391, -0.0035600471310317516, -0.003342417301610112, -0.0031247874721884727, -0.0029071576427668333, -0.002689527813345194, -0.0024718977510929108, -0.002254268154501915, -0.002036638557910919, -0.001819008495658636, -0.001601378433406353, -0.0013837488368153572, -0.0011661192402243614, -0.0009484891779720783, -0.0007308591157197952, -0.0005132295191287994, -0.00029559992253780365, -7.796986028552055e-05, 0.00013966020196676254, 0.00035728979855775833, 0.0005749193951487541, 0.0007925494574010372, 0.0010101795196533203, 0.001227809116244316, 0.0014454387128353119, 0.0016630692407488823, 0.001880698837339878, 0.002098328433930874, 0.0023159580305218697, 0.0025335876271128654, 0.002751218155026436, 0.0029688477516174316, 0.0031864773482084274, 0.003404107876121998, 0.0036217374727129936, 0.0038393670693039894, 0.004056996665894985, 0.004274626262485981, 0.004492256790399551, 0.004709886386990547, 0.004927515983581543, 0.005145146511495113, 0.005362776108086109, 0.005580405704677105, 0.005798035301268101, 0.0060156648978590965, 0.006233295425772667, 0.006450925022363663, 0.0066685546189546585, 0.006886185146868229, 0.007103814743459225, 0.0073214443400502205]}, "gradients/encoder.weight": {"values": [1.0, 0.0, 0.0, 0.0, 0.0, 0.0, 0.0, 0.0, 0.0, 0.0, 2.0, 2.0, 0.0, 1.0, 3.0, 2.0, 6.0, 6.0, 7.0, 18.0, 9.0, 19.0, 19.0, 20.0, 38.0, 37.0, 55.0, 59.0, 83.0, 103.0, 194.0, 340.0, 732.0, 1725.0, 4296.0, 9056.0, 14332.0, 6606934.0, 9405.0, 4610.0, 1822.0, 705.0, 312.0, 159.0, 120.0, 93.0, 55.0, 48.0, 26.0, 23.0, 23.0, 18.0, 20.0, 9.0, 10.0, 12.0, 9.0, 7.0, 3.0, 4.0, 4.0, 2.0, 1.0, 1.0], "_type": "histogram", "bins": [-3.7349465856095776e-05, -3.634056338341907e-05, -3.5331664548721164e-05, -3.432276571402326e-05, -3.331386324134655e-05, -3.2304960768669844e-05, -3.129606193397194e-05, -3.0287161280284636e-05, -2.927826062659733e-05, -2.8269359972910024e-05, -2.726045931922272e-05, -2.6251558665535413e-05, -2.5242658011848107e-05, -2.42337573581608e-05, -2.3224856704473495e-05, -2.221595605078619e-05, -2.1207055397098884e-05, -2.0198154743411578e-05, -1.9189254089724272e-05, -1.8180353436036967e-05, -1.717145278234966e-05, -1.6162552128662355e-05, -1.515365147497505e-05, -1.4144750821287744e-05, -1.3135850167600438e-05, -1.2126949513913132e-05, -1.1118048860225827e-05, -1.010914820653852e-05, -9.100247552851215e-06, -8.09134689916391e-06, -7.0824462454766035e-06, -6.073543772799894e-06, -5.064644938101992e-06, -4.05574610340409e-06, -3.0468436307273805e-06, -2.0379411580506712e-06, -1.029042323352769e-06, -2.0143488654866815e-08, 9.887589840218425e-07, 1.9976614566985518e-06, 3.006560291396454e-06, 4.015459126094356e-06, 5.0243615987710655e-06, 6.033264071447775e-06, 7.042162906145677e-06, 8.05106174084358e-06, 9.059964213520288e-06, 1.0068866686196998e-05, 1.10777655208949e-05, 1.2086664355592802e-05, 1.3095566828269511e-05, 1.410446930094622e-05, 1.5113368135644123e-05, 1.6122266970342025e-05, 1.7131169443018734e-05, 1.8140071915695444e-05, 1.9148970750393346e-05, 2.0157869585091248e-05, 2.1166772057767957e-05, 2.2175674530444667e-05, 2.318457336514257e-05, 2.419347219984047e-05, 2.5202378310495988e-05, 2.621127714519389e-05, 2.7220175979891792e-05]}, "gradients/rnn.bias_ih_l0": {"values": [1.0, 0.0, 0.0, 0.0, 0.0, 0.0, 0.0, 0.0, 0.0, 0.0, 0.0, 1.0, 0.0, 0.0, 0.0, 0.0, 0.0, 0.0, 1.0, 0.0, 0.0, 0.0, 0.0, 0.0, 0.0, 1.0, 1.0, 2.0, 2.0, 1.0, 0.0, 1.0, 1.0, 1.0, 3.0, 2.0, 8.0, 15.0, 76.0, 53.0, 13.0, 3.0, 4.0, 1.0, 3.0, 1.0, 0.0, 0.0, 1.0, 0.0, 0.0, 0.0, 2.0, 0.0, 0.0, 0.0, 0.0, 0.0, 0.0, 1.0, 0.0, 0.0, 0.0, 1.0], "_type": "histogram", "bins": [-0.00046258559450507164, -0.00045069633051753044, -0.00043880706652998924, -0.00042691780254244804, -0.0004150285676587373, -0.0004031393036711961, -0.0003912500396836549, -0.0003793607756961137, -0.0003674715117085725, -0.00035558227682486176, -0.00034369301283732057, -0.00033180374884977937, -0.00031991448486223817, -0.00030802522087469697, -0.00029613595688715577, -0.00028424669289961457, -0.0002723574289120734, -0.0002604681649245322, -0.00024857893004082143, -0.00023668966605328023, -0.00022480040206573904, -0.00021291113807819784, -0.00020102187409065664, -0.0001891326392069459, -0.0001772433752194047, -0.0001653541112318635, -0.0001534648472443223, -0.0001415755832567811, -0.0001296863192692399, -0.00011779708438552916, -0.00010590782039798796, -9.401855641044676e-05, -8.212929242290556e-05, -7.024002843536437e-05, -5.835076444782317e-05, -4.646150046028197e-05, -3.4572265576571226e-05, -2.2683001589030027e-05, -1.0793737601488829e-05, 1.09552638605237e-06, 1.2984790373593569e-05, 2.4874054361134768e-05, 3.6763318348675966e-05, 4.8652582336217165e-05, 6.0541846323758364e-05, 7.243105210363865e-05, 8.432031609117985e-05, 9.620958007872105e-05, 0.00010809884406626225, 0.00011998810805380344, 0.00013187737204134464, 0.00014376663602888584, 0.00015565590001642704, 0.00016754516400396824, 0.00017943442799150944, 0.00019132369197905064, 0.00020321295596659184, 0.00021510221995413303, 0.00022699142573401332, 0.00023888068972155452, 0.0002507699537090957, 0.0002626592176966369, 0.0002745484816841781, 0.0002864377456717193, 0.0002983270096592605]}, "gradients/rnn.bias_hh_l0": {"values": [1.0, 0.0, 0.0, 0.0, 0.0, 0.0, 0.0, 0.0, 0.0, 0.0, 0.0, 1.0, 0.0, 0.0, 0.0, 0.0, 0.0, 0.0, 1.0, 0.0, 0.0, 0.0, 0.0, 0.0, 0.0, 1.0, 1.0, 2.0, 2.0, 1.0, 0.0, 1.0, 1.0, 1.0, 3.0, 2.0, 8.0, 15.0, 76.0, 53.0, 13.0, 3.0, 4.0, 1.0, 3.0, 1.0, 0.0, 0.0, 1.0, 0.0, 0.0, 0.0, 2.0, 0.0, 0.0, 0.0, 0.0, 0.0, 0.0, 1.0, 0.0, 0.0, 0.0, 1.0], "_type": "histogram", "bins": [-0.00046258559450507164, -0.00045069633051753044, -0.00043880706652998924, -0.00042691780254244804, -0.0004150285676587373, -0.0004031393036711961, -0.0003912500396836549, -0.0003793607756961137, -0.0003674715117085725, -0.00035558227682486176, -0.00034369301283732057, -0.00033180374884977937, -0.00031991448486223817, -0.00030802522087469697, -0.00029613595688715577, -0.00028424669289961457, -0.0002723574289120734, -0.0002604681649245322, -0.00024857893004082143, -0.00023668966605328023, -0.00022480040206573904, -0.00021291113807819784, -0.00020102187409065664, -0.0001891326392069459, -0.0001772433752194047, -0.0001653541112318635, -0.0001534648472443223, -0.0001415755832567811, -0.0001296863192692399, -0.00011779708438552916, -0.00010590782039798796, -9.401855641044676e-05, -8.212929242290556e-05, -7.024002843536437e-05, -5.835076444782317e-05, -4.646150046028197e-05, -3.4572265576571226e-05, -2.2683001589030027e-05, -1.0793737601488829e-05, 1.09552638605237e-06, 1.2984790373593569e-05, 2.4874054361134768e-05, 3.6763318348675966e-05, 4.8652582336217165e-05, 6.0541846323758364e-05, 7.243105210363865e-05, 8.432031609117985e-05, 9.620958007872105e-05, 0.00010809884406626225, 0.00011998810805380344, 0.00013187737204134464, 0.00014376663602888584, 0.00015565590001642704, 0.00016754516400396824, 0.00017943442799150944, 0.00019132369197905064, 0.00020321295596659184, 0.00021510221995413303, 0.00022699142573401332, 0.00023888068972155452, 0.0002507699537090957, 0.0002626592176966369, 0.0002745484816841781, 0.0002864377456717193, 0.0002983270096592605]}, "_timestamp": 1579822195.5791614, "gradients/rnn.weight_hh_l1": {"values": [80.0, 3.0, 2.0, 2.0, 0.0, 0.0, 1.0, 0.0, 0.0, 0.0, 0.0, 1.0, 0.0, 0.0, 1.0, 0.0, 1.0, 95.0, 2.0, 80.0, 202.0, 107.0, 100.0, 6.0, 95.0, 12.0, 299.0, 202.0, 282.0, 206.0, 408.0, 17798.0, 17873.0, 398.0, 225.0, 295.0, 209.0, 258.0, 2.0, 106.0, 8.0, 94.0, 90.0, 174.0, 93.0, 1.0, 83.0, 3.0, 0.0, 0.0, 0.0, 2.0, 1.0, 0.0, 1.0, 1.0, 0.0, 0.0, 1.0, 0.0, 0.0, 1.0, 1.0, 95.0], "_type": "histogram", "bins": [-0.004840714856982231, -0.0046894424594938755, -0.0045381695963442326, -0.004386897198855877, -0.004235624801367521, -0.004084352403879166, -0.003933079540729523, -0.003781807143241167, -0.0036305345129221678, -0.0034792618826031685, -0.003327989485114813, -0.0031767168547958136, -0.0030254442244768143, -0.0028741718269884586, -0.0027228991966694593, -0.0025716267991811037, -0.0024203541688621044, -0.002269081538543105, -0.0021178091410547495, -0.00196653651073575, -0.0018152641132473946, -0.0016639914829283953, -0.001512718852609396, -0.0013614464551210403, -0.001210173824802041, -0.0010589011944830418, -0.0009076287969946861, -0.0007563563995063305, -0.0006050835363566875, -0.0004538111388683319, -0.00030253874137997627, -0.00015126587823033333, 6.51925802230835e-09, 0.00015127891674637794, 0.0003025517798960209, 0.0004538241773843765, 0.0006050965748727322, 0.0007563694380223751, 0.0009076418355107307, 0.0010589142329990864, 0.001210186630487442, 0.001361459493637085, 0.0015127318911254406, 0.0016640042886137962, 0.0018152771517634392, 0.001966549549251795, 0.0021178219467401505, 0.0022690948098897934, 0.002420367207378149, 0.0025716396048665047, 0.0027229124680161476, 0.0028741848655045033, 0.003025457262992859, 0.003176730126142502, 0.00332800205796957, 0.003479274921119213, 0.003630547784268856, 0.0037818197160959244, 0.003933092579245567, 0.00408436544239521, 0.004235637374222279, 0.0043869102373719215, 0.0045381831005215645, 0.004689455032348633, 0.004840727895498276]}, "test loss": 6.941617213109194, "gradients/rnn.bias_hh_l1": {"values": [1.0, 0.0, 0.0, 0.0, 2.0, 1.0, 1.0, 0.0, 0.0, 0.0, 0.0, 0.0, 2.0, 2.0, 0.0, 1.0, 0.0, 0.0, 2.0, 8.0, 165.0, 5.0, 2.0, 1.0, 3.0, 0.0, 1.0, 0.0, 0.0, 0.0, 1.0, 0.0, 0.0, 0.0, 0.0, 0.0, 1.0, 0.0, 0.0, 0.0, 0.0, 0.0, 0.0, 0.0, 0.0, 0.0, 0.0, 0.0, 0.0, 0.0, 0.0, 0.0, 0.0, 0.0, 0.0, 0.0, 0.0, 0.0, 0.0, 0.0, 0.0, 0.0, 0.0, 1.0], "_type": "histogram", "bins": [-0.002263875911012292, -0.0021528652869164944, -0.0020418548956513405, -0.001930844271555543, -0.0018198336474597454, -0.0017088230233639479, -0.0015978125156834722, -0.0014868020080029964, -0.001375791383907199, -0.0012647807598114014, -0.0011537702521309257, -0.00104275974445045, -0.0009317491203546524, -0.0008207384962588549, -0.0007097279885783792, -0.0005987174808979034, -0.0004877068568021059, -0.00037669623270630836, -0.0002656856086105108, -0.00015467521734535694, -4.36645932495594e-05, 6.734603084623814e-05, 0.00017835642211139202, 0.00028936704620718956, 0.0004003776703029871, 0.0005113882943987846, 0.0006223989184945822, 0.0007334093097597361, 0.0008444199338555336, 0.0009554305579513311, 0.001066440949216485, 0.0011774515733122826, 0.00128846219740808, 0.0013994728215038776, 0.0015104834455996752, 0.001621493836864829, 0.0017325046937912703, 0.0018435150850564241, 0.001954525476321578, 0.0020655363332480192, 0.002176546724513173, 0.002287557115778327, 0.002398567972704768, 0.002509578363969922, 0.002620588755235076, 0.002731599612161517, 0.002842610003426671, 0.0029536208603531122, 0.003064631251618266, 0.00317564164288342, 0.003286652499809861, 0.003397662891075015, 0.0035086737480014563, 0.00361968413926661, 0.003730694530531764, 0.0038417053874582052, 0.0039527155458927155, 0.004063726402819157, 0.004174737259745598, 0.004285747185349464, 0.004396758042275906, 0.004507768899202347, 0.004618778824806213, 0.004729789681732655, 0.004840800538659096]}, "gradients/rnn.weight_hh_l0": {"values": [66.0, 19.0, 3.0, 2.0, 2.0, 1.0, 2.0, 0.0, 0.0, 70.0, 20.0, 75.0, 13.0, 7.0, 24.0, 129.0, 33.0, 11.0, 6.0, 3.0, 125.0, 222.0, 181.0, 189.0, 227.0, 33.0, 210.0, 525.0, 493.0, 812.0, 2553.0, 14147.0, 13755.0, 2515.0, 832.0, 485.0, 533.0, 203.0, 43.0, 232.0, 177.0, 187.0, 215.0, 131.0, 1.0, 11.0, 11.0, 25.0, 137.0, 20.0, 3.0, 26.0, 74.0, 10.0, 74.0, 2.0, 0.0, 1.0, 1.0, 5.0, 2.0, 5.0, 9.0, 72.0], "_type": "histogram", "bins": [-0.00046203439706005156, -0.0004475948226172477, -0.0004331552190706134, -0.0004187156446278095, -0.00040427607018500566, -0.0003898364957422018, -0.0003753968921955675, -0.00036095731775276363, -0.0003465177142061293, -0.00033207813976332545, -0.0003176385653205216, -0.00030319899087771773, -0.0002887593873310834, -0.00027431981288827956, -0.00025988020934164524, -0.0002454406348988414, -0.00023100106045603752, -0.00021656148601323366, -0.00020212188246659935, -0.00018768230802379549, -0.00017324273358099163, -0.0001588031300343573, -0.00014436355559155345, -0.0001299239811487496, -0.00011548437760211527, -0.00010104480315931141, -8.660522871650755e-05, -7.21656542737037e-05, -5.772605072706938e-05, -4.328647628426552e-05, -2.884690184146166e-05, -1.4407298294827342e-05, 3.227614797651768e-08, 1.4471850590780377e-05, 2.8911425033584237e-05, 4.33509994763881e-05, 5.779063212685287e-05, 7.223020656965673e-05, 8.666978101246059e-05, 0.00010110935545526445, 0.00011554892989806831, 0.00012998850434087217, 0.00014442813699133694, 0.0001588677114341408, 0.00017330728587694466, 0.00018774686031974852, 0.00020218643476255238, 0.00021662600920535624, 0.000231065641855821, 0.0002455052162986249, 0.00025994479074142873, 0.0002743843651842326, 0.00028882393962703645, 0.0003032635140698403, 0.00031770308851264417, 0.00033214272116310894, 0.0003465822956059128, 0.00036102187004871666, 0.0003754614444915205, 0.0003899010189343244, 0.00040434059337712824, 0.000418780226027593, 0.0004332198004703969, 0.00044765937491320074, 0.0004620989493560046]}, "gradients/decoder.weight": {"values": [1.0, 0.0, 1.0, 3.0, 2.0, 1.0, 5.0, 4.0, 5.0, 7.0, 6.0, 15.0, 19.0, 18.0, 29.0, 34.0, 39.0, 82.0, 73.0, 85.0, 128.0, 103.0, 136.0, 194.0, 188.0, 294.0, 278.0, 1401.0, 757.0, 807.0, 24450.0, 9068.0, 363062.0, 6217475.0, 10031.0, 16565.0, 6607.0, 697.0, 1224.0, 258.0, 282.0, 191.0, 206.0, 152.0, 79.0, 144.0, 88.0, 72.0, 53.0, 32.0, 40.0, 21.0, 18.0, 11.0, 26.0, 7.0, 12.0, 3.0, 3.0, 2.0, 2.0, 1.0, 1.0, 2.0], "_type": "histogram", "bins": [-0.019767191261053085, -0.01916879042983055, -0.018570391461253166, -0.01797199249267578, -0.017373591661453247, -0.016775190830230713, -0.016176791861653328, -0.015578391961753368, -0.014979992061853409, -0.01438159216195345, -0.01378319226205349, -0.01318479236215353, -0.01258639246225357, -0.011987992562353611, -0.011389592662453651, -0.010791192762553692, -0.010192792862653732, -0.009594392962753773, -0.008995993062853813, -0.008397593162953854, -0.007799193263053894, -0.0072007933631539345, -0.006602393463253975, -0.006003993563354015, -0.005405593663454056, -0.004807193763554096, -0.004208793863654137, -0.0036103948950767517, -0.0030119940638542175, -0.0024135932326316833, -0.0018151942640542984, -0.0012167952954769135, -0.0006183944642543793, -1.9993633031845093e-05, 0.0005784053355455399, 0.0011768043041229248, 0.001775205135345459, 0.002373605966567993, 0.002972004935145378, 0.003570403903722763, 0.004168804734945297, 0.004767205566167831, 0.005365604534745216, 0.005964003503322601, 0.0065624043345451355, 0.00716080516576767, 0.007759204134345055, 0.00835760310292244, 0.008956003934144974, 0.009554404765367508, 0.010152803733944893, 0.010751202702522278, 0.011349603533744812, 0.011948004364967346, 0.012546401470899582, 0.013144802302122116, 0.01374320313334465, 0.014341603964567184, 0.014940004795789719, 0.015538401901721954, 0.01613680273294449, 0.016735203564167023, 0.01733360067009926, 0.017932001501321793, 0.018530402332544327]}, "gradients/rnn.bias_ih_l1": {"values": [1.0, 0.0, 0.0, 0.0, 2.0, 1.0, 1.0, 0.0, 0.0, 0.0, 0.0, 0.0, 2.0, 2.0, 0.0, 1.0, 0.0, 0.0, 2.0, 8.0, 165.0, 5.0, 2.0, 1.0, 3.0, 0.0, 1.0, 0.0, 0.0, 0.0, 1.0, 0.0, 0.0, 0.0, 0.0, 0.0, 1.0, 0.0, 0.0, 0.0, 0.0, 0.0, 0.0, 0.0, 0.0, 0.0, 0.0, 0.0, 0.0, 0.0, 0.0, 0.0, 0.0, 0.0, 0.0, 0.0, 0.0, 0.0, 0.0, 0.0, 0.0, 0.0, 0.0, 1.0], "_type": "histogram", "bins": [-0.002263875911012292, -0.0021528652869164944, -0.0020418548956513405, -0.001930844271555543, -0.0018198336474597454, -0.0017088230233639479, -0.0015978125156834722, -0.0014868020080029964, -0.001375791383907199, -0.0012647807598114014, -0.0011537702521309257, -0.00104275974445045, -0.0009317491203546524, -0.0008207384962588549, -0.0007097279885783792, -0.0005987174808979034, -0.0004877068568021059, -0.00037669623270630836, -0.0002656856086105108, -0.00015467521734535694, -4.36645932495594e-05, 6.734603084623814e-05, 0.00017835642211139202, 0.00028936704620718956, 0.0004003776703029871, 0.0005113882943987846, 0.0006223989184945822, 0.0007334093097597361, 0.0008444199338555336, 0.0009554305579513311, 0.001066440949216485, 0.0011774515733122826, 0.00128846219740808, 0.0013994728215038776, 0.0015104834455996752, 0.001621493836864829, 0.0017325046937912703, 0.0018435150850564241, 0.001954525476321578, 0.0020655363332480192, 0.002176546724513173, 0.002287557115778327, 0.002398567972704768, 0.002509578363969922, 0.002620588755235076, 0.002731599612161517, 0.002842610003426671, 0.0029536208603531122, 0.003064631251618266, 0.00317564164288342, 0.003286652499809861, 0.003397662891075015, 0.0035086737480014563, 0.00361968413926661, 0.003730694530531764, 0.0038417053874582052, 0.0039527155458927155, 0.004063726402819157, 0.004174737259745598, 0.004285747185349464, 0.004396758042275906, 0.004507768899202347, 0.004618778824806213, 0.004729789681732655, 0.004840800538659096]}}
