{"Test Loss": 0.19062899932861327, "gradients/fc1.weight": {"bins": [-0.20280829071998596, -0.19535371661186218, -0.1878991425037384, -0.18044456839561462, -0.17298999428749084, -0.16553542017936707, -0.1580808460712433, -0.1506262570619583, -0.14317168295383453, -0.13571710884571075, -0.12826253473758698, -0.1208079606294632, -0.11335338652133942, -0.10589881241321564, -0.09844423085451126, -0.09098965674638748, -0.0835350826382637, -0.07608050107955933, -0.06862592697143555, -0.06117135286331177, -0.05371677875518799, -0.04626220464706421, -0.03880763053894043, -0.03135305643081665, -0.02389848232269287, -0.016443908214569092, -0.008989334106445312, -0.0015347450971603394, 0.00591982901096344, 0.01337440311908722, 0.020828977227211, 0.028283551335334778, 0.03573812544345856, 0.043192699551582336, 0.05064728856086731, 0.05810186266899109, 0.06555643677711487, 0.07301101088523865, 0.08046558499336243, 0.0879201591014862, 0.09537473320960999, 0.10282930731773376, 0.11028388142585754, 0.11773845553398132, 0.1251930296421051, 0.13264760375022888, 0.14010217785835266, 0.14755675196647644, 0.15501132607460022, 0.162465900182724, 0.16992047429084778, 0.17737504839897156, 0.18482962250709534, 0.19228419661521912, 0.19973880052566528, 0.20719337463378906, 0.21464794874191284, 0.22210252285003662, 0.2295570969581604, 0.23701167106628418, 0.24446624517440796, 0.25192081928253174, 0.2593753933906555, 0.2668299674987793, 0.2742845416069031], "values": [2.0, 0.0, 1.0, 4.0, 3.0, 5.0, 9.0, 11.0, 3.0, 17.0, 17.0, 27.0, 27.0, 39.0, 36.0, 53.0, 74.0, 123.0, 146.0, 204.0, 236.0, 311.0, 465.0, 612.0, 861.0, 1396.0, 2932.0, 5314.0, 886.0, 508.0, 362.0, 262.0, 226.0, 141.0, 108.0, 90.0, 82.0, 68.0, 64.0, 52.0, 39.0, 35.0, 35.0, 18.0, 20.0, 17.0, 11.0, 13.0, 9.0, 2.0, 6.0, 2.0, 5.0, 1.0, 4.0, 1.0, 2.0, 0.0, 0.0, 1.0, 0.0, 0.0, 0.0, 2.0], "_type": "histogram"}, "gradients/fc2.bias": {"bins": [-0.033271919935941696, -0.032305121421813965, -0.031338322907686234, -0.030371524393558502, -0.02940472587943077, -0.02843792736530304, -0.027471128851175308, -0.026504330337047577, -0.025537531822919846, -0.024570733308792114, -0.023603934794664383, -0.02263713628053665, -0.02167033776640892, -0.02070353925228119, -0.019736740738153458, -0.018769942224025726, -0.017803143709897995, -0.016836345195770264, -0.015869546681642532, -0.014902748167514801, -0.01393594965338707, -0.012969151139259338, -0.012002352625131607, -0.011035554111003876, -0.010068755596876144, -0.009101957082748413, -0.008135158568620682, -0.0071683600544929504, -0.006201561540365219, -0.005234763026237488, -0.0042679645121097565, -0.003301165997982025, -0.002334367483854294, -0.0013675689697265625, -0.0004007704555988312, 0.0005660280585289001, 0.0015328265726566315, 0.002499625086784363, 0.003466423600912094, 0.0044332221150398254, 0.005400020629167557, 0.006366819143295288, 0.007333617657423019, 0.00830041617155075, 0.009267214685678482, 0.010234013199806213, 0.011200811713933945, 0.012167610228061676, 0.013134408742189407, 0.014101207256317139, 0.01506800577044487, 0.0160348042845726, 0.017001602798700333, 0.017968401312828064, 0.018935199826955795, 0.019901998341083527, 0.020868796855211258, 0.02183559536933899, 0.02280239388346672, 0.023769192397594452, 0.024735990911722183, 0.025702789425849915, 0.026669587939977646, 0.027636386454105377, 0.02860318496823311], "values": [1.0, 0.0, 0.0, 0.0, 0.0, 1.0, 0.0, 0.0, 0.0, 0.0, 0.0, 0.0, 0.0, 0.0, 0.0, 0.0, 0.0, 0.0, 0.0, 0.0, 0.0, 0.0, 0.0, 0.0, 0.0, 1.0, 0.0, 0.0, 0.0, 0.0, 1.0, 0.0, 1.0, 0.0, 1.0, 0.0, 0.0, 0.0, 0.0, 0.0, 0.0, 1.0, 0.0, 0.0, 0.0, 0.0, 0.0, 0.0, 0.0, 0.0, 0.0, 0.0, 1.0, 0.0, 0.0, 0.0, 0.0, 1.0, 0.0, 0.0, 0.0, 0.0, 0.0, 1.0], "_type": "histogram"}, "Test Accuracy": 94.29, "gradients/fc1.bias": {"bins": [-0.017398200929164886, -0.01690269447863102, -0.016407189890742302, -0.015911683440208435, -0.015416177920997143, -0.01492067240178585, -0.014425166882574558, -0.013929661363363266, -0.013434154912829399, -0.012938650324940681, -0.012443143874406815, -0.011947638355195522, -0.01145213283598423, -0.010956626385450363, -0.010461121797561646, -0.009965615347027779, -0.009470109827816486, -0.008974604308605194, -0.008479098789393902, -0.007983592338860035, -0.007488086819648743, -0.00699258130043745, -0.006497075781226158, -0.006001570262014866, -0.005506064742803574, -0.005010558292269707, -0.0045150527730584145, -0.004019547253847122, -0.00352404173463583, -0.0030285362154245377, -0.0025330297648906708, -0.0020375242456793785, -0.0015420187264680862, -0.0010465122759342194, -0.0005510076880455017, -5.550123751163483e-05, 0.0004400033503770828, 0.0009355098009109497, 0.0014310162514448166, 0.0019265208393335342, 0.002422027289867401, 0.0029175318777561188, 0.0034130383282899857, 0.0039085447788238525, 0.00440404936671257, 0.004899555817246437, 0.005395060405135155, 0.005890566855669022, 0.006386071443557739, 0.006881577894091606, 0.007377084344625473, 0.00787258893251419, 0.008368095383048058, 0.008863599970936775, 0.009359106421470642, 0.009854612872004509, 0.010350117459893227, 0.010845623910427094, 0.011341128498315811, 0.011836634948849678, 0.012332141399383545, 0.012827645987272263, 0.01332315243780613, 0.013818657025694847, 0.014314163476228714], "values": [1.0, 0.0, 0.0, 0.0, 0.0, 0.0, 0.0, 0.0, 0.0, 0.0, 0.0, 0.0, 1.0, 0.0, 3.0, 0.0, 0.0, 1.0, 1.0, 2.0, 3.0, 1.0, 0.0, 2.0, 3.0, 1.0, 0.0, 1.0, 1.0, 1.0, 5.0, 1.0, 0.0, 2.0, 6.0, 1.0, 0.0, 0.0, 1.0, 1.0, 1.0, 1.0, 2.0, 0.0, 0.0, 0.0, 0.0, 0.0, 0.0, 1.0, 0.0, 2.0, 2.0, 1.0, 0.0, 0.0, 0.0, 0.0, 0.0, 0.0, 0.0, 0.0, 0.0, 1.0], "_type": "histogram"}, "gradients/conv1.bias": {"bins": [-0.015580548904836178, -0.015230287797749043, -0.014880027621984482, -0.014529766514897346, -0.014179506339132786, -0.01382924523204565, -0.01347898505628109, -0.013128723949193954, -0.012778463773429394, -0.012428202666342258, -0.012077942490577698, -0.011727681383490562, -0.011377420276403427, -0.011027160100638866, -0.010676899924874306, -0.01032663881778717, -0.009976377710700035, -0.009626117534935474, -0.009275857359170914, -0.008925596252083778, -0.008575335144996643, -0.008225074969232082, -0.007874814793467522, -0.007524553686380386, -0.007174292579293251, -0.00682403240352869, -0.006473771296441555, -0.006123511120676994, -0.005773250013589859, -0.005422989837825298, -0.005072728730738163, -0.004722468554973602, -0.004372207447886467, -0.004021946340799332, -0.003671686165034771, -0.0033214250579476357, -0.002971164882183075, -0.0026209037750959396, -0.002270643599331379, -0.0019203824922442436, -0.001570122316479683, -0.0012198612093925476, -0.0008696010336279869, -0.0005193399265408516, -0.0001690797507762909, 0.0001811804249882698, 0.0005314415320754051, 0.0008817026391625404, 0.0012319637462496758, 0.001582224853336811, 0.0019324840977787971, 0.0022827452048659325, 0.0026330063119530678, 0.002983267419040203, 0.003333526663482189, 0.0036837877705693245, 0.00403404887765646, 0.004384309984743595, 0.004734569229185581, 0.0050848303362727165, 0.005435091443359852, 0.005785352550446987, 0.006135611794888973, 0.0064858729019761086, 0.006836134009063244], "values": [1.0, 0.0, 0.0, 0.0, 0.0, 1.0, 1.0, 0.0, 0.0, 0.0, 0.0, 0.0, 0.0, 0.0, 0.0, 0.0, 0.0, 0.0, 0.0, 0.0, 1.0, 0.0, 0.0, 0.0, 0.0, 0.0, 0.0, 0.0, 0.0, 1.0, 0.0, 0.0, 0.0, 0.0, 0.0, 0.0, 0.0, 0.0, 0.0, 0.0, 0.0, 0.0, 1.0, 1.0, 1.0, 0.0, 0.0, 0.0, 0.0, 0.0, 0.0, 0.0, 0.0, 1.0, 0.0, 0.0, 0.0, 0.0, 0.0, 0.0, 0.0, 0.0, 0.0, 1.0], "_type": "histogram"}, "_runtime": 64.92296147346497, "gradients/conv2.bias": {"bins": [-0.010573522187769413, -0.01026377733796835, -0.00995403341948986, -0.009644288569688797, -0.009334543719887733, -0.00902479887008667, -0.008715054951608181, -0.008405310101807117, -0.008095566183328629, -0.007785821333527565, -0.0074760764837265015, -0.007166332099586725, -0.006856587715446949, -0.0065468428656458855, -0.006237098481506109, -0.005927353631705046, -0.0056176092475652695, -0.005307864863425493, -0.00499812001362443, -0.0046883756294846535, -0.00437863077968359, -0.004068886395543814, -0.0037591420114040375, -0.003449397161602974, -0.0031396527774631977, -0.0028299083933234215, -0.002520163543522358, -0.0022104186937212944, -0.0019006747752428055, -0.001590929925441742, -0.0012811850756406784, -0.0009714411571621895, -0.000661696307361126, -0.0003519514575600624, -4.2207539081573486e-05, 0.00026753731071949005, 0.0005772821605205536, 0.0008870260789990425, 0.001196770928800106, 0.0015065157786011696, 0.0018162606284022331, 0.002126004546880722, 0.0024357493966817856, 0.002745494246482849, 0.003055238164961338, 0.0033649830147624016, 0.003674727864563465, 0.003984471783041954, 0.004294216632843018, 0.004603961482644081, 0.00491370540112257, 0.005223450250923634, 0.005533195100724697, 0.005842939950525761, 0.006152684800326824, 0.0064624277874827385, 0.006772172637283802, 0.007081917487084866, 0.007391662336885929, 0.007701407186686993, 0.008011152036488056, 0.00832089502364397, 0.008630639873445034, 0.008940384723246098, 0.009250129573047161], "values": [1.0, 0.0, 0.0, 0.0, 0.0, 1.0, 0.0, 0.0, 0.0, 0.0, 0.0, 0.0, 0.0, 0.0, 0.0, 1.0, 0.0, 0.0, 0.0, 0.0, 0.0, 0.0, 0.0, 0.0, 0.0, 2.0, 1.0, 0.0, 0.0, 1.0, 1.0, 0.0, 1.0, 0.0, 1.0, 0.0, 2.0, 1.0, 1.0, 1.0, 1.0, 0.0, 0.0, 0.0, 0.0, 0.0, 0.0, 2.0, 0.0, 0.0, 0.0, 0.0, 0.0, 0.0, 0.0, 0.0, 1.0, 0.0, 0.0, 0.0, 0.0, 0.0, 0.0, 1.0], "_type": "histogram"}, "gradients/conv1.weight": {"bins": [-0.05728190392255783, -0.05557660385966301, -0.05387130379676819, -0.05216600373387337, -0.050460703670978546, -0.048755403608083725, -0.047050103545188904, -0.045344799757003784, -0.04363950341939926, -0.04193419963121414, -0.04022890329360962, -0.0385235995054245, -0.03681829944252968, -0.03511299937963486, -0.033407699316740036, -0.031702399253845215, -0.029997099190950394, -0.028291799128055573, -0.02658649906516075, -0.02488119900226593, -0.02317589893937111, -0.021470598876476288, -0.019765298813581467, -0.018059998750686646, -0.016354694962501526, -0.014649394899606705, -0.012944094836711884, -0.011238794773817062, -0.009533494710922241, -0.00782819464802742, -0.006122894585132599, -0.004417594522237778, -0.0027122944593429565, -0.0010069943964481354, 0.0006983056664466858, 0.002403605729341507, 0.004108905792236328, 0.005814209580421448, 0.0075195059180259705, 0.00922480970621109, 0.010930106043815613, 0.012635409832000732, 0.014340706169605255, 0.016046009957790375, 0.017751306295394897, 0.019456610083580017, 0.02116190642118454, 0.02286721020936966, 0.02457251399755478, 0.026277810335159302, 0.02798311412334442, 0.029688410460948944, 0.031393714249134064, 0.033099010586738586, 0.034804314374923706, 0.03650961071252823, 0.03821491450071335, 0.03992021083831787, 0.04162551462650299, 0.04333081096410751, 0.04503611475229263, 0.046741411089897156, 0.048446714878082275, 0.0501520112156868, 0.05185731500387192], "values": [1.0, 1.0, 0.0, 0.0, 2.0, 2.0, 1.0, 2.0, 1.0, 0.0, 3.0, 2.0, 3.0, 2.0, 2.0, 0.0, 6.0, 1.0, 4.0, 2.0, 5.0, 0.0, 3.0, 9.0, 2.0, 6.0, 3.0, 4.0, 7.0, 8.0, 8.0, 14.0, 12.0, 14.0, 16.0, 14.0, 15.0, 8.0, 12.0, 7.0, 7.0, 6.0, 8.0, 4.0, 2.0, 3.0, 1.0, 2.0, 0.0, 3.0, 2.0, 3.0, 0.0, 0.0, 2.0, 1.0, 1.0, 0.0, 0.0, 1.0, 1.0, 0.0, 0.0, 1.0], "_type": "histogram"}, "_step": 9, "Examples": {"format": "png", "captions": ["Pred: 5 Truth: 5", "Pred: 1 Truth: 1", "Pred: 3 Truth: 9", "Pred: 6 Truth: 6", "Pred: 9 Truth: 9", "Pred: 0 Truth: 0", "Pred: 8 Truth: 8", "Pred: 9 Truth: 9", "Pred: 7 Truth: 7", "Pred: 4 Truth: 4"], "_type": "images", "width": 28, "count": 10, "height": 28}, "_timestamp": 1578884351.1494536, "graph_0": {"format": "torch", "edges": [], "nodes": [{"name": "conv1", "num_parameters": [250, 10], "output_shape": [[64, 10, 24, 24]], "class_name": "Conv2d(1, 10, kernel_size=(5, 5), stride=(1, 1))", "id": 139869627417432, "parameters": [["weight", [10, 1, 5, 5]], ["bias", [10]]]}, {"name": "conv2", "num_parameters": [5000, 20], "output_shape": [[64, 20, 8, 8]], "class_name": "Conv2d(10, 20, kernel_size=(5, 5), stride=(1, 1))", "id": 139870760231376, "parameters": [["weight", [20, 10, 5, 5]], ["bias", [20]]]}, {"name": "conv2_drop", "num_parameters": [], "output_shape": [[64, 20, 8, 8]], "class_name": "Dropout2d(p=0.5)", "id": 139869706225200, "parameters": []}, {"name": "fc1", "num_parameters": [16000, 50], "output_shape": [[64, 50]], "class_name": "Linear(in_features=320, out_features=50, bias=True)", "id": 139869640013024, "parameters": [["weight", [50, 320]], ["bias", [50]]]}, {"name": "fc2", "num_parameters": [500, 10], "output_shape": [[64, 10]], "class_name": "Linear(in_features=50, out_features=10, bias=True)", "id": 139869702519832, "parameters": [["weight", [10, 50]], ["bias", [10]]]}], "_type": "graph"}, "gradients/fc2.weight": {"bins": [-0.23490586876869202, -0.22626662254333496, -0.2176273763179779, -0.20898813009262085, -0.2003488689661026, -0.19170962274074554, -0.1830703765153885, -0.17443113029003143, -0.16579186916351318, -0.15715262293815613, -0.14851337671279907, -0.13987413048744202, -0.13123488426208496, -0.12259563058614731, -0.11395638436079025, -0.1053171306848526, -0.09667788445949554, -0.08803863823413849, -0.07939939200878143, -0.07076013088226318, -0.06212088465690613, -0.05348163843154907, -0.04484239220619202, -0.03620314598083496, -0.027563899755477905, -0.018924638628959656, -0.0102853924036026, -0.0016461461782455444, 0.006993100047111511, 0.01563236117362976, 0.024271607398986816, 0.03291085362434387, 0.04155009984970093, 0.05018934607505798, 0.05882859230041504, 0.0674678385257721, 0.07610708475112915, 0.0847463309764862, 0.09338560700416565, 0.1020248532295227, 0.11066409945487976, 0.11930334568023682, 0.12794259190559387, 0.13658183813095093, 0.14522108435630798, 0.15386033058166504, 0.1624995768070221, 0.17113882303237915, 0.1797780692577362, 0.18841734528541565, 0.1970565915107727, 0.20569583773612976, 0.21433508396148682, 0.22297433018684387, 0.23161357641220093, 0.24025282263755798, 0.24889206886291504, 0.2575313150882721, 0.26617059111595154, 0.2748098075389862, 0.28344908356666565, 0.2920882999897003, 0.30072757601737976, 0.30936679244041443, 0.31800606846809387], "values": [1.0, 2.0, 0.0, 1.0, 0.0, 1.0, 2.0, 0.0, 0.0, 2.0, 1.0, 3.0, 1.0, 5.0, 5.0, 7.0, 5.0, 4.0, 5.0, 4.0, 7.0, 5.0, 13.0, 7.0, 19.0, 24.0, 37.0, 149.0, 60.0, 35.0, 25.0, 18.0, 9.0, 4.0, 4.0, 9.0, 4.0, 5.0, 4.0, 1.0, 3.0, 1.0, 0.0, 0.0, 1.0, 1.0, 1.0, 0.0, 1.0, 0.0, 1.0, 0.0, 1.0, 0.0, 0.0, 1.0, 0.0, 0.0, 0.0, 0.0, 0.0, 0.0, 0.0, 1.0], "_type": "histogram"}, "gradients/conv2.weight": {"bins": [-0.14596934616565704, -0.14193060994148254, -0.13789187371730804, -0.13385313749313354, -0.12981440126895905, -0.12577566504478455, -0.12173692882061005, -0.11769819259643555, -0.11365945637226105, -0.10962072014808655, -0.10558198392391205, -0.10154324769973755, -0.09750451892614365, -0.09346578270196915, -0.08942704647779465, -0.08538831025362015, -0.08134957402944565, -0.07731083780527115, -0.07327210158109665, -0.06923336535692215, -0.06519462913274765, -0.06115589290857315, -0.05711715668439865, -0.05307842046022415, -0.04903969168663025, -0.04500095546245575, -0.04096221923828125, -0.03692348301410675, -0.03288474678993225, -0.02884601056575775, -0.024807274341583252, -0.020768538117408752, -0.016729801893234253, -0.012691065669059753, -0.008652329444885254, -0.004613593220710754, -0.0005748569965362549, 0.0034638792276382446, 0.007502615451812744, 0.011541351675987244, 0.015580087900161743, 0.019618824124336243, 0.023657560348510742, 0.02769629657268524, 0.03173503279685974, 0.03577376902103424, 0.03981250524520874, 0.04385124146938324, 0.047889962792396545, 0.051928699016571045, 0.055967435240745544, 0.060006171464920044, 0.06404490768909454, 0.06808364391326904, 0.07212238013744354, 0.07616111636161804, 0.08019985258579254, 0.08423858880996704, 0.08827732503414154, 0.09231606125831604, 0.09635479748249054, 0.10039353370666504, 0.10443226993083954, 0.10847102105617523, 0.11250974237918854], "values": [1.0, 0.0, 0.0, 1.0, 0.0, 0.0, 1.0, 0.0, 1.0, 4.0, 1.0, 3.0, 5.0, 1.0, 3.0, 1.0, 5.0, 5.0, 11.0, 15.0, 9.0, 13.0, 21.0, 21.0, 43.0, 27.0, 38.0, 39.0, 71.0, 76.0, 121.0, 130.0, 229.0, 320.0, 521.0, 795.0, 803.0, 540.0, 334.0, 206.0, 129.0, 99.0, 92.0, 64.0, 45.0, 43.0, 26.0, 20.0, 16.0, 10.0, 6.0, 5.0, 4.0, 4.0, 4.0, 3.0, 3.0, 3.0, 1.0, 2.0, 4.0, 1.0, 0.0, 1.0], "_type": "histogram"}}
