{"gradients/conv2.weight": {"bins": [-0.04071853309869766, -0.039055902510881424, -0.037393271923065186, -0.03573064133524895, -0.03406801074743271, -0.03240538015961647, -0.030742749571800232, -0.029080118983983994, -0.027417488396167755, -0.025754857808351517, -0.02409222535789013, -0.02242959477007389, -0.020766964182257652, -0.019104333594441414, -0.017441703006625175, -0.015779072418808937, -0.014116441830992699, -0.01245381124317646, -0.010791180655360222, -0.009128548204898834, -0.007465917617082596, -0.005803287029266357, -0.004140656441450119, -0.0024780258536338806, -0.0008153952658176422, 0.0008472353219985962, 0.0025098659098148346, 0.004172496497631073, 0.005835127085447311, 0.00749775767326355, 0.009160388261079788, 0.010823018848896027, 0.012485649436712265, 0.014148280024528503, 0.015810910612344742, 0.01747354120016098, 0.01913617178797722, 0.020798802375793457, 0.022461436688899994, 0.024124063551425934, 0.02578669786453247, 0.02744932472705841, 0.029111959040164948, 0.030774585902690887, 0.032437220215797424, 0.034099847078323364, 0.0357624813914299, 0.03742510825395584, 0.03908774256706238, 0.04075036942958832, 0.042413003742694855, 0.044075630605220795, 0.04573826491832733, 0.04740089178085327, 0.04906352609395981, 0.05072615295648575, 0.052388787269592285, 0.054051414132118225, 0.05571404844522476, 0.0573766753077507, 0.05903930962085724, 0.06070193648338318, 0.062364570796489716, 0.06402719765901566, 0.06568983197212219], "_type": "histogram", "values": [2.0, 0.0, 0.0, 1.0, 2.0, 2.0, 4.0, 6.0, 9.0, 7.0, 13.0, 12.0, 28.0, 21.0, 20.0, 34.0, 32.0, 42.0, 68.0, 85.0, 119.0, 177.0, 283.0, 463.0, 2234.0, 437.0, 283.0, 145.0, 109.0, 72.0, 60.0, 33.0, 44.0, 31.0, 34.0, 14.0, 10.0, 14.0, 7.0, 6.0, 10.0, 9.0, 2.0, 1.0, 3.0, 2.0, 3.0, 1.0, 0.0, 2.0, 2.0, 0.0, 0.0, 0.0, 0.0, 1.0, 0.0, 0.0, 0.0, 0.0, 0.0, 0.0, 0.0, 1.0]}, "gradients/fc2.weight": {"bins": [-0.22404198348522186, -0.21758194267749786, -0.21112190186977386, -0.20466184616088867, -0.19820180535316467, -0.19174176454544067, -0.18528172373771667, -0.17882168292999268, -0.17236162722110748, -0.16590158641338348, -0.15944154560565948, -0.1529814898967743, -0.1465214490890503, -0.1400614082813263, -0.1336013674736023, -0.1271413266658783, -0.1206812784075737, -0.1142212375998497, -0.1077611893415451, -0.1013011485338211, -0.0948411077260971, -0.08838105201721191, -0.08192101120948792, -0.07546097040176392, -0.06900092959403992, -0.06254088878631592, -0.056080833077430725, -0.049620792269706726, -0.04316075146198273, -0.03670071065425873, -0.030240654945373535, -0.023780614137649536, -0.017320573329925537, -0.010860532522201538, -0.004400491714477539, 0.002059563994407654, 0.008519604802131653, 0.014979645609855652, 0.02143968641757965, 0.02789972722530365, 0.03435976803302765, 0.04081980884075165, 0.047279879450798035, 0.053739920258522034, 0.06019996106624603, 0.06666000187397003, 0.07312004268169403, 0.07958008348941803, 0.08604012429714203, 0.09250016510486603, 0.09896020591259003, 0.10542027652263641, 0.11188031733036041, 0.11834035813808441, 0.12480039894580841, 0.1312604397535324, 0.1377204805612564, 0.1441805213689804, 0.1506405621767044, 0.1571006029844284, 0.1635606735944748, 0.1700207144021988, 0.1764807552099228, 0.1829407960176468, 0.1894008368253708], "_type": "histogram", "values": [1.0, 0.0, 0.0, 0.0, 0.0, 0.0, 0.0, 0.0, 0.0, 1.0, 0.0, 0.0, 0.0, 0.0, 1.0, 0.0, 0.0, 0.0, 0.0, 0.0, 0.0, 0.0, 0.0, 0.0, 1.0, 2.0, 1.0, 1.0, 2.0, 2.0, 3.0, 3.0, 5.0, 12.0, 411.0, 26.0, 5.0, 7.0, 3.0, 4.0, 2.0, 1.0, 0.0, 0.0, 1.0, 1.0, 0.0, 0.0, 1.0, 0.0, 1.0, 0.0, 0.0, 0.0, 1.0, 0.0, 0.0, 0.0, 0.0, 0.0, 0.0, 0.0, 0.0, 1.0]}, "_step": 9, "Test Accuracy": 98.38, "gradients/conv1.bias": {"bins": [-0.043410252779722214, -0.04219586029648781, -0.0409814678132534, -0.039767075330019, -0.03855268284678459, -0.037338290363550186, -0.03612389788031578, -0.03490950167179108, -0.03369510918855667, -0.032480716705322266, -0.03126632422208786, -0.030051931738853455, -0.02883753925561905, -0.027623146772384644, -0.026408754289150238, -0.025194361805915833, -0.023979969322681427, -0.02276557683944702, -0.021551184356212616, -0.02033679187297821, -0.019122399389743805, -0.01790800504386425, -0.016693612560629845, -0.01547922007739544, -0.014264827594161034, -0.013050435110926628, -0.011836040765047073, -0.010621648281812668, -0.009407255798578262, -0.008192863315343857, -0.006978470832109451, -0.005764078348875046, -0.00454968586564064, -0.0033352933824062347, -0.0021209008991718292, -0.0009065084159374237, 0.0003078840672969818, 0.0015222765505313873, 0.002736669033765793, 0.003951061517000198, 0.005165454000234604, 0.006379850208759308, 0.007594242691993713, 0.008808635175228119, 0.010023027658462524, 0.01123742014169693, 0.012451812624931335, 0.013666205108165741, 0.014880597591400146, 0.016094990074634552, 0.017309382557868958, 0.018523775041103363, 0.019738171249628067, 0.020952563732862473, 0.022166956216096878, 0.023381348699331284, 0.02459574118256569, 0.025810133665800095, 0.0270245261490345, 0.028238918632268906, 0.02945331111550331, 0.030667703598737717, 0.03188209608197212, 0.03309648856520653, 0.03431088104844093], "_type": "histogram", "values": [1.0, 0.0, 0.0, 0.0, 0.0, 0.0, 0.0, 0.0, 0.0, 0.0, 0.0, 0.0, 0.0, 0.0, 0.0, 0.0, 1.0, 0.0, 0.0, 0.0, 0.0, 1.0, 0.0, 1.0, 0.0, 0.0, 0.0, 0.0, 0.0, 0.0, 0.0, 0.0, 0.0, 0.0, 0.0, 1.0, 0.0, 1.0, 0.0, 0.0, 0.0, 0.0, 0.0, 0.0, 0.0, 0.0, 0.0, 1.0, 0.0, 0.0, 0.0, 1.0, 0.0, 0.0, 1.0, 0.0, 0.0, 0.0, 0.0, 0.0, 0.0, 0.0, 0.0, 1.0]}, "gradients/conv1.weight": {"bins": [-0.09352471679449081, -0.09095174074172974, -0.08837877213954926, -0.08580579608678818, -0.0832328200340271, -0.08065985143184662, -0.07808687537908554, -0.07551389932632446, -0.07294093072414398, -0.0703679546713829, -0.06779497861862183, -0.06522201001644135, -0.06264903396368027, -0.06007606163620949, -0.05750308930873871, -0.05493011325597763, -0.05235714092850685, -0.04978416860103607, -0.047211192548274994, -0.044638220220804214, -0.042065247893333435, -0.03949227184057236, -0.03691929951310158, -0.0343463271856308, -0.03177335113286972, -0.02920038253068924, -0.02662740647792816, -0.024054430425167084, -0.021481461822986603, -0.018908485770225525, -0.016335509717464447, -0.013762541115283966, -0.011189565062522888, -0.00861658900976181, -0.006043620407581329, -0.0034706443548202515, -0.0008976683020591736, 0.0016753003001213074, 0.004248276352882385, 0.006821252405643463, 0.009394221007823944, 0.011967197060585022, 0.0145401731133461, 0.01711314171552658, 0.01968611776828766, 0.022259093821048737, 0.024832062423229218, 0.027405038475990295, 0.029978014528751373, 0.032550983130931854, 0.035123951733112335, 0.03769693523645401, 0.04026990383863449, 0.04284287244081497, 0.04541585594415665, 0.04798882454633713, 0.05056179314851761, 0.05313477665185928, 0.055707745254039764, 0.058280713856220245, 0.06085369735956192, 0.0634266659617424, 0.06599963456392288, 0.06857261806726456, 0.07114558666944504], "_type": "histogram", "values": [1.0, 0.0, 0.0, 1.0, 0.0, 0.0, 0.0, 0.0, 0.0, 0.0, 0.0, 3.0, 1.0, 0.0, 3.0, 0.0, 1.0, 0.0, 1.0, 1.0, 1.0, 2.0, 0.0, 2.0, 5.0, 1.0, 3.0, 4.0, 5.0, 5.0, 6.0, 10.0, 9.0, 14.0, 16.0, 9.0, 16.0, 8.0, 12.0, 16.0, 11.0, 12.0, 13.0, 9.0, 11.0, 3.0, 6.0, 2.0, 5.0, 4.0, 4.0, 2.0, 0.0, 1.0, 0.0, 1.0, 2.0, 2.0, 1.0, 1.0, 2.0, 0.0, 0.0, 2.0]}, "Test Loss": 0.05616678352355957, "gradients/conv2.bias": {"bins": [-0.020323598757386208, -0.019724421203136444, -0.01912524364888668, -0.018526064231991768, -0.017926886677742004, -0.01732770912349224, -0.016728531569242477, -0.016129354014992714, -0.015530175529420376, -0.014930997043848038, -0.014331819489598274, -0.01373264193534851, -0.013133464381098747, -0.01253428589552641, -0.011935108341276646, -0.011335929855704308, -0.010736752301454544, -0.01013757474720478, -0.009538396261632442, -0.008939218707382679, -0.008340040221810341, -0.007740862667560577, -0.007141685113310814, -0.006542506627738476, -0.005943329073488712, -0.005344151519238949, -0.004744973033666611, -0.004145795479416847, -0.0035466179251670837, -0.0029474403709173203, -0.0023482609540224075, -0.001749083399772644, -0.0011499058455228806, -0.0005507282912731171, 4.844926297664642e-05, 0.0006476286798715591, 0.0012468062341213226, 0.0018459837883710861, 0.0024451613426208496, 0.003044338896870613, 0.003643518313765526, 0.004242695868015289, 0.004841873422265053, 0.005441050976514816, 0.00604022853076458, 0.006639406085014343, 0.007238585501909256, 0.00783776305615902, 0.008436940610408783, 0.009036118164658546, 0.00963529571890831, 0.010234475135803223, 0.010833652690052986, 0.0114328283816576, 0.012032007798552513, 0.012631187215447426, 0.01323036290705204, 0.013829542323946953, 0.014428718015551567, 0.01502789743244648, 0.015627076849341393, 0.016226252540946007, 0.01682543195784092, 0.017424607649445534, 0.018023787066340446], "_type": "histogram", "values": [1.0, 0.0, 0.0, 0.0, 0.0, 0.0, 0.0, 0.0, 0.0, 0.0, 0.0, 0.0, 0.0, 0.0, 1.0, 0.0, 1.0, 0.0, 0.0, 0.0, 1.0, 0.0, 1.0, 0.0, 0.0, 0.0, 2.0, 0.0, 0.0, 1.0, 1.0, 0.0, 0.0, 1.0, 1.0, 1.0, 0.0, 1.0, 0.0, 1.0, 0.0, 0.0, 2.0, 0.0, 0.0, 0.0, 0.0, 1.0, 0.0, 0.0, 0.0, 1.0, 0.0, 0.0, 0.0, 0.0, 0.0, 0.0, 1.0, 0.0, 0.0, 0.0, 0.0, 1.0]}, "graph_0": {"_type": "graph", "nodes": [{"num_parameters": [250, 10], "output_shape": [[64, 10, 24, 24]], "name": "conv1", "parameters": [["weight", [10, 1, 5, 5]], ["bias", [10]]], "id": 140307736258544, "class_name": "Conv2d(1, 10, kernel_size=(5, 5), stride=(1, 1))"}, {"num_parameters": [5000, 20], "output_shape": [[64, 20, 8, 8]], "name": "conv2", "parameters": [["weight", [20, 10, 5, 5]], ["bias", [20]]], "id": 140308869067216, "class_name": "Conv2d(10, 20, kernel_size=(5, 5), stride=(1, 1))"}, {"num_parameters": [], "output_shape": [[64, 20, 8, 8]], "name": "conv2_drop", "parameters": [], "id": 140307815057000, "class_name": "Dropout2d(p=0.5)"}, {"num_parameters": [16000, 50], "output_shape": [[64, 50]], "name": "fc1", "parameters": [["weight", [50, 320]], ["bias", [50]]], "id": 140307748836632, "class_name": "Linear(in_features=320, out_features=50, bias=True)"}, {"num_parameters": [500, 10], "output_shape": [[64, 10]], "name": "fc2", "parameters": [["weight", [10, 50]], ["bias", [10]]], "id": 140308925060712, "class_name": "Linear(in_features=50, out_features=10, bias=True)"}], "edges": [], "format": "torch"}, "gradients/fc2.bias": {"bins": [-0.013919339515268803, -0.01360537949949503, -0.013291418552398682, -0.012977458536624908, -0.012663498520851135, -0.012349537573754787, -0.012035577557981014, -0.011721616610884666, -0.011407656595110893, -0.01109369657933712, -0.010779736563563347, -0.010465775616466999, -0.010151815600693226, -0.009837854653596878, -0.009523894637823105, -0.009209934622049332, -0.008895974606275558, -0.00858201365917921, -0.008268053643405437, -0.00795409269630909, -0.0076401326805353165, -0.007326172664761543, -0.007012212183326483, -0.006698251701891422, -0.006384291686117649, -0.006070330739021301, -0.005756370723247528, -0.005442410707473755, -0.005128449760377407, -0.004814489744603634, -0.004500529728829861, -0.004186568781733513, -0.0038726087659597397, -0.0035586487501859665, -0.0032446878030896187, -0.0029307277873158455, -0.0026167677715420723, -0.0023028068244457245, -0.0019888468086719513, -0.001674886792898178, -0.0013609258458018303, -0.001046965830028057, -0.0007330058142542839, -0.0004190448671579361, -0.0001050848513841629, 0.0002088751643896103, 0.0005228361114859581, 0.0008367961272597313, 0.0011507561430335045, 0.0014647170901298523, 0.0017786780372262, 0.0020926380529999733, 0.0024065980687737465, 0.0027205580845475197, 0.003034518100321293, 0.003348478116095066, 0.0036624399945139885, 0.003976400010287762, 0.004290360026061535, 0.004604320041835308, 0.004918280057609081, 0.0052322400733828545, 0.005546201951801777, 0.00586016196757555, 0.006174121983349323], "_type": "histogram", "values": [1.0, 0.0, 0.0, 0.0, 0.0, 0.0, 0.0, 0.0, 0.0, 0.0, 0.0, 0.0, 0.0, 0.0, 0.0, 0.0, 0.0, 0.0, 0.0, 0.0, 0.0, 0.0, 0.0, 0.0, 0.0, 0.0, 0.0, 0.0, 0.0, 0.0, 0.0, 0.0, 1.0, 0.0, 0.0, 0.0, 0.0, 1.0, 0.0, 1.0, 0.0, 0.0, 0.0, 0.0, 0.0, 0.0, 0.0, 0.0, 0.0, 0.0, 2.0, 1.0, 0.0, 0.0, 0.0, 0.0, 1.0, 0.0, 0.0, 0.0, 1.0, 0.0, 0.0, 1.0]}, "gradients/fc1.weight": {"bins": [-0.08370788395404816, -0.08076000213623047, -0.07781211286783218, -0.0748642310500145, -0.07191634178161621, -0.06896845996379852, -0.06602057814598083, -0.06307269632816315, -0.06012480705976486, -0.057176921516656876, -0.05422903597354889, -0.0512811541557312, -0.048333268612623215, -0.04538538306951523, -0.04243750125169754, -0.039489615708589554, -0.03654173016548157, -0.03359384462237358, -0.030645959079265594, -0.027698077261447906, -0.02475019171833992, -0.021802306175231934, -0.018854424357414246, -0.01590653508901596, -0.012958653271198273, -0.010010771453380585, -0.0070628821849823, -0.004115000367164612, -0.0011671185493469238, 0.001780770719051361, 0.004728652536869049, 0.007676541805267334, 0.010624423623085022, 0.01357230544090271, 0.016520194709300995, 0.019468076527118683, 0.022415965795516968, 0.025363847613334656, 0.028311729431152344, 0.03125961869955063, 0.03420750051736832, 0.037155382335186005, 0.04010327160358429, 0.04305115342140198, 0.045999035239219666, 0.048946917057037354, 0.051894813776016235, 0.05484269559383392, 0.05779057741165161, 0.0607384592294693, 0.06368634104728699, 0.06663423776626587, 0.06958211958408356, 0.07253000140190125, 0.07547788321971893, 0.07842576503753662, 0.08137364685535431, 0.08432154357433319, 0.08726942539215088, 0.09021730720996857, 0.09316518902778625, 0.09611307084560394, 0.09906096756458282, 0.10200884938240051, 0.1049567312002182], "_type": "histogram", "values": [4.0, 0.0, 0.0, 0.0, 0.0, 0.0, 1.0, 2.0, 1.0, 1.0, 4.0, 1.0, 2.0, 6.0, 5.0, 7.0, 8.0, 7.0, 7.0, 15.0, 23.0, 23.0, 24.0, 29.0, 41.0, 86.0, 192.0, 543.0, 14443.0, 151.0, 107.0, 70.0, 45.0, 27.0, 16.0, 14.0, 15.0, 12.0, 18.0, 9.0, 8.0, 4.0, 4.0, 5.0, 3.0, 2.0, 3.0, 5.0, 1.0, 0.0, 1.0, 1.0, 0.0, 0.0, 1.0, 1.0, 0.0, 0.0, 0.0, 0.0, 0.0, 0.0, 0.0, 2.0]}, "Examples": {"count": 10, "width": 28, "format": "png", "_type": "images", "captions": ["Pred: 5 Truth: 5", "Pred: 1 Truth: 1", "Pred: 9 Truth: 9", "Pred: 6 Truth: 6", "Pred: 9 Truth: 9", "Pred: 0 Truth: 0", "Pred: 8 Truth: 8", "Pred: 9 Truth: 9", "Pred: 7 Truth: 7", "Pred: 4 Truth: 4"], "height": 28}, "_timestamp": 1578891469.2309797, "_runtime": 64.394357919693, "gradients/fc1.bias": {"bins": [-0.009290741756558418, -0.008964011445641518, -0.008637282066047192, -0.008310551755130291, -0.007983822375535965, -0.007657092064619064, -0.007330362219363451, -0.007003632374107838, -0.006676902528852224, -0.006350172683596611, -0.006023442838340998, -0.005696712993085384, -0.005369982682168484, -0.00504325283691287, -0.004716522991657257, -0.004389793146401644, -0.00406306330114603, -0.003736333455890417, -0.0034096036106348038, -0.0030828737653791904, -0.002756143920123577, -0.0024294136092066765, -0.002102683763951063, -0.0017759539186954498, -0.0014492236077785492, -0.0011224942281842232, -0.0007957639172673225, -0.0004690345376729965, -0.00014230422675609589, 0.00018442515283823013, 0.0005111554637551308, 0.0008378848433494568, 0.0011646151542663574, 0.001491345465183258, 0.001818074844777584, 0.0021448051556944847, 0.0024715345352888107, 0.0027982648462057114, 0.0031249942258000374, 0.003451724536716938, 0.003778453916311264, 0.004105184227228165, 0.004431914538145065, 0.004758643917739391, 0.005085374228656292, 0.005412103608250618, 0.005738833919167519, 0.006065563298761845, 0.00639229454100132, 0.006719022989273071, 0.007045753300189972, 0.0073724836111068726, 0.007699213922023773, 0.008025942370295525, 0.008352672681212425, 0.008679402992129326, 0.009006133303046227, 0.009332863613963127, 0.009659592062234879, 0.00998632237315178, 0.01031305268406868, 0.01063978299498558, 0.010966511443257332, 0.011293241754174232, 0.011619972065091133], "_type": "histogram", "values": [2.0, 0.0, 0.0, 0.0, 0.0, 0.0, 0.0, 0.0, 0.0, 0.0, 1.0, 0.0, 1.0, 1.0, 0.0, 0.0, 0.0, 1.0, 0.0, 0.0, 1.0, 0.0, 0.0, 3.0, 2.0, 6.0, 3.0, 3.0, 16.0, 1.0, 0.0, 1.0, 0.0, 0.0, 2.0, 2.0, 0.0, 1.0, 0.0, 0.0, 0.0, 0.0, 0.0, 0.0, 0.0, 0.0, 0.0, 1.0, 0.0, 0.0, 1.0, 0.0, 0.0, 0.0, 0.0, 0.0, 0.0, 0.0, 0.0, 0.0, 0.0, 0.0, 0.0, 1.0]}}
