{"gradients/rnn.weight_hh_l0": {"values": [2.0, 1.0, 1.0, 0.0, 0.0, 2.0, 0.0, 0.0, 3.0, 3.0, 2.0, 4.0, 3.0, 3.0, 7.0, 15.0, 11.0, 18.0, 14.0, 42.0, 60.0, 78.0, 104.0, 192.0, 288.0, 501.0, 901.0, 2030.0, 5266.0, 16105.0, 81416.0, 36406.0, 9943.0, 3293.0, 1495.0, 752.0, 373.0, 222.0, 143.0, 93.0, 70.0, 45.0, 28.0, 17.0, 12.0, 10.0, 9.0, 4.0, 1.0, 3.0, 3.0, 3.0, 1.0, 0.0, 1.0, 0.0, 0.0, 0.0, 0.0, 0.0, 0.0, 0.0, 0.0, 1.0], "_type": "histogram", "bins": [-0.006634911987930536, -0.006419445853680372, -0.006203979253768921, -0.005988513119518757, -0.005773046985268593, -0.005557580851018429, -0.005342114716768265, -0.005126648116856813, -0.004911181982606649, -0.004695715848356485, -0.004480249248445034, -0.00426478311419487, -0.004049316979944706, -0.003833850845694542, -0.0036183844786137342, -0.0034029181115329266, -0.0031874519772827625, -0.0029719858430325985, -0.002756519475951791, -0.002541053108870983, -0.002325586974620819, -0.002110120840370655, -0.0018946542404592037, -0.0016791881062090397, -0.0014637219719588757, -0.0012482558377087116, -0.0010327897034585476, -0.0008173231035470963, -0.0006018569692969322, -0.0003863908350467682, -0.00017092423513531685, 4.454189911484718e-05, 0.0002600080333650112, 0.00047547416761517525, 0.0006909403018653393, 0.0009064069017767906, 0.0011218730360269547, 0.001337339635938406, 0.00155280577018857, 0.001768271904438734, 0.001983738038688898, 0.002199204172939062, 0.002414670307189226, 0.00263013644143939, 0.002845603507012129, 0.003061069641262293, 0.003276535775512457, 0.003492001909762621, 0.003707468044012785, 0.003922934178262949, 0.004138400312513113, 0.004353866446763277, 0.004569332581013441, 0.00478479964658618, 0.005000265780836344, 0.005215731915086508, 0.005431198049336672, 0.005646664183586836, 0.005862130317837, 0.006077596452087164, 0.006293063517659903, 0.006508529651910067, 0.006723995786160231, 0.006939461920410395, 0.007154928054660559]}, "_step": 17, "valid loss": 5.22207993715666, "gradients/encoder.weight": {"values": [1.0, 0.0, 0.0, 0.0, 0.0, 0.0, 0.0, 0.0, 0.0, 0.0, 0.0, 0.0, 0.0, 1.0, 1.0, 1.0, 0.0, 1.0, 3.0, 1.0, 4.0, 5.0, 0.0, 4.0, 3.0, 9.0, 14.0, 23.0, 23.0, 47.0, 85.0, 151.0, 321.0, 650.0, 1223.0, 2911.0, 5938.0, 11894.0, 6612119.0, 10529.0, 5047.0, 2363.0, 1086.0, 546.0, 254.0, 147.0, 78.0, 31.0, 21.0, 22.0, 10.0, 8.0, 6.0, 5.0, 2.0, 0.0, 1.0, 2.0, 2.0, 1.0, 1.0, 1.0, 2.0, 2.0], "_type": "histogram", "bins": [-0.011589358560740948, -0.011287408880889416, -0.010985459201037884, -0.010683508589863777, -0.010381558910012245, -0.010079609230160713, -0.009777659550309181, -0.00947570987045765, -0.009173759259283543, -0.00887180957943201, -0.008569859899580479, -0.008267909288406372, -0.00796595960855484, -0.007664009928703308, -0.007362060248851776, -0.007060110103338957, -0.006758160423487425, -0.006456210743635893, -0.006154260598123074, -0.005852310918271542, -0.005550360772758722, -0.00524841109290719, -0.004946460947394371, -0.004644511267542839, -0.004342561587691307, -0.004040611442178488, -0.0037386612966656685, -0.0034367116168141365, -0.0031347619369626045, -0.0028328122571110725, -0.002530861645936966, -0.002228911966085434, -0.001926962286233902, -0.00162501260638237, -0.001323062926530838, -0.0010211123153567314, -0.0007191626355051994, -0.00041721295565366745, -0.00011526327580213547, 0.00018668733537197113, 0.0004886370152235031, 0.0007905866950750351, 0.001092536374926567, 0.001394486054778099, 0.0016964366659522057, 0.0019983863458037376, 0.0023003360256552696, 0.0026022857055068016, 0.0029042353853583336, 0.00320618599653244, 0.003508135676383972, 0.003810085356235504, 0.004112035967409611, 0.004413985647261143, 0.004715935327112675, 0.005017885006964207, 0.005319834686815739, 0.005621784366667271, 0.005923734046518803, 0.006225683726370335, 0.006527635268867016, 0.006829584948718548, 0.00713153462857008, 0.007433484308421612, 0.007735433988273144]}, "gradients/rnn.weight_ih_l1": {"values": [2.0, 1.0, 0.0, 1.0, 2.0, 7.0, 7.0, 8.0, 15.0, 17.0, 29.0, 36.0, 46.0, 81.0, 152.0, 193.0, 264.0, 456.0, 712.0, 1160.0, 2104.0, 4230.0, 9545.0, 25370.0, 78412.0, 20568.0, 8074.0, 3642.0, 1876.0, 1028.0, 658.0, 409.0, 285.0, 188.0, 108.0, 87.0, 59.0, 58.0, 26.0, 26.0, 17.0, 11.0, 10.0, 4.0, 5.0, 3.0, 3.0, 1.0, 0.0, 1.0, 0.0, 0.0, 0.0, 0.0, 0.0, 0.0, 1.0, 0.0, 1.0, 0.0, 0.0, 0.0, 0.0, 1.0], "_type": "histogram", "bins": [-0.004648029804229736, -0.004457645118236542, -0.004267260432243347, -0.00407687621191144, -0.0038864915259182453, -0.0036961068399250507, -0.0035057223867625, -0.003315337933599949, -0.0031249532476067543, -0.0029345685616135597, -0.002744184108451009, -0.002553799655288458, -0.0023634149692952633, -0.0021730302833020687, -0.001982645830139518, -0.0017922613769769669, -0.0016018766909837723, -0.0014114920049905777, -0.0012211075518280268, -0.0010307230986654758, -0.0008403384126722813, -0.0006499537266790867, -0.0004595695063471794, -0.00026918482035398483, -7.880013436079025e-05, 0.00011158455163240433, 0.0003019692376255989, 0.0004923534579575062, 0.0006827381439507008, 0.0008731228299438953, 0.0010635070502758026, 0.0012538917362689972, 0.0014442764222621918, 0.0016346611082553864, 0.001825045794248581, 0.002015430014580488, 0.002205814700573683, 0.0023961993865668774, 0.0025865836068987846, 0.0027769682928919792, 0.002967352978885174, 0.0031577376648783684, 0.003348122350871563, 0.0035385070368647575, 0.0037288907915353775, 0.003919275477528572, 0.004109660163521767, 0.004300044849514961, 0.004490429535508156, 0.00468081422150135, 0.004871198907494545, 0.0050615835934877396, 0.005251968279480934, 0.005442352034151554, 0.005632736720144749, 0.005823121406137943, 0.006013506092131138, 0.006203890778124332, 0.006394275464117527, 0.006584660150110722, 0.0067750439047813416, 0.006965428590774536, 0.007155813276767731, 0.007346197962760925, 0.00753658264875412]}, "gradients/rnn.bias_hh_l0": {"values": [1.0, 0.0, 0.0, 0.0, 0.0, 0.0, 0.0, 0.0, 0.0, 0.0, 0.0, 1.0, 0.0, 1.0, 0.0, 1.0, 2.0, 1.0, 0.0, 1.0, 0.0, 1.0, 1.0, 2.0, 2.0, 1.0, 3.0, 2.0, 3.0, 7.0, 10.0, 9.0, 35.0, 57.0, 84.0, 178.0, 144.0, 88.0, 50.0, 36.0, 26.0, 18.0, 12.0, 5.0, 1.0, 3.0, 3.0, 0.0, 1.0, 3.0, 4.0, 0.0, 0.0, 0.0, 1.0, 0.0, 0.0, 1.0, 0.0, 0.0, 0.0, 0.0, 0.0, 1.0], "_type": "histogram", "bins": [-0.008995539508759975, -0.008745461702346802, -0.008495382964611053, -0.00824530515819788, -0.007995227351784706, -0.007745149079710245, -0.007495070807635784, -0.0072449930012226105, -0.006994915194809437, -0.006744836922734976, -0.006494758650660515, -0.006244680844247341, -0.00599460257217288, -0.005744524300098419, -0.0054944464936852455, -0.005244368687272072, -0.004994290415197611, -0.00474421214312315, -0.004494134336709976, -0.004244056064635515, -0.0039939782582223415, -0.0037438999861478806, -0.003493822179734707, -0.003243743907660246, -0.002993665635585785, -0.0027435878291726112, -0.0024935095570981503, -0.0022434317506849766, -0.0019933534786105156, -0.001743275672197342, -0.001493197400122881, -0.0012431195937097073, -0.0009930413216352463, -0.0007429635152220726, -0.0004928847774863243, -0.00024280697107315063, 7.270835340023041e-06, 0.0002573486417531967, 0.000507427379488945, 0.0007575051859021187, 0.0010075829923152924, 0.0012576617300510406, 0.0015077395364642143, 0.001757817342877388, 0.0020078951492905617, 0.00225797388702631, 0.0025080516934394836, 0.0027581294998526573, 0.0030082082375884056, 0.0032582860440015793, 0.003508363850414753, 0.0037584416568279266, 0.004008520394563675, 0.004258598200976849, 0.004508676007390022, 0.004758753813803196, 0.005008832551538944, 0.005258910357952118, 0.005508988164365292, 0.00575906690210104, 0.0060091447085142136, 0.006259222514927387, 0.006509300321340561, 0.006759378127753735, 0.007009456865489483]}, "graph_0": {"nodes": [{"id": 139807619851264, "num_parameters": [6655600], "name": "encoder", "output_shape": [[35, 20, 200]], "parameters": [["weight", [33278, 200]]], "class_name": "Embedding(33278, 200)"}, {"id": 139807619852272, "num_parameters": [], "name": "drop", "output_shape": [[35, 20, 200]], "parameters": [], "class_name": "Dropout(p=0.2, inplace=False)"}, {"id": 139807619850816, "num_parameters": [160000, 160000, 800, 800, 160000, 160000, 800, 800], "name": "rnn", "output_shape": [[35, 20, 200], [[2, 20, 200], [2, 20, 200]]], "parameters": [["weight_ih_l0", [800, 200]], ["weight_hh_l0", [800, 200]], ["bias_ih_l0", [800]], ["bias_hh_l0", [800]], ["weight_ih_l1", [800, 200]], ["weight_hh_l1", [800, 200]], ["bias_ih_l1", [800]], ["bias_hh_l1", [800]]], "class_name": "LSTM(200, 200, num_layers=2, dropout=0.2)"}, {"id": 139808962054856, "num_parameters": [6655600, 33278], "name": "decoder", "output_shape": [[35, 20, 33278]], "parameters": [["weight", [33278, 200]], ["bias", [33278]]], "class_name": "Linear(in_features=200, out_features=33278, bias=True)"}], "_type": "graph", "edges": [], "format": "torch"}, "train loss": 3.997475763042117, "gradients/rnn.bias_ih_l1": {"values": [1.0, 0.0, 0.0, 0.0, 0.0, 0.0, 0.0, 0.0, 0.0, 0.0, 0.0, 0.0, 0.0, 0.0, 1.0, 0.0, 2.0, 0.0, 0.0, 1.0, 2.0, 3.0, 2.0, 5.0, 2.0, 3.0, 6.0, 10.0, 11.0, 20.0, 33.0, 43.0, 72.0, 103.0, 198.0, 96.0, 58.0, 40.0, 24.0, 16.0, 10.0, 13.0, 5.0, 4.0, 1.0, 3.0, 2.0, 1.0, 0.0, 1.0, 0.0, 0.0, 3.0, 0.0, 0.0, 1.0, 0.0, 1.0, 1.0, 0.0, 1.0, 0.0, 0.0, 1.0], "_type": "histogram", "bins": [-0.00892561487853527, -0.00866648554801941, -0.008407356217503548, -0.008148225955665112, -0.00788909662514925, -0.0076299672946333885, -0.007370837964117527, -0.0071117086336016655, -0.006852578837424517, -0.006593449041247368, -0.006334319710731506, -0.006075190380215645, -0.005816061049699783, -0.0055569312535226345, -0.005297801923006773, -0.005038672126829624, -0.004779542796313763, -0.004520413465797901, -0.004261283669620752, -0.004002154339104891, -0.003743024542927742, -0.0034838952124118805, -0.003224765881896019, -0.00296563608571887, -0.0027065067552030087, -0.002447377424687147, -0.0021882476285099983, -0.0019291182979941368, -0.0016699889674782753, -0.0014108591713011265, -0.001151729840785265, -0.0008926000446081161, -0.0006334707140922546, -0.00037434138357639313, -0.00011521205306053162, 0.0001439182087779045, 0.000403047539293766, 0.0006621768698096275, 0.000921306200325489, 0.0011804355308413506, 0.0014395657926797867, 0.0016986951231956482, 0.0019578244537115097, 0.002216953784227371, 0.0024760831147432327, 0.0027352124452590942, 0.0029943427070975304, 0.003253472037613392, 0.0035126013681292534, 0.003771730698645115, 0.004030860029160976, 0.0042899902909994125, 0.004549119621515274, 0.0048082489520311356, 0.005067378282546997, 0.005326507613062859, 0.00558563694357872, 0.005844767205417156, 0.006103896535933018, 0.006363025866448879, 0.006622155196964741, 0.006881285458803177, 0.007140414789319038, 0.0073995441198349, 0.007658673450350761]}, "gradients/rnn.bias_hh_l1": {"values": [1.0, 0.0, 0.0, 0.0, 0.0, 0.0, 0.0, 0.0, 0.0, 0.0, 0.0, 0.0, 0.0, 0.0, 1.0, 0.0, 2.0, 0.0, 0.0, 1.0, 2.0, 3.0, 2.0, 5.0, 2.0, 3.0, 6.0, 10.0, 11.0, 20.0, 33.0, 43.0, 72.0, 103.0, 198.0, 96.0, 58.0, 40.0, 24.0, 16.0, 10.0, 13.0, 5.0, 4.0, 1.0, 3.0, 2.0, 1.0, 0.0, 1.0, 0.0, 0.0, 3.0, 0.0, 0.0, 1.0, 0.0, 1.0, 1.0, 0.0, 1.0, 0.0, 0.0, 1.0], "_type": "histogram", "bins": [-0.00892561487853527, -0.00866648554801941, -0.008407356217503548, -0.008148225955665112, -0.00788909662514925, -0.0076299672946333885, -0.007370837964117527, -0.0071117086336016655, -0.006852578837424517, -0.006593449041247368, -0.006334319710731506, -0.006075190380215645, -0.005816061049699783, -0.0055569312535226345, -0.005297801923006773, -0.005038672126829624, -0.004779542796313763, -0.004520413465797901, -0.004261283669620752, -0.004002154339104891, -0.003743024542927742, -0.0034838952124118805, -0.003224765881896019, -0.00296563608571887, -0.0027065067552030087, -0.002447377424687147, -0.0021882476285099983, -0.0019291182979941368, -0.0016699889674782753, -0.0014108591713011265, -0.001151729840785265, -0.0008926000446081161, -0.0006334707140922546, -0.00037434138357639313, -0.00011521205306053162, 0.0001439182087779045, 0.000403047539293766, 0.0006621768698096275, 0.000921306200325489, 0.0011804355308413506, 0.0014395657926797867, 0.0016986951231956482, 0.0019578244537115097, 0.002216953784227371, 0.0024760831147432327, 0.0027352124452590942, 0.0029943427070975304, 0.003253472037613392, 0.0035126013681292534, 0.003771730698645115, 0.004030860029160976, 0.0042899902909994125, 0.004549119621515274, 0.0048082489520311356, 0.005067378282546997, 0.005326507613062859, 0.00558563694357872, 0.005844767205417156, 0.006103896535933018, 0.006363025866448879, 0.006622155196964741, 0.006881285458803177, 0.007140414789319038, 0.0073995441198349, 0.007658673450350761]}, "gradients/rnn.weight_ih_l0": {"values": [1.0, 0.0, 0.0, 1.0, 0.0, 0.0, 0.0, 1.0, 1.0, 1.0, 1.0, 0.0, 2.0, 4.0, 4.0, 8.0, 10.0, 13.0, 23.0, 29.0, 42.0, 81.0, 109.0, 211.0, 335.0, 595.0, 1040.0, 2166.0, 5625.0, 15439.0, 60018.0, 48896.0, 15042.0, 5486.0, 2258.0, 1066.0, 593.0, 364.0, 210.0, 133.0, 72.0, 40.0, 26.0, 16.0, 10.0, 10.0, 7.0, 4.0, 0.0, 2.0, 0.0, 1.0, 0.0, 2.0, 0.0, 0.0, 1.0, 0.0, 0.0, 0.0, 0.0, 0.0, 0.0, 1.0], "_type": "histogram", "bins": [-0.0038687381893396378, -0.003743873443454504, -0.0036190086975693703, -0.0034941439516842365, -0.003369279205799103, -0.003244414459913969, -0.0031195497140288353, -0.0029946849681437016, -0.002869820222258568, -0.002744955476373434, -0.0026200907304883003, -0.0024952259846031666, -0.002370361238718033, -0.002245496492832899, -0.0021206317469477654, -0.0019957670010626316, -0.0018709022551774979, -0.0017460375092923641, -0.0016211727634072304, -0.0014963080175220966, -0.0013714432716369629, -0.0012465785257518291, -0.0011217137798666954, -0.0009968490339815617, -0.0008719842880964279, -0.0007471195422112942, -0.0006222547963261604, -0.0004973900504410267, -0.00037252530455589294, -0.0002476605586707592, -0.00012279581278562546, 2.0689330995082855e-06, 0.00012693367898464203, 0.00025179842486977577, 0.0003766631707549095, 0.0005015279166400433, 0.000626392662525177, 0.0007512574084103107, 0.0008761221542954445, 0.0010009869001805782, 0.001125851646065712, 0.0012507163919508457, 0.0013755811378359795, 0.0015004458837211132, 0.001625310629606247, 0.0017501753754913807, 0.0018750401213765144, 0.001999904867261648, 0.002124769613146782, 0.0022496343590319157, 0.0023744991049170494, 0.002499363850802183, 0.002624228596687317, 0.0027490933425724506, 0.0028739580884575844, 0.002998822834342718, 0.003123687580227852, 0.0032485523261129856, 0.0033734170719981194, 0.003498281817883253, 0.003623146563768387, 0.0037480113096535206, 0.0038728760555386543, 0.003997741267085075, 0.004122605547308922]}, "_runtime": 657.0020208358765, "gradients/rnn.weight_hh_l1": {"values": [1.0, 0.0, 0.0, 0.0, 0.0, 1.0, 1.0, 2.0, 1.0, 2.0, 1.0, 3.0, 1.0, 1.0, 5.0, 4.0, 5.0, 7.0, 9.0, 10.0, 14.0, 17.0, 29.0, 42.0, 77.0, 100.0, 127.0, 245.0, 346.0, 591.0, 1018.0, 2058.0, 4483.0, 12026.0, 49308.0, 67514.0, 12497.0, 4699.0, 2090.0, 1062.0, 607.0, 325.0, 200.0, 169.0, 88.0, 65.0, 35.0, 36.0, 15.0, 11.0, 11.0, 7.0, 8.0, 6.0, 6.0, 4.0, 2.0, 3.0, 0.0, 1.0, 1.0, 0.0, 1.0, 2.0], "_type": "histogram", "bins": [-0.009857280179858208, -0.009575814940035343, -0.009294348768889904, -0.00901288352906704, -0.0087314173579216, -0.008449952118098736, -0.008168486878275871, -0.007887020707130432, -0.007605555467307568, -0.007324089761823416, -0.007042624056339264, -0.006761158816516399, -0.0064796931110322475, -0.006198227405548096, -0.005916762165725231, -0.005635296460241079, -0.0053538307547569275, -0.005072365049272776, -0.004790899343788624, -0.004509434103965759, -0.0042279683984816074, -0.003946502692997456, -0.003665037453174591, -0.0033835717476904392, -0.0031021060422062874, -0.0028206403367221355, -0.0025391746312379837, -0.002257709391415119, -0.0019762441515922546, -0.0016947779804468155, -0.001413312740623951, -0.0011318465694785118, -0.0008503813296556473, -0.0005689160898327827, -0.0002874499186873436, -5.984678864479065e-06, 0.0002754814922809601, 0.0005569467321038246, 0.0008384119719266891, 0.0011198781430721283, 0.0014013433828949928, 0.0016828086227178574, 0.0019642747938632965, 0.002245740033686161, 0.0025272052735090256, 0.0028086714446544647, 0.0030901366844773293, 0.0033716028556227684, 0.003653068095445633, 0.0039345333352684975, 0.004215999506413937, 0.004497464746236801, 0.00477893091738224, 0.005060396157205105, 0.005341861397027969, 0.0056233275681734085, 0.005904791876673698, 0.006186258047819138, 0.006467724218964577, 0.006749190390110016, 0.007030654698610306, 0.007312120869755745, 0.007593587040901184, 0.007875051349401474, 0.008156517520546913]}, "gradients/decoder.weight": {"values": [1.0, 0.0, 0.0, 0.0, 0.0, 2.0, 3.0, 1.0, 0.0, 2.0, 1.0, 4.0, 1.0, 2.0, 3.0, 4.0, 8.0, 14.0, 14.0, 13.0, 16.0, 28.0, 28.0, 40.0, 50.0, 94.0, 185.0, 216.0, 294.0, 1008.0, 3203.0, 3482.0, 4421.0, 46010.0, 6581803.0, 5117.0, 3570.0, 3376.0, 1559.0, 275.0, 229.0, 156.0, 117.0, 59.0, 44.0, 25.0, 23.0, 23.0, 14.0, 12.0, 12.0, 9.0, 9.0, 4.0, 3.0, 3.0, 4.0, 2.0, 2.0, 1.0, 0.0, 0.0, 0.0, 1.0], "_type": "histogram", "bins": [-0.013994635082781315, -0.013584225438535213, -0.013173814862966537, -0.012763405218720436, -0.01235299464315176, -0.011942584998905659, -0.011532174423336983, -0.011121764779090881, -0.01071135513484478, -0.010300944559276104, -0.009890533983707428, -0.009480124339461327, -0.009069714695215225, -0.008659305050969124, -0.008248894475400448, -0.007838483899831772, -0.0074280742555856705, -0.007017664145678282, -0.006607254035770893, -0.006196843925863504, -0.005786433815956116, -0.005376024171710014, -0.004965613596141338, -0.004555203951895237, -0.004144794307649136, -0.0037343837320804596, -0.003323974087834358, -0.0029135635122656822, -0.002503153868019581, -0.002092743292450905, -0.0016823336482048035, -0.0012719230726361275, -0.0008615134283900261, -0.0004511037841439247, -4.069320857524872e-05, 0.00036971643567085266, 0.0007801270112395287, 0.00119053665548563, 0.001600947231054306, 0.002011357806622982, 0.0024217674508690834, 0.002832177095115185, 0.003242586739361286, 0.0036529963836073875, 0.004063407890498638, 0.0044738175347447395, 0.004884227178990841, 0.005294636823236942, 0.005705046467483044, 0.006115457974374294, 0.006525867618620396, 0.006936277262866497, 0.007346686907112598, 0.007757098414003849, 0.00816750805824995, 0.008577917702496052, 0.008988327346742153, 0.009398736990988255, 0.009809148497879505, 0.010219558142125607, 0.010629967786371708, 0.01104037743061781, 0.01145078893750906, 0.011861198581755161, 0.012271608226001263]}, "_timestamp": 1579808162.1597896, "gradients/decoder.bias": {"values": [2.0, 0.0, 0.0, 0.0, 0.0, 0.0, 2.0, 1.0, 0.0, 0.0, 1.0, 0.0, 0.0, 0.0, 0.0, 0.0, 0.0, 2.0, 1.0, 2.0, 5.0, 10.0, 11.0, 4.0, 6.0, 154.0, 67.0, 24.0, 21.0, 12.0, 32664.0, 213.0, 34.0, 18.0, 6.0, 6.0, 3.0, 2.0, 1.0, 1.0, 1.0, 1.0, 0.0, 0.0, 0.0, 1.0, 0.0, 1.0, 0.0, 0.0, 0.0, 0.0, 0.0, 0.0, 0.0, 0.0, 0.0, 0.0, 0.0, 0.0, 0.0, 0.0, 0.0, 1.0], "_type": "histogram", "bins": [-0.009076068177819252, -0.008775678463280201, -0.00847528874874115, -0.008174898102879524, -0.007874508388340473, -0.007574118673801422, -0.007273728959262371, -0.00697333924472332, -0.006672949530184269, -0.006372559349983931, -0.0060721696354448795, -0.005771779455244541, -0.00547138974070549, -0.005171000026166439, -0.004870610311627388, -0.00457022013142705, -0.004269830416887999, -0.0039694407023489475, -0.003669050522148609, -0.003368660807609558, -0.003068271093070507, -0.0027678809128701687, -0.0024674911983311176, -0.0021671014837920666, -0.0018667113035917282, -0.0015663215890526772, -0.001265931874513626, -0.000965542159974575, -0.000665152445435524, -0.0003647617995738983, -6.437208503484726e-05, 0.0002360176295042038, 0.0005364073440432549, 0.0008367970585823059, 0.001137186773121357, 0.001437576487660408, 0.0017379671335220337, 0.0020383568480610847, 0.002338746562600136, 0.002639136277139187, 0.002939525991678238, 0.003239915706217289, 0.0035403063520789146, 0.0038406960666179657, 0.004141085781157017, 0.004441475495696068, 0.004741865210235119, 0.00504225492477417, 0.005342645570635796, 0.005643035285174847, 0.005943424999713898, 0.006243814714252949, 0.006544204428792, 0.0068445950746536255, 0.007144983857870102, 0.007445374503731728, 0.007745763286948204, 0.00804615393280983, 0.008346544578671455, 0.008646933361887932, 0.008947324007749557, 0.009247712790966034, 0.00954810343682766, 0.009848492220044136, 0.010148882865905762]}, "gradients/rnn.bias_ih_l0": {"values": [1.0, 0.0, 0.0, 0.0, 0.0, 0.0, 0.0, 0.0, 0.0, 0.0, 0.0, 1.0, 0.0, 1.0, 0.0, 1.0, 2.0, 1.0, 0.0, 1.0, 0.0, 1.0, 1.0, 2.0, 2.0, 1.0, 3.0, 2.0, 3.0, 7.0, 10.0, 9.0, 35.0, 57.0, 84.0, 178.0, 144.0, 88.0, 50.0, 36.0, 26.0, 18.0, 12.0, 5.0, 1.0, 3.0, 3.0, 0.0, 1.0, 3.0, 4.0, 0.0, 0.0, 0.0, 1.0, 0.0, 0.0, 1.0, 0.0, 0.0, 0.0, 0.0, 0.0, 1.0], "_type": "histogram", "bins": [-0.008995539508759975, -0.008745461702346802, -0.008495382964611053, -0.00824530515819788, -0.007995227351784706, -0.007745149079710245, -0.007495070807635784, -0.0072449930012226105, -0.006994915194809437, -0.006744836922734976, -0.006494758650660515, -0.006244680844247341, -0.00599460257217288, -0.005744524300098419, -0.0054944464936852455, -0.005244368687272072, -0.004994290415197611, -0.00474421214312315, -0.004494134336709976, -0.004244056064635515, -0.0039939782582223415, -0.0037438999861478806, -0.003493822179734707, -0.003243743907660246, -0.002993665635585785, -0.0027435878291726112, -0.0024935095570981503, -0.0022434317506849766, -0.0019933534786105156, -0.001743275672197342, -0.001493197400122881, -0.0012431195937097073, -0.0009930413216352463, -0.0007429635152220726, -0.0004928847774863243, -0.00024280697107315063, 7.270835340023041e-06, 0.0002573486417531967, 0.000507427379488945, 0.0007575051859021187, 0.0010075829923152924, 0.0012576617300510406, 0.0015077395364642143, 0.001757817342877388, 0.0020078951492905617, 0.00225797388702631, 0.0025080516934394836, 0.0027581294998526573, 0.0030082082375884056, 0.0032582860440015793, 0.003508363850414753, 0.0037584416568279266, 0.004008520394563675, 0.004258598200976849, 0.004508676007390022, 0.004758753813803196, 0.005008832551538944, 0.005258910357952118, 0.005508988164365292, 0.00575906690210104, 0.0060091447085142136, 0.006259222514927387, 0.006509300321340561, 0.006759378127753735, 0.007009456865489483]}}
