{"gradients/transformer_encoder.layers.1.self_attn.in_proj_bias": {"values": [1.0, 0.0, 0.0, 0.0, 0.0, 0.0, 0.0, 0.0, 0.0, 0.0, 0.0, 0.0, 0.0, 1.0, 0.0, 0.0, 0.0, 1.0, 2.0, 2.0, 3.0, 2.0, 1.0, 5.0, 2.0, 9.0, 1.0, 3.0, 8.0, 8.0, 6.0, 9.0, 8.0, 15.0, 9.0, 413.0, 11.0, 7.0, 11.0, 7.0, 8.0, 4.0, 6.0, 7.0, 1.0, 1.0, 4.0, 4.0, 3.0, 3.0, 4.0, 3.0, 2.0, 0.0, 0.0, 1.0, 1.0, 0.0, 1.0, 0.0, 1.0, 0.0, 0.0, 1.0], "_type": "histogram", "bins": [-5.354080556685403e-08, -5.2026177144171015e-08, -5.0511548721488e-08, -4.899692029880498e-08, -4.7482288323408284e-08, -4.5967659900725266e-08, -4.445303147804225e-08, -4.293840305535923e-08, -4.1423774632676214e-08, -3.9909146209993196e-08, -3.839451778731018e-08, -3.687988936462716e-08, -3.536526094194414e-08, -3.3850632519261126e-08, -3.233600054386443e-08, -3.082137212118141e-08, -2.9306743698498394e-08, -2.7792115275815377e-08, -2.627748685313236e-08, -2.4762856654092502e-08, -2.3248230007766324e-08, -2.1733598032369628e-08, -2.021896960968661e-08, -1.8704341187003592e-08, -1.7189712764320575e-08, -1.5675084341637557e-08, -1.416045591895454e-08, -1.2645827496271522e-08, -1.1131195520874826e-08, -9.616567098191808e-09, -8.10193867550879e-09, -6.587310252825773e-09, -5.072681830142756e-09, -3.558053407459738e-09, -2.0434249847767205e-09, -5.28796562093703e-10, 9.858318605893146e-10, 2.500463835986011e-09, 4.0150922586690285e-09, 5.529720681352046e-09, 7.044345551321385e-09, 8.55898107943176e-09, 1.0073609502114778e-08, 1.1588237924797795e-08, 1.3102866347480813e-08, 1.461749477016383e-08, 1.6132123192846848e-08, 1.7646751615529865e-08, 1.9161380038212883e-08, 2.06760084608959e-08, 2.2190636883578918e-08, 2.3705265306261936e-08, 2.5219893728944953e-08, 2.673452215162797e-08, 2.8249150574310988e-08, 2.9763778996994006e-08, 3.127841452510438e-08, 3.27930429477874e-08, 3.4307671370470416e-08, 3.5822299793153434e-08, 3.733692821583645e-08, 3.885155663851947e-08, 4.0366185061202486e-08, 4.1880813483885504e-08, 4.339544190656852e-08]}, "graph_0": {"edges": [], "format": "torch", "_type": "graph", "nodes": [{"id": 140350712548544, "name": "encoder", "num_parameters": [6655600], "output_shape": [[35, 20, 200]], "class_name": "Embedding(33278, 200)", "parameters": [["weight", [33278, 200]]]}, {"id": 140350725850448, "name": "pos_encoder", "num_parameters": [], "output_shape": [[35, 20, 200]], "class_name": "PositionalEncoding(\n  (dropout): Dropout(p=0.2, inplace=False)\n)", "parameters": []}, {"id": 140350712548208, "name": "transformer_encoder", "num_parameters": [120000, 600, 40000, 200, 40000, 200, 40000, 200, 200, 200, 200, 200, 120000, 600, 40000, 200, 40000, 200, 40000, 200, 200, 200, 200, 200], "output_shape": [[35, 20, 200]], "class_name": "TransformerEncoder(\n  (layers): ModuleList(\n    (0): TransformerEncoderLayer(\n      (self_attn): MultiheadAttention(\n        (out_proj): Linear(in_features=200, out_features=200, bias=True)\n      )\n      (linear1): Linear(in_features=200, out_features=200, bias=True)\n      (dropout): Dropout(p=0.2, inplace=False)\n      (linear2): Linear(in_features=200, out_features=200, bias=True)\n      (norm1): LayerNorm((200,), eps=1e-05, elementwise_affine=True)\n      (norm2): LayerNorm((200,), eps=1e-05, elementwise_affine=True)\n      (dropout1): Dropout(p=0.2, inplace=False)\n      (dropout2): Dropout(p=0.2, inplace=False)\n    )\n    (1): TransformerEncoderLayer(\n      (self_attn): MultiheadAttention(\n        (out_proj): Linear(in_features=200, out_features=200, bias=True)\n      )\n      (linear1): Linear(in_features=200, out_features=200, bias=True)\n      (dropout): Dropout(p=0.2, inplace=False)\n      (linear2): Linear(in_features=200, out_features=200, bias=True)\n      (norm1): LayerNorm((200,), eps=1e-05, elementwise_affine=True)\n      (norm2): LayerNorm((200,), eps=1e-05, elementwise_affine=True)\n      (dropout1): Dropout(p=0.2, inplace=False)\n      (dropout2): Dropout(p=0.2, inplace=False)\n    )\n  )\n)", "parameters": [["layers.0.self_attn.in_proj_weight", [600, 200]], ["layers.0.self_attn.in_proj_bias", [600]], ["layers.0.self_attn.out_proj.weight", [200, 200]], ["layers.0.self_attn.out_proj.bias", [200]], ["layers.0.linear1.weight", [200, 200]], ["layers.0.linear1.bias", [200]], ["layers.0.linear2.weight", [200, 200]], ["layers.0.linear2.bias", [200]], ["layers.0.norm1.weight", [200]], ["layers.0.norm1.bias", [200]], ["layers.0.norm2.weight", [200]], ["layers.0.norm2.bias", [200]], ["layers.1.self_attn.in_proj_weight", [600, 200]], ["layers.1.self_attn.in_proj_bias", [600]], ["layers.1.self_attn.out_proj.weight", [200, 200]], ["layers.1.self_attn.out_proj.bias", [200]], ["layers.1.linear1.weight", [200, 200]], ["layers.1.linear1.bias", [200]], ["layers.1.linear2.weight", [200, 200]], ["layers.1.linear2.bias", [200]], ["layers.1.norm1.weight", [200]], ["layers.1.norm1.bias", [200]], ["layers.1.norm2.weight", [200]], ["layers.1.norm2.bias", [200]]]}, {"id": 140350712546864, "name": "decoder", "num_parameters": [6655600, 33278], "output_shape": [[35, 20, 33278]], "class_name": "Linear(in_features=200, out_features=33278, bias=True)", "parameters": [["weight", [33278, 200]], ["bias", [33278]]]}]}, "gradients/transformer_encoder.layers.0.linear1.weight": {"values": [1.0, 1.0, 0.0, 0.0, 0.0, 0.0, 0.0, 0.0, 0.0, 0.0, 0.0, 0.0, 0.0, 1.0, 1.0, 1.0, 0.0, 0.0, 1.0, 1.0, 3.0, 9.0, 9.0, 16.0, 71.0, 39524.0, 292.0, 33.0, 14.0, 10.0, 3.0, 2.0, 1.0, 0.0, 3.0, 0.0, 0.0, 1.0, 0.0, 0.0, 0.0, 0.0, 0.0, 0.0, 0.0, 0.0, 0.0, 0.0, 0.0, 0.0, 1.0, 0.0, 0.0, 0.0, 0.0, 0.0, 0.0, 0.0, 0.0, 0.0, 0.0, 0.0, 0.0, 1.0], "_type": "histogram", "bins": [-4.729363354272209e-06, -4.54567725682864e-06, -4.36199115938507e-06, -4.178305061941501e-06, -3.994618964497931e-06, -3.810932867054362e-06, -3.6272467696107924e-06, -3.443560672167223e-06, -3.2598745747236535e-06, -3.076188477280084e-06, -2.8925023798365146e-06, -2.708816282392945e-06, -2.5251301849493757e-06, -2.3414440875058062e-06, -2.1577579900622368e-06, -1.9740718926186673e-06, -1.7903857951750979e-06, -1.6066996977315284e-06, -1.423013600287959e-06, -1.2393275028443895e-06, -1.05564140540082e-06, -8.719553079572506e-07, -6.882692105136812e-07, -5.045831130701117e-07, -3.2089701562654227e-07, -1.3721091818297282e-07, 4.647517926059663e-08, 2.3016127670416608e-07, 4.1384737414773554e-07, 5.97533471591305e-07, 7.812195690348744e-07, 9.649056664784439e-07, 1.1485917639220133e-06, 1.3322778613655828e-06, 1.5159639588091522e-06, 1.6996500562527217e-06, 1.8833361536962911e-06, 2.0670222511398606e-06, 2.25070834858343e-06, 2.4343944460269995e-06, 2.618080543470569e-06, 2.8017666409141384e-06, 2.985452738357708e-06, 3.1691388358012773e-06, 3.3528249332448468e-06, 3.5365110306884162e-06, 3.7201971281319857e-06, 3.903883225575555e-06, 4.0875693230191246e-06, 4.271255420462694e-06, 4.4549415179062635e-06, 4.638627615349833e-06, 4.822313712793402e-06, 5.005999810236972e-06, 5.189685907680541e-06, 5.373372005124111e-06, 5.55705810256768e-06, 5.74074420001125e-06, 5.924430297454819e-06, 6.1081163948983885e-06, 6.291802492341958e-06, 6.4754885897855274e-06, 6.659174687229097e-06, 6.842860784672666e-06, 7.026546882116236e-06]}, "gradients/transformer_encoder.layers.0.self_attn.in_proj_weight": {"values": [2.0, 0.0, 1.0, 3.0, 1.0, 3.0, 2.0, 4.0, 4.0, 5.0, 1.0, 5.0, 5.0, 12.0, 15.0, 18.0, 18.0, 32.0, 32.0, 37.0, 52.0, 75.0, 81.0, 128.0, 135.0, 232.0, 294.0, 455.0, 651.0, 1107.0, 1849.0, 4359.0, 93333.0, 9981.0, 2889.0, 1421.0, 835.0, 521.0, 347.0, 279.0, 187.0, 124.0, 101.0, 76.0, 66.0, 47.0, 38.0, 27.0, 22.0, 20.0, 16.0, 12.0, 6.0, 5.0, 4.0, 3.0, 2.0, 5.0, 2.0, 2.0, 4.0, 3.0, 1.0, 3.0], "_type": "histogram", "bins": [-1.000160750663781e-06, -9.696084362076363e-07, -9.390561785949103e-07, -9.085039209821844e-07, -8.779516065260395e-07, -8.473993489133136e-07, -8.168470913005876e-07, -7.862947768444428e-07, -7.557425192317169e-07, -7.251902616189909e-07, -6.946379471628461e-07, -6.640856895501202e-07, -6.335334319373942e-07, -6.029811174812494e-07, -5.724288598685234e-07, -5.418766022557975e-07, -5.113242877996527e-07, -4.807720301869267e-07, -4.502197157307819e-07, -4.1966745811805595e-07, -3.8911514366191113e-07, -3.585628860491852e-07, -3.2801062843645923e-07, -2.974583139803144e-07, -2.6690605636758846e-07, -2.363537987548625e-07, -2.058014842987177e-07, -1.7524922668599174e-07, -1.446969690732658e-07, -1.1414465461712098e-07, -8.359239700439502e-08, -5.304008254825021e-08, -2.248782493552426e-08, 8.064489520620555e-09, 3.8616690289927647e-08, 6.916900474607246e-08, 9.972131920221727e-08, 1.3027351997152437e-07, 1.6082583442766918e-07, 1.91378148883814e-07, 2.219304633399588e-07, 2.524826641092659e-07, 2.830349785654107e-07, 3.135872930215555e-07, 3.441394937908626e-07, 3.7469180824700743e-07, 4.0524412270315224e-07, 4.3579632347245933e-07, 4.6634863792860415e-07, 4.96900952384749e-07, 5.274531531540561e-07, 5.580054676102009e-07, 5.885577820663457e-07, 6.191099828356528e-07, 6.496622972917976e-07, 6.802146117479424e-07, 7.107668125172495e-07, 7.413191269733943e-07, 7.718714414295391e-07, 8.024237558856839e-07, 8.32975956654991e-07, 8.635282711111358e-07, 8.940805855672807e-07, 9.246329000234255e-07, 9.551851007927326e-07]}, "gradients/transformer_encoder.layers.0.norm2.weight": {"values": [1.0, 0.0, 0.0, 0.0, 0.0, 0.0, 0.0, 0.0, 1.0, 0.0, 0.0, 0.0, 0.0, 0.0, 1.0, 0.0, 0.0, 0.0, 0.0, 1.0, 0.0, 1.0, 3.0, 3.0, 171.0, 15.0, 1.0, 0.0, 0.0, 0.0, 0.0, 0.0, 0.0, 0.0, 0.0, 0.0, 1.0, 0.0, 0.0, 0.0, 0.0, 0.0, 0.0, 0.0, 0.0, 0.0, 0.0, 0.0, 0.0, 0.0, 0.0, 0.0, 0.0, 0.0, 0.0, 0.0, 0.0, 0.0, 0.0, 0.0, 0.0, 0.0, 0.0, 1.0], "_type": "histogram", "bins": [-7.33225533622317e-06, -7.037569957901724e-06, -6.742884124832926e-06, -6.44819874651148e-06, -6.1535129134426825e-06, -5.858827535121236e-06, -5.5641421567997895e-06, -5.269456323730992e-06, -4.974770490662195e-06, -4.680085112340748e-06, -4.385399734019302e-06, -4.0907139009505045e-06, -3.796028522629058e-06, -3.5013426895602606e-06, -3.206657311238814e-06, -2.9119714781700168e-06, -2.6172860998485703e-06, -2.322600721527124e-06, -2.0279148884583265e-06, -1.73322951013688e-06, -1.4385436770680826e-06, -1.1438582987466361e-06, -8.491724656778388e-07, -5.544870873563923e-07, -2.598017090349458e-07, 3.488412403385155e-08, 3.295699571026489e-07, 6.242553354240954e-07, 9.189407137455419e-07, 1.2136260920669883e-06, 1.5083123798831366e-06, 1.802997758204583e-06, 2.0976831365260296e-06, 2.392368514847476e-06, 2.6870538931689225e-06, 2.9817401809850708e-06, 3.2764255593065172e-06, 3.5711109376279637e-06, 3.86579631594941e-06, 4.1604826037655585e-06, 4.455167982087005e-06, 4.749853360408451e-06, 5.044538738729898e-06, 5.339224117051344e-06, 5.633910404867493e-06, 5.928595783188939e-06, 6.2232811615103856e-06, 6.517966539831832e-06, 6.8126519181532785e-06, 7.107338205969427e-06, 7.402023584290873e-06, 7.69670896261232e-06, 7.991395250428468e-06, 8.286080628749914e-06, 8.580766007071361e-06, 8.875451385392807e-06, 9.170136763714254e-06, 9.4648221420357e-06, 9.759507520357147e-06, 1.0054192898678593e-05, 1.0348880095989443e-05, 1.064356547431089e-05, 1.0938250852632336e-05, 1.1232936230953783e-05, 1.152762160927523e-05]}, "gradients/transformer_encoder.layers.1.norm1.weight": {"values": [1.0, 0.0, 0.0, 0.0, 0.0, 0.0, 0.0, 0.0, 0.0, 0.0, 0.0, 0.0, 0.0, 0.0, 0.0, 0.0, 0.0, 0.0, 0.0, 0.0, 0.0, 0.0, 0.0, 0.0, 0.0, 0.0, 0.0, 0.0, 0.0, 0.0, 0.0, 0.0, 0.0, 0.0, 0.0, 0.0, 0.0, 0.0, 0.0, 0.0, 1.0, 3.0, 8.0, 7.0, 58.0, 86.0, 17.0, 7.0, 3.0, 0.0, 3.0, 2.0, 0.0, 0.0, 1.0, 1.0, 0.0, 1.0, 0.0, 0.0, 0.0, 0.0, 0.0, 1.0], "_type": "histogram", "bins": [-3.0026578315300867e-05, -2.9360387998167425e-05, -2.869419586204458e-05, -2.802800554491114e-05, -2.7361813408788294e-05, -2.6695623091654852e-05, -2.602943277452141e-05, -2.5363240638398565e-05, -2.4697050321265124e-05, -2.403085818514228e-05, -2.3364667868008837e-05, -2.2698477550875396e-05, -2.203228541475255e-05, -2.1366093278629705e-05, -2.0699902961496264e-05, -2.0033712644362822e-05, -1.936752232722938e-05, -1.8701330191106535e-05, -1.803513805498369e-05, -1.736894773785025e-05, -1.6702757420716807e-05, -1.6036567103583366e-05, -1.537037496746052e-05, -1.4704184650327079e-05, -1.4037992514204234e-05, -1.3371802197070792e-05, -1.2705610060947947e-05, -1.2039419743814506e-05, -1.1373229426681064e-05, -1.0707037290558219e-05, -1.0040846973424777e-05, -9.374654837301932e-06, -8.70846452016849e-06, -8.042274203035049e-06, -7.376082066912204e-06, -6.7098917497787625e-06, -6.043699613655917e-06, -5.377509296522476e-06, -4.711318979389034e-06, -4.045126843266189e-06, -3.3789365261327475e-06, -2.7127443900099024e-06, -2.046554072876461e-06, -1.3803637557430193e-06, -7.141716196201742e-07, -4.79813024867326e-08, 6.18209014646709e-07, 1.2844029697589576e-06, 1.950593286892399e-06, 2.6167836040258408e-06, 3.2829739211592823e-06, 3.949164238292724e-06, 4.6153581934049726e-06, 5.281548510538414e-06, 5.947738827671856e-06, 6.613929144805297e-06, 7.280119461938739e-06, 7.946313417050987e-06, 8.612503734184429e-06, 9.27869405131787e-06, 9.944884368451312e-06, 1.0611074685584754e-05, 1.1277268640697002e-05, 1.1943458957830444e-05, 1.2609649274963886e-05]}, "gradients/transformer_encoder.layers.0.self_attn.out_proj.weight": {"values": [1.0, 0.0, 0.0, 1.0, 0.0, 1.0, 1.0, 0.0, 0.0, 0.0, 3.0, 0.0, 2.0, 0.0, 4.0, 4.0, 1.0, 1.0, 7.0, 5.0, 12.0, 7.0, 17.0, 18.0, 47.0, 76.0, 144.0, 378.0, 1145.0, 4468.0, 22688.0, 7731.0, 1955.0, 708.0, 263.0, 119.0, 67.0, 39.0, 26.0, 12.0, 2.0, 7.0, 4.0, 8.0, 3.0, 4.0, 3.0, 1.0, 2.0, 0.0, 1.0, 1.0, 2.0, 4.0, 1.0, 0.0, 1.0, 0.0, 1.0, 1.0, 0.0, 2.0, 0.0, 1.0], "_type": "histogram", "bins": [-2.1015956974679284e-07, -2.032966790466162e-07, -1.9643377413558483e-07, -1.8957086922455346e-07, -1.827079785243768e-07, -1.7584508782420016e-07, -1.689821829131688e-07, -1.6211927800213743e-07, -1.5525638730196079e-07, -1.4839349660178414e-07, -1.4153059169075277e-07, -1.346676867797214e-07, -1.2780479607954476e-07, -1.209419053793681e-07, -1.1407900046833674e-07, -1.0721610266273274e-07, -1.0035320485712873e-07, -9.349030705152472e-08, -8.662740924592072e-08, -7.976451854574407e-08, -7.29016136347127e-08, -6.603870872368134e-08, -5.917581802350469e-08, -5.231292732332804e-08, -4.5450022412296676e-08, -3.858711750126531e-08, -3.172422680108866e-08, -2.4861336100912013e-08, -1.7998431189880648e-08, -1.1135526278849284e-08, -4.2726355786726344e-09, 2.590255121504015e-09, 9.45316003253538e-09, 1.6316064943566744e-08, 2.3178955643743393e-08, 3.004184634392004e-08, 3.690475125495141e-08, 4.376765616598277e-08, 5.0630532655304705e-08, 5.749343756633607e-08, 6.435634247736743e-08, 7.12192473883988e-08, 7.808215229943016e-08, 8.49450287887521e-08, 9.180793369978346e-08, 9.867083861081483e-08, 1.0553371510013676e-07, 1.1239662001116812e-07, 1.192595249221995e-07, 1.2612242983323085e-07, 1.3298533474426222e-07, 1.3984821123358415e-07, 1.4671111614461552e-07, 1.5357402105564688e-07, 1.6043689754496882e-07, 1.6729980245600018e-07, 1.7416270736703154e-07, 1.810256122780629e-07, 1.8788851718909427e-07, 1.947513936784162e-07, 2.0161429858944757e-07, 2.0847720350047894e-07, 2.1534007998980087e-07, 2.2220298490083223e-07, 2.290658898118636e-07]}, "gradients/transformer_encoder.layers.0.self_attn.out_proj.bias": {"values": [9.0, 78.0, 101.0, 10.0, 0.0, 0.0, 0.0, 0.0, 0.0, 0.0, 0.0, 0.0, 0.0, 0.0, 0.0, 0.0, 0.0, 0.0, 0.0, 0.0, 0.0, 0.0, 1.0, 0.0, 0.0, 0.0, 0.0, 0.0, 0.0, 0.0, 0.0, 0.0, 0.0, 0.0, 0.0, 0.0, 0.0, 0.0, 0.0, 0.0, 0.0, 0.0, 0.0, 0.0, 0.0, 0.0, 0.0, 0.0, 0.0, 0.0, 0.0, 0.0, 0.0, 0.0, 0.0, 0.0, 0.0, 0.0, 0.0, 0.0, 0.0, 0.0, 0.0, 1.0], "_type": "histogram", "bins": [-5.276647119245581e-09, -3.2242928327264053e-09, -1.1719385462072296e-09, 8.804157403119461e-10, 2.932770026831122e-09, 4.9851247574395074e-09, 7.037478599869473e-09, 9.089832886388649e-09, 1.1142187616997035e-08, 1.319454234760542e-08, 1.5246897078213806e-08, 1.7299250032465352e-08, 1.9351604763073738e-08, 2.1403959493682123e-08, 2.345631244793367e-08, 2.5508668954898894e-08, 2.756102190915044e-08, 2.9613374863401987e-08, 3.166573137036721e-08, 3.371808432461876e-08, 3.577044083158398e-08, 3.782279378583553e-08, 3.9875146740087075e-08, 4.19275032470523e-08, 4.3979856201303846e-08, 4.603220915555539e-08, 4.808456566252062e-08, 5.0136918616772164e-08, 5.218927157102371e-08, 5.4241628077988935e-08, 5.629398458495416e-08, 5.8346337539205706e-08, 6.039869049345725e-08, 6.24510434477088e-08, 6.450339640196034e-08, 6.655575646163925e-08, 6.86081094158908e-08, 7.066046237014234e-08, 7.271281532439389e-08, 7.476516827864543e-08, 7.681752833832434e-08, 7.886988129257588e-08, 8.092223424682743e-08, 8.297458720107898e-08, 8.502694015533052e-08, 8.707929310958207e-08, 8.913165316926097e-08, 9.118400612351252e-08, 9.323635907776406e-08, 9.528871203201561e-08, 9.734106498626716e-08, 9.939342504594606e-08, 1.014457780001976e-07, 1.0349813095444915e-07, 1.055504839087007e-07, 1.0760283686295224e-07, 1.0965518981720379e-07, 1.117075498768827e-07, 1.1375990283113424e-07, 1.1581225578538579e-07, 1.1786461584506469e-07, 1.1991696169388888e-07, 1.2196932175356778e-07, 1.2402166760239197e-07, 1.2607402766207088e-07]}, "gradients/transformer_encoder.layers.0.linear2.weight": {"values": [2.0, 0.0, 0.0, 0.0, 1.0, 0.0, 0.0, 0.0, 0.0, 1.0, 1.0, 0.0, 1.0, 1.0, 0.0, 1.0, 1.0, 0.0, 0.0, 0.0, 0.0, 0.0, 2.0, 0.0, 2.0, 2.0, 1.0, 1.0, 3.0, 7.0, 2.0, 8.0, 6.0, 5.0, 25.0, 21.0, 58.0, 109.0, 900.0, 38446.0, 293.0, 46.0, 23.0, 9.0, 5.0, 6.0, 1.0, 0.0, 2.0, 1.0, 3.0, 0.0, 0.0, 1.0, 0.0, 1.0, 0.0, 0.0, 0.0, 0.0, 0.0, 1.0, 0.0, 1.0], "_type": "histogram", "bins": [-4.551116489892593e-06, -4.435576101968763e-06, -4.320036168792285e-06, -4.204495780868456e-06, -4.0889553929446265e-06, -3.973415005020797e-06, -3.857874617096968e-06, -3.7423346839204896e-06, -3.6267942959966604e-06, -3.511253908072831e-06, -3.3957137475226773e-06, -3.2801735869725235e-06, -3.1646331990486942e-06, -3.049092811124865e-06, -2.933552650574711e-06, -2.8180124900245573e-06, -2.702472102100728e-06, -2.586931714176899e-06, -2.471391553626745e-06, -2.355851393076591e-06, -2.240311005152762e-06, -2.1247706172289327e-06, -2.009230456678779e-06, -1.893690296128625e-06, -1.7781499082047958e-06, -1.6626095202809665e-06, -1.5470693597308127e-06, -1.431529199180659e-06, -1.3159888112568296e-06, -1.2004484233330004e-06, -1.0849082627828466e-06, -9.693681022326928e-07, -8.538277143088635e-07, -7.382873263850342e-07, -6.22746938461205e-07, -5.072070052847266e-07, -3.9166661736089736e-07, -2.761262294370681e-07, -1.6058629626058973e-07, -4.5045908336760476e-08, 7.049447958706878e-08, 1.8603486751089804e-07, 3.015752554347273e-07, 4.1711518861120567e-07, 5.326555765350349e-07, 6.481959644588642e-07, 7.637358976353426e-07, 8.792762855591718e-07, 9.94816673483001e-07, 1.1103570614068303e-06, 1.2258974493306596e-06, 1.341437382507138e-06, 1.4569777704309672e-06, 1.5725181583547965e-06, 1.6880580915312748e-06, 1.803598479455104e-06, 1.9191388673789334e-06, 2.0346792553027626e-06, 2.150219643226592e-06, 2.2657595764030702e-06, 2.3812999643268995e-06, 2.4968403522507288e-06, 2.612380285427207e-06, 2.7279206733510364e-06, 2.8434610612748656e-06]}, "gradients/transformer_encoder.layers.0.linear2.bias": {"values": [1.0, 0.0, 1.0, 0.0, 0.0, 0.0, 0.0, 0.0, 0.0, 0.0, 0.0, 0.0, 0.0, 0.0, 0.0, 0.0, 0.0, 0.0, 0.0, 0.0, 0.0, 0.0, 0.0, 0.0, 0.0, 0.0, 0.0, 0.0, 0.0, 0.0, 0.0, 0.0, 0.0, 0.0, 0.0, 0.0, 0.0, 0.0, 0.0, 0.0, 0.0, 0.0, 0.0, 0.0, 0.0, 0.0, 0.0, 0.0, 0.0, 0.0, 0.0, 0.0, 0.0, 0.0, 1.0, 1.0, 1.0, 2.0, 10.0, 35.0, 118.0, 27.0, 1.0, 2.0], "_type": "histogram", "bins": [-1.1333734839524823e-08, -1.1146133793715762e-08, -1.0958531859728282e-08, -1.0770930813919222e-08, -1.0583328879931742e-08, -1.0395727834122681e-08, -1.0208125900135201e-08, -1.002052485432614e-08, -9.83292380851708e-09, -9.6453218745296e-09, -9.45772082872054e-09, -9.27011889473306e-09, -9.082517848923999e-09, -8.894916803114938e-09, -8.707314869127458e-09, -8.519713823318398e-09, -8.332111889330918e-09, -8.144510843521857e-09, -7.956909797712797e-09, -7.769307863725317e-09, -7.581706817916256e-09, -7.394105328017986e-09, -7.2065038381197155e-09, -7.018902348221445e-09, -6.831300858323175e-09, -6.6436998125141145e-09, -6.456098322615844e-09, -6.268496832717574e-09, -6.0808953428193036e-09, -5.893293852921033e-09, -5.705692807111973e-09, -5.5180913172137025e-09, -5.330489827315432e-09, -5.142888337417162e-09, -4.955286847518892e-09, -4.767685801709831e-09, -4.580084311811561e-09, -4.3924828219132905e-09, -4.20488133201502e-09, -4.01727984211675e-09, -3.8296787963076895e-09, -3.6420768623202093e-09, -3.454475816511149e-09, -3.2668747707020884e-09, -3.0792728367146083e-09, -2.891671790905548e-09, -2.7040698569180677e-09, -2.5164688111090072e-09, -2.328866877121527e-09, -2.1412658313124666e-09, -1.953664785503406e-09, -1.766062851515926e-09, -1.5784618057068656e-09, -1.3908598717193854e-09, -1.203258825910325e-09, -1.0156577801012645e-09, -8.280558461137844e-10, -6.404548003047239e-10, -4.5285286631724375e-10, -2.652518205081833e-10, -7.765077469912285e-11, 1.099511592883573e-10, 2.9755220509741775e-10, 4.851541390848979e-10, 6.727551848939584e-10]}, "gradients/transformer_encoder.layers.1.self_attn.in_proj_weight": {"values": [1.0, 0.0, 0.0, 0.0, 1.0, 2.0, 0.0, 2.0, 2.0, 1.0, 1.0, 4.0, 0.0, 0.0, 3.0, 5.0, 1.0, 8.0, 2.0, 8.0, 15.0, 13.0, 24.0, 14.0, 34.0, 42.0, 72.0, 130.0, 1075.0, 118057.0, 249.0, 67.0, 44.0, 24.0, 17.0, 16.0, 13.0, 12.0, 11.0, 6.0, 2.0, 5.0, 0.0, 2.0, 2.0, 2.0, 2.0, 4.0, 0.0, 0.0, 1.0, 0.0, 2.0, 0.0, 0.0, 0.0, 1.0, 0.0, 0.0, 0.0, 0.0, 0.0, 0.0, 1.0], "_type": "histogram", "bins": [-7.72874045651406e-06, -7.46458090361557e-06, -7.200421350717079e-06, -6.936261343071237e-06, -6.672101790172746e-06, -6.407942237274256e-06, -6.143782229628414e-06, -5.879622676729923e-06, -5.615463123831432e-06, -5.3513035709329415e-06, -5.087144018034451e-06, -4.822984010388609e-06, -4.558824457490118e-06, -4.294664904591627e-06, -4.030504896945786e-06, -3.766345344047295e-06, -3.502185791148804e-06, -3.2380262382503133e-06, -2.9738666853518225e-06, -2.709706677705981e-06, -2.44554712480749e-06, -2.1813875719089992e-06, -1.9172275642631575e-06, -1.6530680113646667e-06, -1.388908458466176e-06, -1.1247489055676851e-06, -8.605893526691943e-07, -5.964293450233527e-07, -3.3226979212486185e-07, -6.811023922637105e-08, 1.9604976841947064e-07, 4.6020886657061055e-07, 7.243688742164522e-07, 9.88528881862294e-07, 1.2526879800134338e-06, 1.5168479876592755e-06, 1.7810070858104154e-06, 2.045167093456257e-06, 2.309327101102099e-06, 2.5734861992532387e-06, 2.8376462068990804e-06, 3.101806214544922e-06, 3.365965312696062e-06, 3.6301253203419037e-06, 3.894285327987745e-06, 4.158444426138885e-06, 4.422604433784727e-06, 4.686763531935867e-06, 4.950923539581709e-06, 5.21508354722755e-06, 5.47924264537869e-06, 5.743402653024532e-06, 6.007561751175672e-06, 6.2717217588215135e-06, 6.535881766467355e-06, 6.800040864618495e-06, 7.064200872264337e-06, 7.3283608799101785e-06, 7.592519978061318e-06, 7.856679076212458e-06, 8.120839993353002e-06, 8.384999091504142e-06, 8.649158189655282e-06, 8.913319106795825e-06, 9.177478204946965e-06]}, "gradients/transformer_encoder.layers.1.linear2.bias": {"values": [2.0, 0.0, 0.0, 0.0, 1.0, 0.0, 1.0, 0.0, 0.0, 0.0, 0.0, 1.0, 0.0, 2.0, 0.0, 0.0, 1.0, 0.0, 1.0, 1.0, 1.0, 3.0, 1.0, 4.0, 2.0, 3.0, 5.0, 9.0, 13.0, 21.0, 40.0, 19.0, 13.0, 13.0, 9.0, 10.0, 9.0, 2.0, 3.0, 2.0, 1.0, 2.0, 1.0, 0.0, 2.0, 0.0, 0.0, 0.0, 0.0, 0.0, 0.0, 0.0, 0.0, 0.0, 1.0, 0.0, 0.0, 0.0, 0.0, 0.0, 0.0, 0.0, 0.0, 1.0], "_type": "histogram", "bins": [-4.75049910164671e-06, -4.596078269969439e-06, -4.441656983544817e-06, -4.287236151867546e-06, -4.132815320190275e-06, -3.978394488513004e-06, -3.823973202088382e-06, -3.669552370411111e-06, -3.51513153873384e-06, -3.3607104796828935e-06, -3.206289420631947e-06, -3.051868588954676e-06, -2.8974475299037294e-06, -2.7430266982264584e-06, -2.588605639175512e-06, -2.434184807498241e-06, -2.2797637484472943e-06, -2.125342689396348e-06, -1.970921857719077e-06, -1.8165007986681303e-06, -1.6620799669908592e-06, -1.5076589079399128e-06, -1.3532380762626417e-06, -1.1988170172116952e-06, -1.0443959581607487e-06, -8.899751264834777e-07, -7.355542948062066e-07, -5.811330083815847e-07, -4.267121767043136e-07, -2.7229134502704255e-07, -1.178705133497715e-07, 3.655077307485044e-08, 1.909716047521215e-07, 3.4539243642939255e-07, 4.998137228540145e-07, 6.542345545312855e-07, 8.086553862085566e-07, 9.630762178858276e-07, 1.1174975043104496e-06, 1.2719183359877206e-06, 1.4263391676649917e-06, 1.5807604540896136e-06, 1.7351812857668847e-06, 1.8896021174441557e-06, 2.044022949121427e-06, 2.1984442355460487e-06, 2.3528650672233198e-06, 2.507285898900591e-06, 2.6617071853252128e-06, 2.816128017002484e-06, 2.970548848679755e-06, 3.124970135104377e-06, 3.279390512034297e-06, 3.433811798458919e-06, 3.588233084883541e-06, 3.742653461813461e-06, 3.897074748238083e-06, 4.051496034662705e-06, 4.205916411592625e-06, 4.360337698017247e-06, 4.514758074947167e-06, 4.669179361371789e-06, 4.823600647796411e-06, 4.978021024726331e-06, 5.132442311150953e-06]}, "_step": 40, "gradients/transformer_encoder.layers.0.linear1.bias": {"values": [1.0, 0.0, 0.0, 0.0, 1.0, 0.0, 0.0, 0.0, 0.0, 0.0, 0.0, 0.0, 0.0, 0.0, 0.0, 0.0, 1.0, 0.0, 0.0, 1.0, 1.0, 0.0, 1.0, 7.0, 2.0, 12.0, 57.0, 77.0, 17.0, 9.0, 4.0, 2.0, 3.0, 0.0, 1.0, 0.0, 1.0, 0.0, 0.0, 0.0, 0.0, 0.0, 0.0, 0.0, 0.0, 0.0, 0.0, 0.0, 0.0, 0.0, 0.0, 1.0, 0.0, 0.0, 0.0, 0.0, 0.0, 0.0, 0.0, 0.0, 0.0, 0.0, 0.0, 1.0], "_type": "histogram", "bins": [-1.1002798316894769e-07, -1.0595529431611794e-07, -1.0188259835786084e-07, -9.78099095050311e-08, -9.3737213546774e-08, -8.966452469394426e-08, -8.559183584111452e-08, -8.151914698828477e-08, -7.744645103002767e-08, -7.337375507177057e-08, -6.930106621894083e-08, -6.522837736611109e-08, -6.115568851328135e-08, -5.708299255502425e-08, -5.3010303702194506e-08, -4.8937607743937406e-08, -4.4864918891107664e-08, -4.079223003827792e-08, -3.671953408002082e-08, -3.264684522719108e-08, -2.857414926893398e-08, -2.4501460416104237e-08, -2.0428771563274495e-08, -1.6356075605017395e-08, -1.2283386752187653e-08, -8.21069789935791e-09, -4.138001941100811e-09, -6.531308827106841e-11, 4.007375764558674e-09, 8.080071722815774e-09, 1.2152767681072874e-08, 1.6225456533902616e-08, 2.0298145386732358e-08, 2.43708342395621e-08, 2.8443523092391843e-08, 3.25162261560763e-08, 3.658891500890604e-08, 4.0661603861735784e-08, 4.473429271456553e-08, 4.880698156739527e-08, 5.2879684631079726e-08, 5.695237348390947e-08, 6.102506233673921e-08, 6.509775118956895e-08, 6.91704400423987e-08, 7.324312889522844e-08, 7.73158319589129e-08, 8.138852081174264e-08, 8.546120966457238e-08, 8.953389851740212e-08, 9.360658737023186e-08, 9.767929043391632e-08, 1.0175197928674606e-07, 1.058246681395758e-07, 1.0989735699240555e-07, 1.1397004584523529e-07, 1.1804273469806503e-07, 1.221154377617495e-07, 1.2618812661457923e-07, 1.302608296782637e-07, 1.3433351853109343e-07, 1.3840620738392317e-07, 1.4247889623675292e-07, 1.4655158508958266e-07, 1.506242739424124e-07]}, "gradients/transformer_encoder.layers.1.norm2.weight": {"values": [1.0, 0.0, 0.0, 0.0, 0.0, 0.0, 1.0, 1.0, 2.0, 3.0, 1.0, 0.0, 3.0, 0.0, 4.0, 2.0, 4.0, 0.0, 4.0, 3.0, 5.0, 3.0, 6.0, 4.0, 6.0, 3.0, 9.0, 8.0, 8.0, 11.0, 15.0, 9.0, 10.0, 15.0, 8.0, 6.0, 9.0, 8.0, 4.0, 2.0, 3.0, 0.0, 4.0, 2.0, 2.0, 1.0, 1.0, 0.0, 2.0, 0.0, 1.0, 1.0, 0.0, 1.0, 1.0, 0.0, 0.0, 0.0, 1.0, 0.0, 0.0, 0.0, 1.0, 1.0], "_type": "histogram", "bins": [-0.02172853797674179, -0.021034058183431625, -0.02033957839012146, -0.019645098596811295, -0.01895062066614628, -0.018256140872836113, -0.017561661079525948, -0.016867181286215782, -0.016172703355550766, -0.0154782235622406, -0.014783743768930435, -0.01408926397562027, -0.013394784182310104, -0.012700305320322514, -0.012005825527012348, -0.011311346665024757, -0.010616866871714592, -0.009922387078404427, -0.009227908216416836, -0.00853342842310667, -0.00783894956111908, -0.007144469767808914, -0.006449989974498749, -0.005755510181188583, -0.005061030387878418, -0.004366552457213402, -0.0036720726639032364, -0.002977592870593071, -0.0022831130772829056, -0.0015886332839727402, -0.000894155353307724, -0.0001996755599975586, 0.0004948042333126068, 0.0011892840266227722, 0.0018837638199329376, 0.002578241750597954, 0.003272721543908119, 0.003967201337218285, 0.00466168113052845, 0.005356160923838615, 0.006050638854503632, 0.006745118647813797, 0.007439598441123962, 0.008134078234434128, 0.008828558027744293, 0.009523037821054459, 0.010217517614364624, 0.01091199740767479, 0.011606477200984955, 0.012300953269004822, 0.012995433062314987, 0.013689912855625153, 0.014384392648935318, 0.015078872442245483, 0.01577335223555565, 0.016467832028865814, 0.01716231182217598, 0.017856791615486145, 0.01855127140879631, 0.019245747476816177, 0.019940227270126343, 0.020634707063436508, 0.021329186856746674, 0.02202366665005684, 0.022718146443367004]}, "gradients/encoder.weight": {"values": [1.0, 0.0, 0.0, 0.0, 0.0, 0.0, 0.0, 0.0, 1.0, 0.0, 0.0, 0.0, 1.0, 1.0, 0.0, 0.0, 2.0, 4.0, 3.0, 1.0, 1.0, 3.0, 3.0, 6.0, 2.0, 3.0, 4.0, 9.0, 6.0, 10.0, 10.0, 26.0, 39.0, 131.0, 6655031.0, 146.0, 45.0, 28.0, 20.0, 7.0, 6.0, 8.0, 3.0, 3.0, 1.0, 6.0, 7.0, 3.0, 1.0, 4.0, 5.0, 3.0, 0.0, 0.0, 0.0, 2.0, 1.0, 0.0, 0.0, 0.0, 0.0, 1.0, 1.0, 1.0], "_type": "histogram", "bins": [-1.2271147170395125e-05, -1.1915752111235633e-05, -1.156035614258144e-05, -1.120496108342195e-05, -1.0849566024262458e-05, -1.0494170965102967e-05, -1.0138775905943476e-05, -9.783379937289283e-06, -9.427984878129791e-06, -9.0725898189703e-06, -8.717193850316107e-06, -8.361798791156616e-06, -8.006403731997125e-06, -7.651008672837634e-06, -7.2956131589307915e-06, -6.9402176450239494e-06, -6.584822585864458e-06, -6.229427526704967e-06, -5.874032012798125e-06, -5.518636498891283e-06, -5.163241439731792e-06, -4.8078463805723e-06, -4.452450411918107e-06, -4.097055352758616e-06, -3.741660293599125e-06, -3.3862652344396338e-06, -3.0308701752801426e-06, -2.6754742066259496e-06, -2.3200791474664584e-06, -1.964684088306967e-06, -1.6092881196527742e-06, -1.253893060493283e-06, -8.984980013337918e-07, -5.431029421743006e-07, -1.8770788301480934e-07, 1.6768808563938364e-07, 5.230831447988749e-07, 8.784782039583661e-07, 1.233874172612559e-06, 1.5892692317720503e-06, 1.9446642909315415e-06, 2.3000593500910327e-06, 2.655454409250524e-06, 3.010850377904717e-06, 3.36624634655891e-06, 3.7216404962236993e-06, 4.077036464877892e-06, 4.432430614542682e-06, 4.787826583196875e-06, 5.143222551851068e-06, 5.498616701515857e-06, 5.85401267017005e-06, 6.2094068198348396e-06, 6.5648027884890325e-06, 6.9201987571432255e-06, 7.275592906808015e-06, 7.630988875462208e-06, 7.986384844116401e-06, 8.34177899378119e-06, 8.697174962435383e-06, 9.052570931089576e-06, 9.407965080754366e-06, 9.763361049408559e-06, 1.0118755199073348e-05, 1.0474151167727541e-05]}, "gradients/decoder.weight": {"values": [2.0, 0.0, 0.0, 0.0, 1.0, 0.0, 0.0, 0.0, 0.0, 0.0, 0.0, 5.0, 3.0, 5.0, 5.0, 6.0, 6.0, 14.0, 28.0, 62.0, 96.0, 192.0, 1265.0, 13917.0, 6629402.0, 8391.0, 1450.0, 345.0, 262.0, 38.0, 27.0, 37.0, 13.0, 7.0, 4.0, 2.0, 2.0, 1.0, 1.0, 3.0, 0.0, 3.0, 0.0, 2.0, 0.0, 1.0, 1.0, 0.0, 0.0, 0.0, 0.0, 0.0, 0.0, 0.0, 0.0, 0.0, 0.0, 0.0, 0.0, 0.0, 0.0, 0.0, 0.0, 1.0], "_type": "histogram", "bins": [-0.004113844595849514, -0.0039453282952308655, -0.0037768122274428606, -0.0036082961596548557, -0.003439779859036207, -0.0032712635584175587, -0.003102747490629554, -0.002934231422841549, -0.0027657151222229004, -0.002597198821604252, -0.002428682753816247, -0.002260166686028242, -0.0020916503854095936, -0.001923134084790945, -0.0017546180170029402, -0.0015861019492149353, -0.0014175856485962868, -0.0012490693479776382, -0.0010805532801896334, -0.0009120372124016285, -0.00074352091178298, -0.0005750046111643314, -0.00040648854337632656, -0.00023797247558832169, -6.945617496967316e-05, 9.906012564897537e-05, 0.0002675764262676239, 0.0004360922612249851, 0.0006046085618436337, 0.0007731248624622822, 0.0009416406974196434, 0.001110156998038292, 0.0012786732986569405, 0.001447189599275589, 0.0016157058998942375, 0.0017842217348515987, 0.0019527380354702473, 0.002121254336088896, 0.002289770171046257, 0.0024582864716649055, 0.002626802772283554, 0.0027953190729022026, 0.002963835373520851, 0.0031323512084782124, 0.003300867509096861, 0.0034693838097155094, 0.0036378996446728706, 0.003806415945291519, 0.003974932245910168, 0.004143448546528816, 0.004311964847147465, 0.004480481147766113, 0.004648997448384762, 0.004817512817680836, 0.004986029118299484, 0.005154545418918133, 0.005323061719536781, 0.00549157802015543, 0.005660094320774078, 0.005828610621392727, 0.005997125990688801, 0.006165642291307449, 0.006334158591926098, 0.006502674892544746, 0.006671191193163395]}, "valid loss": 6.87074226211911, "gradients/transformer_encoder.layers.1.linear1.weight": {"values": [1.0, 0.0, 1.0, 0.0, 0.0, 1.0, 0.0, 0.0, 2.0, 0.0, 0.0, 0.0, 0.0, 0.0, 1.0, 1.0, 0.0, 0.0, 0.0, 3.0, 2.0, 3.0, 4.0, 1.0, 4.0, 3.0, 3.0, 7.0, 8.0, 9.0, 23.0, 34.0, 126.0, 1246.0, 36651.0, 1596.0, 130.0, 40.0, 19.0, 12.0, 4.0, 9.0, 5.0, 7.0, 8.0, 3.0, 9.0, 4.0, 3.0, 2.0, 0.0, 1.0, 2.0, 1.0, 2.0, 3.0, 2.0, 1.0, 2.0, 0.0, 0.0, 0.0, 0.0, 1.0], "_type": "histogram", "bins": [-5.044735371484421e-05, -4.8986672481987625e-05, -4.752598761115223e-05, -4.606530274031684e-05, -4.460462150746025e-05, -4.3143940274603665e-05, -4.168325540376827e-05, -4.022257053293288e-05, -3.876188930007629e-05, -3.7301208067219704e-05, -3.584052319638431e-05, -3.437983832554892e-05, -3.291915709269233e-05, -3.1458475859835744e-05, -2.999779098900035e-05, -2.853710793715436e-05, -2.707642488530837e-05, -2.561574183346238e-05, -2.415505878161639e-05, -2.26943757297704e-05, -2.123369267792441e-05, -1.9773007807089016e-05, -1.831232657423243e-05, -1.6851645341375843e-05, -1.539096047054045e-05, -1.3930275599705055e-05, -1.2469594366848469e-05, -1.1008913133991882e-05, -9.548228263156489e-06, -8.087543392321095e-06, -6.626862159464508e-06, -5.166180926607922e-06, -3.705496055772528e-06, -2.2448111849371344e-06, -7.841299520805478e-07, 6.765512807760388e-07, 2.1372361516114324e-06, 3.597921022446826e-06, 5.058602255303413e-06, 6.519283488159999e-06, 7.979968358995393e-06, 9.440653229830787e-06, 1.090133810066618e-05, 1.236201569554396e-05, 1.3822700566379353e-05, 1.5283385437214747e-05, 1.6744063032092527e-05, 1.820474790292792e-05, 1.9665432773763314e-05, 2.1126117644598708e-05, 2.25868025154341e-05, 2.404748011031188e-05, 2.5508164981147274e-05, 2.6968849851982668e-05, 2.8429527446860448e-05, 2.989021231769584e-05, 3.1350897188531235e-05, 3.281158205936663e-05, 3.427226693020202e-05, 3.57329445250798e-05, 3.7193629395915195e-05, 3.865431426675059e-05, 4.011499186162837e-05, 4.157567673246376e-05, 4.3036361603299156e-05]}, "gradients/decoder.bias": {"values": [1.0, 0.0, 0.0, 0.0, 0.0, 0.0, 0.0, 0.0, 0.0, 0.0, 0.0, 0.0, 0.0, 0.0, 0.0, 0.0, 0.0, 0.0, 0.0, 0.0, 0.0, 1.0, 0.0, 0.0, 1.0, 1.0, 1.0, 0.0, 0.0, 0.0, 1.0, 0.0, 1.0, 0.0, 16.0, 7.0, 7.0, 3.0, 224.0, 63.0, 20.0, 7.0, 32542.0, 310.0, 34.0, 15.0, 8.0, 5.0, 2.0, 1.0, 3.0, 0.0, 0.0, 1.0, 1.0, 0.0, 1.0, 0.0, 0.0, 0.0, 0.0, 0.0, 0.0, 1.0], "_type": "histogram", "bins": [-0.014982599765062332, -0.014630166813731194, -0.014277733862400055, -0.013925300911068916, -0.013572867959737778, -0.013220435008406639, -0.0128680020570755, -0.012515569105744362, -0.012163136154413223, -0.011810703203082085, -0.011458270251750946, -0.011105838231742382, -0.010753405280411243, -0.010400972329080105, -0.010048539377748966, -0.009696106426417828, -0.009343673475086689, -0.00899124052375555, -0.008638807572424412, -0.008286374621093273, -0.007933941669762135, -0.007581509184092283, -0.007229076232761145, -0.006876642815768719, -0.006524210795760155, -0.006171777844429016, -0.0058193448930978775, -0.005466911941766739, -0.0051144789904356, -0.004762046039104462, -0.004409613087773323, -0.0040571801364421844, -0.003704747185111046, -0.0033523142337799072, -0.0029998812824487686, -0.00264744833111763, -0.0022950153797864914, -0.0019425824284553528, -0.0015901494771242142, -0.0012377165257930756, -0.000885283574461937, -0.000532851554453373, -0.00018041860312223434, 0.00017201434820890427, 0.0005244472995400429, 0.0008768811821937561, 0.0012293141335248947, 0.0015817470848560333, 0.0019341781735420227, 0.0022866111248731613, 0.0026390440762043, 0.0029914770275354385, 0.003343909978866577, 0.0036963429301977158, 0.004048775881528854, 0.004401208832859993, 0.004753641784191132, 0.00510607473552227, 0.005458507686853409, 0.005810940638184547, 0.006163373589515686, 0.006515806540846825, 0.006868239492177963, 0.007220672443509102, 0.0075731053948402405]}, "_runtime": 1618.7469520568848, "gradients/transformer_encoder.layers.1.linear1.bias": {"values": [1.0, 0.0, 0.0, 0.0, 0.0, 0.0, 0.0, 0.0, 0.0, 0.0, 1.0, 1.0, 1.0, 0.0, 1.0, 2.0, 3.0, 1.0, 2.0, 3.0, 2.0, 3.0, 1.0, 0.0, 3.0, 3.0, 4.0, 11.0, 7.0, 11.0, 8.0, 12.0, 11.0, 13.0, 24.0, 19.0, 12.0, 5.0, 3.0, 4.0, 4.0, 3.0, 3.0, 1.0, 3.0, 1.0, 2.0, 0.0, 1.0, 0.0, 2.0, 0.0, 1.0, 2.0, 1.0, 0.0, 1.0, 2.0, 0.0, 0.0, 0.0, 0.0, 0.0, 1.0], "_type": "histogram", "bins": [-2.6519960556470323e-06, -2.576193992354092e-06, -2.500391929061152e-06, -2.4245896383945365e-06, -2.3487875751015963e-06, -2.272985511808656e-06, -2.197183448515716e-06, -2.121381385222776e-06, -2.0455793219298357e-06, -1.9697772586368956e-06, -1.8939750816571177e-06, -1.8181729046773398e-06, -1.7423708413843997e-06, -1.6665687780914595e-06, -1.5907667147985194e-06, -1.5149645378187415e-06, -1.4391624745258014e-06, -1.3633604112328612e-06, -1.2875582342530834e-06, -1.2117561709601432e-06, -1.135954107667203e-06, -1.0601519306874252e-06, -9.84349867394485e-07, -9.085478041015449e-07, -8.32745627121767e-07, -7.569435638288269e-07, -6.811415005358867e-07, -6.053394372429466e-07, -5.295373739500064e-07, -4.5373508328339085e-07, -3.779330199904507e-07, -3.0213095669751056e-07, -2.263288934045704e-07, -1.5052683011163026e-07, -7.472476681869011e-08, 1.0772964742500335e-09, 7.687958714086562e-08, 1.5268165043380577e-07, 2.2848371372674592e-07, 3.0428577701968607e-07, 3.800878403126262e-07, 4.5588990360556636e-07, 5.31692194272182e-07, 6.074942575651221e-07, 6.832963208580622e-07, 7.590983841510024e-07, 8.349004474439425e-07, 9.107025107368827e-07, 9.865048014034983e-07, 1.0623068646964384e-06, 1.1381089279893786e-06, 1.2139107639086433e-06, 1.2897130545752589e-06, 1.3655153452418745e-06, 1.4413171811611392e-06, 1.5171194718277548e-06, 1.5929213077470195e-06, 1.668723598413635e-06, 1.7445258890802506e-06, 1.8203277249995153e-06, 1.896130015666131e-06, 1.9719318515853956e-06, 2.0477341422520112e-06, 2.123535978171276e-06, 2.1993382688378915e-06]}, "train loss": 7.071047642810196, "gradients/transformer_encoder.layers.0.norm1.bias": {"values": [1.0, 0.0, 0.0, 0.0, 0.0, 0.0, 0.0, 0.0, 0.0, 0.0, 0.0, 0.0, 0.0, 0.0, 0.0, 0.0, 0.0, 0.0, 0.0, 0.0, 0.0, 0.0, 0.0, 0.0, 0.0, 0.0, 0.0, 0.0, 0.0, 0.0, 0.0, 0.0, 0.0, 0.0, 0.0, 0.0, 1.0, 0.0, 0.0, 0.0, 0.0, 0.0, 0.0, 4.0, 11.0, 27.0, 41.0, 44.0, 39.0, 16.0, 5.0, 3.0, 3.0, 3.0, 0.0, 0.0, 0.0, 1.0, 0.0, 0.0, 0.0, 0.0, 0.0, 1.0], "_type": "histogram", "bins": [-1.0310923244105652e-06, -1.0093117452925071e-06, -9.875312798612867e-07, -9.657507007432287e-07, -9.439702353120083e-07, -9.221897130373691e-07, -9.004091907627298e-07, -8.786286116446718e-07, -8.568481462134514e-07, -8.350675670953933e-07, -8.13287101664173e-07, -7.915065225461149e-07, -7.697260002714756e-07, -7.479454779968364e-07, -7.261649557221972e-07, -7.04384433447558e-07, -6.826039111729187e-07, -6.608233888982795e-07, -6.390428666236403e-07, -6.172623443490011e-07, -5.954818220743618e-07, -5.737012997997226e-07, -5.519207775250834e-07, -5.301402552504442e-07, -5.083596761323861e-07, -4.865791538577469e-07, -4.6479863158310764e-07, -4.430181093084684e-07, -4.212375870338292e-07, -3.9945706475918996e-07, -3.7767654248455074e-07, -3.558960202099115e-07, -3.341154979352723e-07, -3.1233497566063306e-07, -2.9055445338599384e-07, -2.687739311113546e-07, -2.469934088367154e-07, -2.2521288656207616e-07, -2.0343236428743694e-07, -1.8165184201279772e-07, -1.598713197381585e-07, -1.380907406201004e-07, -1.1631021834546118e-07, -9.452969607082196e-08, -7.274923063960159e-08, -5.0968651521543507e-08, -2.9188186090323143e-08, -7.407606972265057e-09, 1.4372972145793028e-08, 3.615343757701339e-08, 5.793401669507148e-08, 7.971448212629184e-08, 1.0149506124434993e-07, 1.232755266755703e-07, 1.4505610579362838e-07, 1.6683657122484874e-07, 1.8861715034290683e-07, 2.103976157741272e-07, 2.3217819489218527e-07, 2.5395866032340564e-07, 2.757392394414637e-07, 2.975197048726841e-07, 3.1930028399074217e-07, 3.4108074942196254e-07, 3.628613285400206e-07]}, "gradients/transformer_encoder.layers.1.self_attn.out_proj.weight": {"values": [1.0, 2.0, 2.0, 2.0, 0.0, 0.0, 1.0, 1.0, 1.0, 1.0, 3.0, 1.0, 2.0, 4.0, 4.0, 7.0, 6.0, 6.0, 5.0, 6.0, 8.0, 13.0, 19.0, 32.0, 35.0, 114.0, 197.0, 478.0, 1256.0, 4251.0, 19132.0, 10458.0, 2439.0, 814.0, 309.0, 154.0, 68.0, 46.0, 25.0, 15.0, 13.0, 7.0, 9.0, 9.0, 8.0, 6.0, 4.0, 3.0, 2.0, 6.0, 2.0, 4.0, 1.0, 1.0, 2.0, 0.0, 2.0, 0.0, 0.0, 0.0, 0.0, 1.0, 0.0, 2.0], "_type": "histogram", "bins": [-5.263132152322214e-06, -5.092108040116727e-06, -4.921083927911241e-06, -4.750059815705754e-06, -4.579035703500267e-06, -4.4080111365474295e-06, -4.236987024341943e-06, -4.065962912136456e-06, -3.894938799930969e-06, -3.7239146877254825e-06, -3.5528905755199958e-06, -3.3818662359408336e-06, -3.210842123735347e-06, -3.03981801152986e-06, -2.868793671950698e-06, -2.697769559745211e-06, -2.5267454475397244e-06, -2.3557213353342377e-06, -2.184697223128751e-06, -2.0136728835495887e-06, -1.842648771344102e-06, -1.6716246591386152e-06, -1.500600319559453e-06, -1.3295762073539663e-06, -1.1585520951484796e-06, -9.875279829429928e-07, -8.165038707375061e-07, -6.454797585320193e-07, -4.744551915791817e-07, -3.0343107937369496e-07, -1.324069671682082e-07, 3.861714503727853e-08, 2.0964125724276528e-07, 3.80665369448252e-07, 5.516894816537388e-07, 7.227135938592255e-07, 8.937377060647123e-07, 1.0647622730175499e-06, 1.2357863852230366e-06, 1.4068104974285234e-06, 1.5778346096340101e-06, 1.7488587218394969e-06, 1.9198828340449836e-06, 2.0909069462504704e-06, 2.261931513203308e-06, 2.4329556254087947e-06, 2.6039797376142815e-06, 2.7750038498197682e-06, 2.946027962025255e-06, 3.1170520742307417e-06, 3.2880761864362285e-06, 3.459100298641715e-06, 3.630124410847202e-06, 3.8011485230526887e-06, 3.9721726352581754e-06, 4.143196747463662e-06, 4.314221769163851e-06, 4.4852458813693374e-06, 4.656269993574824e-06, 4.827294105780311e-06, 4.998318217985798e-06, 5.169342330191284e-06, 5.340366442396771e-06, 5.511390554602258e-06, 5.682414666807745e-06]}, "gradients/transformer_encoder.layers.1.linear2.weight": {"values": [3.0, 1.0, 0.0, 2.0, 1.0, 1.0, 0.0, 6.0, 4.0, 1.0, 6.0, 4.0, 7.0, 7.0, 8.0, 8.0, 19.0, 16.0, 19.0, 42.0, 60.0, 91.0, 182.0, 461.0, 1884.0, 34393.0, 1918.0, 424.0, 209.0, 97.0, 51.0, 15.0, 17.0, 7.0, 11.0, 6.0, 5.0, 3.0, 3.0, 1.0, 0.0, 0.0, 1.0, 0.0, 1.0, 0.0, 1.0, 0.0, 1.0, 1.0, 0.0, 0.0, 0.0, 0.0, 0.0, 0.0, 0.0, 0.0, 1.0, 0.0, 0.0, 0.0, 0.0, 1.0], "_type": "histogram", "bins": [-0.0001297773269470781, -0.00012468596105463803, -0.00011959460243815556, -0.0001145032438216731, -0.00010941187792923301, -0.00010432051931275055, -9.922916069626808e-05, -9.4137794803828e-05, -8.904643618734553e-05, -8.395507757086307e-05, -7.886371167842299e-05, -7.377235306194052e-05, -6.868099444545805e-05, -6.358962855301797e-05, -5.849826993653551e-05, -5.340690404409543e-05, -4.831554542761296e-05, -4.3224186811130494e-05, -3.813282091869041e-05, -3.304146230220795e-05, -2.7950096409767866e-05, -2.28587377932854e-05, -1.7767379176802933e-05, -1.2676013284362853e-05, -7.584661943838e-06, -2.4932960513979197e-06, 2.598069841042161e-06, 7.689435733482242e-06, 1.2780787074007094e-05, 1.7872152966447175e-05, 2.2963518858887255e-05, 2.8054870199412107e-05, 3.314623609185219e-05, 3.823760198429227e-05, 4.332895332481712e-05, 4.84203192172572e-05, 5.351168510969728e-05, 5.8603036450222135e-05, 6.369440234266222e-05, 6.87857682351023e-05, 7.387713412754238e-05, 7.896848546806723e-05, 8.405985136050731e-05, 8.915121725294739e-05, 9.424256859347224e-05, 9.933393448591232e-05, 0.0001044253003783524, 0.00010951665171887726, 0.00011460800305940211, 0.00011969936895184219, 0.00012479073484428227, 0.00012988210073672235, 0.00013497346662916243, 0.0001400648325216025, 0.0001451561984140426, 0.00015024753520265222, 0.0001553389010950923, 0.00016043026698753238, 0.00016552163287997246, 0.00017061299877241254, 0.00017570436466485262, 0.00018079570145346224, 0.00018588706734590232, 0.0001909784332383424, 0.00019606979913078249]}, "gradients/transformer_encoder.layers.0.self_attn.in_proj_bias": {"values": [1.0, 1.0, 1.0, 1.0, 0.0, 0.0, 1.0, 0.0, 0.0, 2.0, 1.0, 1.0, 0.0, 2.0, 1.0, 2.0, 1.0, 1.0, 0.0, 1.0, 3.0, 0.0, 1.0, 2.0, 2.0, 1.0, 10.0, 13.0, 22.0, 27.0, 38.0, 341.0, 38.0, 23.0, 11.0, 11.0, 6.0, 4.0, 4.0, 2.0, 2.0, 0.0, 2.0, 4.0, 2.0, 1.0, 3.0, 0.0, 1.0, 3.0, 0.0, 1.0, 1.0, 0.0, 0.0, 0.0, 1.0, 0.0, 0.0, 0.0, 1.0, 0.0, 1.0, 1.0], "_type": "histogram", "bins": [-6.385975126477206e-08, -6.180631828556216e-08, -5.975288530635225e-08, -5.769945232714235e-08, -5.564601934793245e-08, -5.359258636872255e-08, -5.153914983679897e-08, -4.948571685758907e-08, -4.743228387837917e-08, -4.5378850899169265e-08, -4.3325417919959364e-08, -4.1271981388035783e-08, -3.921854840882588e-08, -3.716511542961598e-08, -3.511168245040608e-08, -3.305824947119618e-08, -3.1004816491986276e-08, -2.8951383512776374e-08, -2.6897950533566473e-08, -2.484451755435657e-08, -2.279108457514667e-08, -2.073764804322309e-08, -1.8684215064013188e-08, -1.6630782084803286e-08, -1.4577349105593385e-08, -1.2523916126383483e-08, -1.0470483147173582e-08, -8.41705016796368e-09, -6.3636136360401e-09, -4.310180656830198e-09, -2.2567476776202966e-09, -2.0331469841039507e-10, 1.8501182807995065e-09, 3.903551260009408e-09, 5.9569842392193095e-09, 8.010417218429211e-09, 1.0063850197639113e-08, 1.2117283176849014e-08, 1.4170716156058916e-08, 1.6224149135268817e-08, 1.827758211447872e-08, 2.0331022199115978e-08, 2.238445517832588e-08, 2.443788815753578e-08, 2.6491321136745682e-08, 2.8544754115955584e-08, 3.0598187095165486e-08, 3.265162007437539e-08, 3.470505305358529e-08, 3.675848603279519e-08, 3.881191901200509e-08, 4.086535199121499e-08, 4.2918784970424895e-08, 4.4972217949634796e-08, 4.70256509288447e-08, 4.90790839080546e-08, 5.113252399269186e-08, 5.318595697190176e-08, 5.523938995111166e-08, 5.7292815824894205e-08, 5.9346255909531465e-08, 6.139968178331401e-08, 6.345312186795127e-08, 6.550654774173381e-08, 6.755998782637107e-08]}, "test loss": 6.811863592893911, "gradients/transformer_encoder.layers.1.norm1.bias": {"values": [1.0, 0.0, 0.0, 0.0, 1.0, 0.0, 0.0, 0.0, 0.0, 0.0, 0.0, 0.0, 1.0, 1.0, 0.0, 0.0, 0.0, 0.0, 0.0, 0.0, 0.0, 1.0, 1.0, 2.0, 1.0, 1.0, 3.0, 1.0, 2.0, 5.0, 6.0, 5.0, 7.0, 14.0, 17.0, 11.0, 12.0, 14.0, 17.0, 13.0, 16.0, 10.0, 6.0, 8.0, 4.0, 6.0, 3.0, 0.0, 1.0, 1.0, 3.0, 0.0, 1.0, 0.0, 1.0, 0.0, 2.0, 0.0, 0.0, 0.0, 0.0, 0.0, 0.0, 1.0], "_type": "histogram", "bins": [-6.965105058043264e-06, -6.777027010684833e-06, -6.588948508579051e-06, -6.40087046122062e-06, -6.212792413862189e-06, -6.0247139117564075e-06, -5.8366358643979765e-06, -5.648557817039546e-06, -5.460479314933764e-06, -5.272401267575333e-06, -5.084322765469551e-06, -4.89624471811112e-06, -4.708166670752689e-06, -4.520088623394258e-06, -4.3320101212884765e-06, -4.143932073930046e-06, -3.955853571824264e-06, -3.767775524465833e-06, -3.579697477107402e-06, -3.3916192023752956e-06, -3.203540927643189e-06, -3.0154628802847583e-06, -2.8273843781789765e-06, -2.6393063308205456e-06, -2.4512282834621146e-06, -2.263149781356333e-06, -2.075071733997902e-06, -1.886993686639471e-06, -1.6989151845336892e-06, -1.5108371371752582e-06, -1.3227590898168273e-06, -1.1346805877110455e-06, -9.466025403526146e-07, -7.585244929941837e-07, -5.704459908884019e-07, -3.8236794352997094e-07, -1.9428989617154002e-07, -6.211394065758213e-09, 1.818666532926727e-07, 3.6994470065110363e-07, 5.580232027568854e-07, 7.461012501153164e-07, 9.341792974737473e-07, 1.1222573448321782e-06, 1.310336301685311e-06, 1.4984143490437418e-06, 1.6864923964021727e-06, 1.8745704437606037e-06, 2.0626484911190346e-06, 2.2507265384774655e-06, 2.438805495330598e-06, 2.626883542689029e-06, 2.81496159004746e-06, 3.003039637405891e-06, 3.191117684764322e-06, 3.379195732122753e-06, 3.5672746889758855e-06, 3.7553527363343164e-06, 3.943430783692747e-06, 4.131508831051178e-06, 4.319586878409609e-06, 4.50766492576804e-06, 4.695743882621173e-06, 4.883821929979604e-06, 5.071899977338035e-06]}, "_timestamp": 1579820723.895251, "gradients/transformer_encoder.layers.1.self_attn.out_proj.bias": {"values": [2.0, 0.0, 0.0, 0.0, 0.0, 0.0, 0.0, 1.0, 0.0, 0.0, 1.0, 1.0, 1.0, 1.0, 3.0, 2.0, 6.0, 7.0, 6.0, 14.0, 14.0, 23.0, 17.0, 18.0, 13.0, 18.0, 11.0, 9.0, 10.0, 5.0, 4.0, 3.0, 3.0, 1.0, 1.0, 0.0, 1.0, 0.0, 0.0, 0.0, 0.0, 0.0, 0.0, 0.0, 2.0, 0.0, 0.0, 0.0, 0.0, 0.0, 0.0, 0.0, 1.0, 0.0, 0.0, 0.0, 0.0, 0.0, 0.0, 0.0, 0.0, 0.0, 0.0, 1.0], "_type": "histogram", "bins": [-2.1588793686078134e-07, -2.0679749468399677e-07, -1.977070525072122e-07, -1.8861661033042765e-07, -1.795261823644978e-07, -1.7043572597685852e-07, -1.6134529801092867e-07, -1.522548558341441e-07, -1.4316441365735955e-07, -1.3407397148057498e-07, -1.2498352930379042e-07, -1.1589309423243321e-07, -1.0680265205564865e-07, -9.771220987886409e-08, -8.862177480750688e-08, -7.953133263072232e-08, -7.044089045393775e-08, -6.135044827715319e-08, -5.226000610036863e-08, -4.3169563923584064e-08, -3.40791217467995e-08, -2.4988693780869653e-08, -1.589825160408509e-08, -6.807809427300526e-09, 2.282632749484037e-09, 1.13730749262686e-08, 2.0463517103053164e-08, 2.9553959279837727e-08, 3.8644387245767575e-08, 4.7734843633406854e-08, 5.68252715993367e-08, 6.591572798697598e-08, 7.500615595290583e-08, 8.409658391883568e-08, 9.318704030647496e-08, 1.022774682724048e-07, 1.1136792466004408e-07, 1.2045835262597393e-07, 1.295488090136132e-07, 1.3863923697954306e-07, 1.4772969336718234e-07, 1.5682012133311218e-07, 1.6591054929904203e-07, 1.750010056866813e-07, 1.8409143365261116e-07, 1.9318189004025044e-07, 2.0227231800618029e-07, 2.1136277439381956e-07, 2.204532023597494e-07, 2.2954363032567926e-07, 2.386340725024638e-07, 2.477245288901031e-07, 2.568149852777424e-07, 2.659053848219628e-07, 2.749958412096021e-07, 2.8408629759724136e-07, 2.9317669714146177e-07, 3.0226715352910105e-07, 3.1135760991674033e-07, 3.2044800946096075e-07, 3.295384658486e-07, 3.386289222362393e-07, 3.477193786238786e-07, 3.56809778168099e-07, 3.659002345557383e-07]}, "gradients/transformer_encoder.layers.0.norm2.bias": {"values": [1.0, 0.0, 0.0, 0.0, 0.0, 3.0, 1.0, 4.0, 3.0, 10.0, 11.0, 23.0, 27.0, 29.0, 27.0, 16.0, 14.0, 14.0, 7.0, 5.0, 1.0, 1.0, 0.0, 0.0, 0.0, 1.0, 0.0, 1.0, 0.0, 0.0, 0.0, 0.0, 0.0, 0.0, 0.0, 0.0, 0.0, 0.0, 0.0, 0.0, 0.0, 0.0, 0.0, 0.0, 0.0, 0.0, 0.0, 0.0, 0.0, 0.0, 0.0, 0.0, 0.0, 0.0, 0.0, 0.0, 0.0, 0.0, 0.0, 0.0, 0.0, 0.0, 0.0, 1.0], "_type": "histogram", "bins": [-1.8180705296799715e-07, -1.6873947572548786e-07, -1.5567189848297858e-07, -1.426043212404693e-07, -1.2953674399796e-07, -1.1646916675545071e-07, -1.0340158951294143e-07, -9.033401227043214e-08, -7.726643502792285e-08, -6.419885778541357e-08, -5.113128054290428e-08, -3.806370330039499e-08, -2.4996126057885704e-08, -1.1928548815376416e-08, 1.139028427132871e-09, 1.4206605669642158e-08, 2.7274182912151446e-08, 4.034176015466073e-08, 5.340933739717002e-08, 6.647692885053402e-08, 7.95444918821886e-08, 9.261205491384317e-08, 1.0567964636720717e-07, 1.1874723782057117e-07, 1.3181480085222574e-07, 1.4488236388388032e-07, 1.5794995533724432e-07, 1.7101754679060832e-07, 1.840851098222629e-07, 1.9715267285391747e-07, 2.1022026430728147e-07, 2.2328785576064547e-07, 2.3635541879230004e-07, 2.494229818239546e-07, 2.624905732773186e-07, 2.755581647306826e-07, 2.886257277623372e-07, 3.0169329079399176e-07, 3.147609106690652e-07, 3.2782847370071977e-07, 3.4089603673237434e-07, 3.539635997640289e-07, 3.670311627956835e-07, 3.800987826707569e-07, 3.931663457024115e-07, 4.0623390873406606e-07, 4.193015286091395e-07, 4.3236909164079407e-07, 4.4543665467244864e-07, 4.585042177041032e-07, 4.715717807357578e-07, 4.846393721891218e-07, 4.977069920641952e-07, 5.107744982524309e-07, 5.238421181275044e-07, 5.369097380025778e-07, 5.499772441908135e-07, 5.630448640658869e-07, 5.761123702541227e-07, 5.891799901291961e-07, 6.022476100042695e-07, 6.153151161925052e-07, 6.283827360675787e-07, 6.414503559426521e-07, 6.545178621308878e-07]}, "gradients/transformer_encoder.layers.0.norm1.weight": {"values": [1.0, 0.0, 0.0, 0.0, 0.0, 0.0, 0.0, 0.0, 0.0, 0.0, 0.0, 0.0, 0.0, 0.0, 0.0, 0.0, 0.0, 0.0, 0.0, 0.0, 0.0, 0.0, 0.0, 0.0, 0.0, 0.0, 0.0, 1.0, 0.0, 0.0, 0.0, 0.0, 0.0, 0.0, 0.0, 0.0, 3.0, 3.0, 12.0, 157.0, 16.0, 2.0, 1.0, 1.0, 0.0, 0.0, 0.0, 1.0, 0.0, 1.0, 0.0, 0.0, 0.0, 0.0, 0.0, 0.0, 0.0, 0.0, 0.0, 0.0, 0.0, 0.0, 0.0, 1.0], "_type": "histogram", "bins": [-2.2284980332187843e-06, -2.1721714347222587e-06, -2.1158446088520577e-06, -2.059518010355532e-06, -2.003191184485331e-06, -1.9468645859888056e-06, -1.89053798749228e-06, -1.8342112753089168e-06, -1.7778845631255535e-06, -1.7215578509421903e-06, -1.665231138758827e-06, -1.6089045402623015e-06, -1.5525778280789382e-06, -1.496251115895575e-06, -1.4399245173990494e-06, -1.383597805215686e-06, -1.3272710930323228e-06, -1.2709443808489596e-06, -1.2146176686655963e-06, -1.1582910701690707e-06, -1.1019643579857075e-06, -1.0456376458023442e-06, -9.893110473058186e-07, -9.329843351224554e-07, -8.766576229390921e-07, -8.203309107557288e-07, -7.640041985723656e-07, -7.0767760007584e-07, -6.513508878924767e-07, -5.950241757091135e-07, -5.386975772125879e-07, -4.823708650292247e-07, -4.260441528458614e-07, -3.697174406624981e-07, -3.1339072847913485e-07, -2.570641299826093e-07, -2.007373041124083e-07, -1.4441070561588276e-07, -8.808410711935721e-08, -3.175728124915622e-08, 2.4569317247369327e-08, 8.089591574389488e-08, 1.3722274161409587e-07, 1.9354934011062142e-07, 2.4987593860714696e-07, 3.0620276447734796e-07, 3.625293629738735e-07, 4.188561888440745e-07, 4.7518278734060004e-07, 5.315093858371256e-07, 5.878362117073266e-07, 6.441628102038521e-07, 7.004896360740531e-07, 7.568162345705787e-07, 8.131428330671042e-07, 8.694696589373052e-07, 9.257962574338308e-07, 9.821228559303563e-07, 1.0384496818005573e-06, 1.0947762802970828e-06, 1.1511028787936084e-06, 1.2074297046638094e-06, 1.263756303160335e-06, 1.320083129030536e-06, 1.3764097275270615e-06]}, "gradients/transformer_encoder.layers.1.norm2.bias": {"values": [1.0, 0.0, 2.0, 1.0, 1.0, 2.0, 1.0, 2.0, 2.0, 2.0, 4.0, 2.0, 2.0, 3.0, 3.0, 1.0, 1.0, 4.0, 4.0, 5.0, 3.0, 1.0, 1.0, 7.0, 6.0, 4.0, 3.0, 7.0, 3.0, 2.0, 6.0, 9.0, 8.0, 5.0, 6.0, 4.0, 6.0, 6.0, 5.0, 9.0, 6.0, 6.0, 4.0, 5.0, 8.0, 2.0, 3.0, 2.0, 4.0, 3.0, 2.0, 2.0, 3.0, 1.0, 2.0, 0.0, 0.0, 1.0, 1.0, 0.0, 0.0, 0.0, 0.0, 1.0], "_type": "histogram", "bins": [-0.022770125418901443, -0.02211231179535389, -0.021454498171806335, -0.02079668454825878, -0.020138870924711227, -0.019481057301163673, -0.01882324367761612, -0.018165430054068565, -0.01750761643052101, -0.016849802806973457, -0.016191989183425903, -0.01553417555987835, -0.014876361936330795, -0.014218548312783241, -0.013560734689235687, -0.012902921065688133, -0.01224510744214058, -0.011587293818593025, -0.010929480195045471, -0.010271666571497917, -0.009613852947950363, -0.00895603932440281, -0.008298225700855255, -0.007640412077307701, -0.006982598453760147, -0.006324784830212593, -0.005666971206665039, -0.005009157583117485, -0.004351343959569931, -0.003693530336022377, -0.003035716712474823, -0.002377903088927269, -0.001720089465379715, -0.001062275841832161, -0.00040446221828460693, 0.0002533514052629471, 0.0009111650288105011, 0.0015689786523580551, 0.002226792275905609, 0.002884605899453163, 0.003542419523000717, 0.004200233146548271, 0.004858046770095825, 0.005515860393643379, 0.006173674017190933, 0.006831487640738487, 0.007489301264286041, 0.008147114887833595, 0.00880492851138115, 0.009462740272283554, 0.010120555758476257, 0.01077837124466896, 0.011436183005571365, 0.01209399476647377, 0.012751810252666473, 0.013409625738859177, 0.014067437499761581, 0.014725249260663986, 0.01538306474685669, 0.016040880233049393, 0.016698691993951797, 0.017356503754854202, 0.018014319241046906, 0.01867213472723961, 0.019329946488142014]}}
