{"gradients/fc1.bias": {"values": [1.0, 0.0, 0.0, 0.0, 1.0, 1.0, 1.0, 1.0, 0.0, 0.0, 1.0, 0.0, 0.0, 1.0, 1.0, 1.0, 1.0, 1.0, 1.0, 1.0, 1.0, 2.0, 2.0, 1.0, 1.0, 3.0, 3.0, 3.0, 4.0, 2.0, 1.0, 2.0, 0.0, 0.0, 1.0, 0.0, 0.0, 2.0, 1.0, 1.0, 2.0, 0.0, 0.0, 0.0, 0.0, 0.0, 0.0, 2.0, 0.0, 0.0, 1.0, 0.0, 0.0, 0.0, 0.0, 0.0, 0.0, 0.0, 0.0, 0.0, 0.0, 0.0, 0.0, 2.0], "bins": [-0.010638881474733353, -0.010265003889799118, -0.009891126304864883, -0.009517248719930649, -0.00914337020367384, -0.008769492618739605, -0.00839561503380537, -0.008021737448871136, -0.007647859398275614, -0.007273981347680092, -0.006900103762745857, -0.006526226177811623, -0.006152348592877388, -0.005778470542281866, -0.0054045929573476315, -0.0050307149067521095, -0.004656837321817875, -0.00428295973688364, -0.003909081686288118, -0.0035352041013538837, -0.003161326050758362, -0.002787448465824127, -0.0024135708808898926, -0.002039693295955658, -0.0016658157110214233, -0.001291937194764614, -0.0009180596098303795, -0.0005441820248961449, -0.00017030443996191025, 0.00020357314497232437, 0.0005774516612291336, 0.0009513292461633682, 0.0013252068310976028, 0.0016990844160318375, 0.002072962000966072, 0.0024468405172228813, 0.002820718102157116, 0.0031945956870913506, 0.003568473272025585, 0.00394235085695982, 0.004316229373216629, 0.004690106958150864, 0.005063984543085098, 0.005437862128019333, 0.0058117397129535675, 0.006185617297887802, 0.006559494882822037, 0.006933372467756271, 0.007307250052690506, 0.00768112950026989, 0.008055007085204124, 0.008428884670138359, 0.008802762255072594, 0.009176639840006828, 0.009550517424941063, 0.009924395009875298, 0.010298272594809532, 0.010672150179743767, 0.011046027764678001, 0.011419907212257385, 0.01179378479719162, 0.012167662382125854, 0.012541539967060089, 0.012915417551994324, 0.013289295136928558], "_type": "histogram"}, "_runtime": 64.47370886802673, "gradients/conv2.bias": {"values": [1.0, 0.0, 0.0, 1.0, 0.0, 0.0, 0.0, 0.0, 0.0, 0.0, 0.0, 0.0, 0.0, 0.0, 0.0, 0.0, 0.0, 0.0, 1.0, 3.0, 0.0, 1.0, 0.0, 1.0, 0.0, 0.0, 1.0, 0.0, 1.0, 0.0, 0.0, 0.0, 1.0, 1.0, 1.0, 0.0, 0.0, 0.0, 1.0, 1.0, 0.0, 0.0, 0.0, 0.0, 0.0, 0.0, 0.0, 2.0, 0.0, 0.0, 0.0, 1.0, 0.0, 1.0, 0.0, 0.0, 0.0, 0.0, 0.0, 0.0, 0.0, 0.0, 0.0, 1.0], "bins": [-0.01317000761628151, -0.01277951616793871, -0.012389024719595909, -0.011998533271253109, -0.011608041822910309, -0.011217550374567509, -0.010827058926224709, -0.010436567477881908, -0.010046076029539108, -0.009655584581196308, -0.009265093132853508, -0.008874601684510708, -0.008484110236167908, -0.008093618787825108, -0.0077031273394823074, -0.007312635891139507, -0.006922144442796707, -0.006531652994453907, -0.006141161546111107, -0.005750670097768307, -0.005360178649425507, -0.0049696872010827065, -0.004579195752739906, -0.004188704304397106, -0.003798212856054306, -0.003407721407711506, -0.0030172299593687057, -0.0026267385110259056, -0.0022362470626831055, -0.0018457556143403053, -0.0014552641659975052, -0.001064772717654705, -0.0006742812693119049, -0.00028378982096910477, 0.00010670162737369537, 0.0004971930757164955, 0.0008876845240592957, 0.0012781759724020958, 0.001668667420744896, 0.002059158869087696, 0.002449650317430496, 0.002840142697095871, 0.0032306332141160965, 0.003621123731136322, 0.004011616110801697, 0.0044021084904670715, 0.004792599007487297, 0.005183089524507523, 0.005573581904172897, 0.005964074283838272, 0.006354564800858498, 0.006745055317878723, 0.007135547697544098, 0.007526040077209473, 0.007916530594229698, 0.008307021111249924, 0.008697513490915298, 0.009088005870580673, 0.009478496387600899, 0.009868986904621124, 0.010259479284286499, 0.010649971663951874, 0.0110404621809721, 0.011430952697992325, 0.0118214450776577], "_type": "histogram"}, "gradients/fc2.weight": {"values": [1.0, 1.0, 0.0, 0.0, 1.0, 0.0, 1.0, 0.0, 0.0, 1.0, 1.0, 0.0, 2.0, 1.0, 4.0, 0.0, 1.0, 7.0, 8.0, 6.0, 7.0, 20.0, 31.0, 302.0, 50.0, 18.0, 8.0, 10.0, 3.0, 2.0, 3.0, 2.0, 1.0, 1.0, 0.0, 1.0, 2.0, 1.0, 0.0, 0.0, 1.0, 0.0, 0.0, 0.0, 1.0, 0.0, 0.0, 0.0, 0.0, 0.0, 0.0, 0.0, 0.0, 0.0, 0.0, 0.0, 0.0, 0.0, 0.0, 0.0, 0.0, 0.0, 0.0, 1.0], "bins": [-0.2348436713218689, -0.22483009099960327, -0.21481649577617645, -0.20480290055274963, -0.194789320230484, -0.18477573990821838, -0.17476214468479156, -0.16474854946136475, -0.15473496913909912, -0.1447213888168335, -0.13470779359340668, -0.12469420582056046, -0.11468061804771423, -0.10466703772544861, -0.09465344250202179, -0.08463984727859497, -0.07462626695632935, -0.06461268663406372, -0.0545990914106369, -0.04458549618721008, -0.03457191586494446, -0.024558335542678833, -0.014544740319252014, -0.004531145095825195, 0.00548243522644043, 0.015496015548706055, 0.02550959587097168, 0.03552320599555969, 0.04553678631782532, 0.05555036664009094, 0.06556397676467896, 0.07557755708694458, 0.0855911374092102, 0.09560471773147583, 0.10561829805374146, 0.11563190817832947, 0.1256454885005951, 0.13565906882286072, 0.14567267894744873, 0.15568625926971436, 0.16569983959197998, 0.1757134199142456, 0.18572700023651123, 0.19574061036109924, 0.20575419068336487, 0.2157677710056305, 0.2257813811302185, 0.23579496145248413, 0.24580854177474976, 0.2558221220970154, 0.265835702419281, 0.27584928274154663, 0.28586286306381226, 0.29587650299072266, 0.3058900833129883, 0.3159036636352539, 0.32591724395751953, 0.33593082427978516, 0.3459444046020508, 0.3559579849243164, 0.3659716248512268, 0.37598520517349243, 0.38599878549575806, 0.3960123658180237, 0.4060259461402893], "_type": "histogram"}, "_timestamp": 1578883243.8398898, "_step": 9, "Examples": {"format": "png", "height": 28, "_type": "images", "count": 10, "captions": ["Pred: 5 Truth: 5", "Pred: 1 Truth: 1", "Pred: 9 Truth: 9", "Pred: 6 Truth: 6", "Pred: 9 Truth: 9", "Pred: 0 Truth: 0", "Pred: 8 Truth: 8", "Pred: 9 Truth: 9", "Pred: 7 Truth: 7", "Pred: 4 Truth: 4"], "width": 28}, "Test Accuracy": 98.35, "gradients/conv2.weight": {"values": [1.0, 0.0, 0.0, 0.0, 0.0, 0.0, 2.0, 0.0, 0.0, 3.0, 1.0, 2.0, 8.0, 4.0, 9.0, 8.0, 12.0, 17.0, 23.0, 14.0, 24.0, 21.0, 20.0, 23.0, 36.0, 36.0, 52.0, 73.0, 78.0, 90.0, 108.0, 140.0, 203.0, 289.0, 325.0, 344.0, 540.0, 696.0, 506.0, 357.0, 236.0, 170.0, 133.0, 75.0, 92.0, 48.0, 33.0, 33.0, 19.0, 26.0, 18.0, 16.0, 8.0, 7.0, 5.0, 3.0, 3.0, 5.0, 1.0, 0.0, 2.0, 0.0, 0.0, 2.0], "bins": [-0.12119265645742416, -0.11798123270273209, -0.1147698163986206, -0.11155839264392853, -0.10834697633981705, -0.10513555258512497, -0.10192413628101349, -0.09871271252632141, -0.09550128877162933, -0.09228987246751785, -0.08907845616340637, -0.0858670324087143, -0.08265560865402222, -0.07944418489933014, -0.07623276859521866, -0.07302135229110718, -0.0698099285364151, -0.06659850478172302, -0.06338708847761154, -0.06017566844820976, -0.05696424841880798, -0.053752824664115906, -0.050541408360004425, -0.04732998460531235, -0.04411856085062027, -0.04090714454650879, -0.03769572079181671, -0.03448430448770523, -0.03127288073301315, -0.028061464428901672, -0.024850040674209595, -0.021638624370098114, -0.018427200615406036, -0.015215776860713959, -0.012004360556602478, -0.0087929368019104, -0.00558152049779892, -0.002370096743106842, 0.0008413195610046387, 0.004052735865116119, 0.007264159619808197, 0.010475583374500275, 0.013687007129192352, 0.01689843088388443, 0.020109839737415314, 0.02332126349210739, 0.02653268724679947, 0.029744111001491547, 0.032955534756183624, 0.03616694360971451, 0.039378367364406586, 0.04258979111909866, 0.04580121487379074, 0.049012623727321625, 0.0522240474820137, 0.05543547123670578, 0.05864689499139786, 0.061858318746089935, 0.06506972759962082, 0.0682811513543129, 0.07149257510900497, 0.07470399886369705, 0.07791540771722794, 0.08112683147192001, 0.08433825522661209], "_type": "histogram"}, "gradients/fc1.weight": {"values": [1.0, 1.0, 0.0, 0.0, 0.0, 2.0, 5.0, 1.0, 1.0, 4.0, 3.0, 1.0, 6.0, 3.0, 5.0, 5.0, 7.0, 14.0, 20.0, 23.0, 33.0, 34.0, 55.0, 65.0, 72.0, 112.0, 109.0, 146.0, 196.0, 384.0, 601.0, 1456.0, 10551.0, 616.0, 288.0, 222.0, 170.0, 117.0, 99.0, 72.0, 77.0, 65.0, 50.0, 39.0, 51.0, 43.0, 35.0, 35.0, 26.0, 18.0, 16.0, 11.0, 9.0, 6.0, 6.0, 5.0, 1.0, 2.0, 1.0, 1.0, 2.0, 0.0, 0.0, 1.0], "bins": [-0.14508867263793945, -0.14062762260437012, -0.13616657257080078, -0.13170553743839264, -0.1272444874048233, -0.12278343737125397, -0.11832238733768463, -0.1138613373041153, -0.10940029472112656, -0.10493925213813782, -0.10047820210456848, -0.09601715207099915, -0.09155610203742981, -0.08709505945444107, -0.08263400942087173, -0.078172966837883, -0.07371191680431366, -0.06925086677074432, -0.06478982418775558, -0.06032877415418625, -0.05586773157119751, -0.051406681537628174, -0.04694563150405884, -0.0424845889210701, -0.03802353888750076, -0.03356248885393143, -0.029101446270942688, -0.024640396237373352, -0.020179346203804016, -0.01571829617023468, -0.011257261037826538, -0.006796211004257202, -0.002335160970687866, 0.0021258890628814697, 0.006586939096450806, 0.011047974228858948, 0.015509024262428284, 0.01997007429599762, 0.024431124329566956, 0.02889217436313629, 0.033353209495544434, 0.03781425952911377, 0.042275309562683105, 0.04673635959625244, 0.05119740962982178, 0.05565845966339111, 0.060119494795799255, 0.06458054482936859, 0.06904159486293793, 0.07350264489650726, 0.0779636949300766, 0.08242473006248474, 0.08688578009605408, 0.09134683012962341, 0.09580788016319275, 0.10026893019676208, 0.10472998023033142, 0.10919103026390076, 0.11365208029747009, 0.11811310052871704, 0.12257415056228638, 0.1270352005958557, 0.13149625062942505, 0.13595730066299438, 0.14041835069656372], "_type": "histogram"}, "gradients/fc2.bias": {"values": [1.0, 0.0, 0.0, 0.0, 0.0, 0.0, 0.0, 0.0, 0.0, 0.0, 0.0, 0.0, 1.0, 0.0, 2.0, 0.0, 1.0, 1.0, 0.0, 0.0, 0.0, 0.0, 0.0, 0.0, 0.0, 0.0, 0.0, 1.0, 0.0, 0.0, 0.0, 0.0, 0.0, 0.0, 0.0, 0.0, 0.0, 0.0, 1.0, 1.0, 0.0, 0.0, 0.0, 0.0, 0.0, 0.0, 0.0, 0.0, 0.0, 0.0, 0.0, 0.0, 0.0, 0.0, 0.0, 0.0, 0.0, 0.0, 0.0, 0.0, 0.0, 0.0, 0.0, 1.0], "bins": [-0.017215678468346596, -0.016513042151927948, -0.01581040397286415, -0.015107767656445503, -0.01440513040870428, -0.013702493160963058, -0.012999855913221836, -0.012297218665480614, -0.011594582349061966, -0.010891944169998169, -0.010189307853579521, -0.009486670605838299, -0.008784033358097076, -0.008081396110355854, -0.007378759793937206, -0.006676122546195984, -0.0059734852984547615, -0.005270848050713539, -0.004568210802972317, -0.003865574486553669, -0.0031629372388124466, -0.002460299991071224, -0.0017576627433300018, -0.001055026426911354, -0.00035238824784755707, 0.0003502480685710907, 0.0010528862476348877, 0.0017555225640535355, 0.0024581588804721832, 0.0031607970595359802, 0.003863433375954628, 0.004566071555018425, 0.005268707871437073, 0.0059713441878557205, 0.0066739823669195175, 0.007376618683338165, 0.008079256862401962, 0.00878189317882061, 0.009484529495239258, 0.010187167674303055, 0.010889803990721703, 0.0115924421697855, 0.012295078486204147, 0.012997714802622795, 0.013700352981686592, 0.014402991160750389, 0.015105625614523888, 0.015808263793587685, 0.01651090197265148, 0.01721353642642498, 0.017916174605488777, 0.018618812784552574, 0.01932145096361637, 0.02002408541738987, 0.020726723596453667, 0.021429361775517464, 0.022131996229290962, 0.02283463440835476, 0.023537272587418556, 0.024239907041192055, 0.024942545220255852, 0.02564518339931965, 0.026347821578383446, 0.027050456032156944, 0.02775309421122074], "_type": "histogram"}, "Test Loss": 0.05302187957763672, "gradients/conv1.bias": {"values": [1.0, 0.0, 0.0, 0.0, 0.0, 0.0, 0.0, 0.0, 0.0, 0.0, 0.0, 0.0, 0.0, 0.0, 0.0, 0.0, 0.0, 0.0, 0.0, 0.0, 0.0, 0.0, 0.0, 0.0, 0.0, 0.0, 0.0, 0.0, 1.0, 1.0, 1.0, 0.0, 0.0, 0.0, 1.0, 0.0, 1.0, 1.0, 0.0, 0.0, 0.0, 0.0, 0.0, 1.0, 0.0, 0.0, 0.0, 0.0, 0.0, 0.0, 0.0, 0.0, 0.0, 0.0, 0.0, 0.0, 0.0, 0.0, 0.0, 0.0, 1.0, 0.0, 0.0, 1.0], "bins": [-0.06596101820468903, -0.0640924945473671, -0.062223970890045166, -0.060355447232723236, -0.058486923575401306, -0.056618399918079376, -0.054749876260757446, -0.052881352603435516, -0.051012828946113586, -0.049144305288791656, -0.04727578163146973, -0.0454072579741478, -0.043538738042116165, -0.041670214384794235, -0.039801690727472305, -0.037933167070150375, -0.036064643412828445, -0.034196119755506516, -0.032327596098184586, -0.030459072440862656, -0.028590548783540726, -0.026722025126218796, -0.024853501468896866, -0.022984977811574936, -0.021116457879543304, -0.019247934222221375, -0.017379410564899445, -0.015510886907577515, -0.013642363250255585, -0.011773839592933655, -0.009905315935611725, -0.008036792278289795, -0.006168268620967865, -0.004299744963645935, -0.002431221306324005, -0.0005626976490020752, 0.0013058260083198547, 0.0031743496656417847, 0.005042873322963715, 0.0069113969802856445, 0.008779920637607574, 0.010648444294929504, 0.012516967952251434, 0.014385491609573364, 0.016254015266895294, 0.018122538924217224, 0.019991062581539154, 0.021859586238861084, 0.023728102445602417, 0.025596626102924347, 0.027465149760246277, 0.029333673417568207, 0.031202197074890137, 0.03307072073221207, 0.034939244389534, 0.036807768046855927, 0.038676291704177856, 0.040544815361499786, 0.042413339018821716, 0.044281862676143646, 0.046150386333465576, 0.048018909990787506, 0.049887433648109436, 0.051755957305431366, 0.053624480962753296], "_type": "histogram"}, "gradients/conv1.weight": {"values": [1.0, 2.0, 0.0, 0.0, 0.0, 0.0, 0.0, 1.0, 1.0, 1.0, 2.0, 2.0, 0.0, 0.0, 1.0, 0.0, 0.0, 4.0, 3.0, 6.0, 3.0, 4.0, 4.0, 1.0, 3.0, 2.0, 2.0, 3.0, 3.0, 8.0, 7.0, 10.0, 6.0, 8.0, 8.0, 8.0, 7.0, 12.0, 9.0, 8.0, 4.0, 17.0, 7.0, 6.0, 8.0, 7.0, 6.0, 5.0, 4.0, 6.0, 7.0, 3.0, 5.0, 3.0, 4.0, 6.0, 4.0, 2.0, 1.0, 1.0, 1.0, 2.0, 0.0, 1.0], "bins": [-0.14479437470436096, -0.1406831443309784, -0.13657189905643463, -0.13246066868305206, -0.1283494234085083, -0.12423819303512573, -0.12012696266174316, -0.11601572483778, -0.11190448701381683, -0.10779324918985367, -0.1036820113658905, -0.09957078099250793, -0.09545954316854477, -0.0913483053445816, -0.08723707497119904, -0.08312583714723587, -0.0790145993232727, -0.07490336149930954, -0.07079212367534637, -0.0666808933019638, -0.06256965547800064, -0.058458417654037476, -0.05434718728065491, -0.05023594945669174, -0.04612471163272858, -0.04201347380876541, -0.037902235984802246, -0.03379100561141968, -0.029679767787456512, -0.025568529963493347, -0.02145729959011078, -0.017346054315567017, -0.013234823942184448, -0.00912359356880188, -0.005012348294258118, -0.0009011179208755493, 0.003210127353668213, 0.007321357727050781, 0.01143258810043335, 0.015543833374977112, 0.01965506374835968, 0.02376629412174225, 0.02787753939628601, 0.03198876976966858, 0.03610000014305115, 0.04021124541759491, 0.04432247579097748, 0.04843372106552124, 0.05254495143890381, 0.05665618181228638, 0.06076742708683014, 0.06487865746021271, 0.06898990273475647, 0.07310113310813904, 0.0772123634815216, 0.08132360875606537, 0.08543483912944794, 0.0895460695028305, 0.09365731477737427, 0.09776854515075684, 0.1018797755241394, 0.10599100589752197, 0.11010226607322693, 0.1142134964466095, 0.11832472681999207], "_type": "histogram"}, "graph_0": {"nodes": [{"id": 139682428267488, "output_shape": [[64, 10, 24, 24]], "name": "conv1", "num_parameters": [250, 10], "class_name": "Conv2d(1, 10, kernel_size=(5, 5), stride=(1, 1))", "parameters": [["weight", [10, 1, 5, 5]], ["bias", [10]]]}, {"id": 139683561165264, "output_shape": [[64, 20, 8, 8]], "name": "conv2", "num_parameters": [5000, 20], "class_name": "Conv2d(10, 20, kernel_size=(5, 5), stride=(1, 1))", "parameters": [["weight", [20, 10, 5, 5]], ["bias", [20]]]}, {"id": 139682507093440, "output_shape": [[64, 20, 8, 8]], "name": "conv2_drop", "num_parameters": [], "class_name": "Dropout2d(p=0.5)", "parameters": []}, {"id": 139682503693760, "output_shape": [[64, 50]], "name": "fc1", "num_parameters": [16000, 50], "class_name": "Linear(in_features=320, out_features=50, bias=True)", "parameters": [["weight", [50, 320]], ["bias", [50]]]}, {"id": 139684146775320, "output_shape": [[64, 10]], "name": "fc2", "num_parameters": [500, 10], "class_name": "Linear(in_features=50, out_features=10, bias=True)", "parameters": [["weight", [10, 50]], ["bias", [10]]]}], "format": "torch", "edges": [], "_type": "graph"}}
