{"gradients/fc2.weight": {"values": [1.0, 0.0, 0.0, 1.0, 0.0, 0.0, 0.0, 0.0, 0.0, 0.0, 0.0, 0.0, 1.0, 0.0, 0.0, 1.0, 0.0, 0.0, 0.0, 0.0, 1.0, 2.0, 2.0, 2.0, 2.0, 3.0, 2.0, 4.0, 4.0, 12.0, 9.0, 360.0, 48.0, 10.0, 13.0, 5.0, 2.0, 3.0, 3.0, 2.0, 1.0, 1.0, 2.0, 0.0, 0.0, 0.0, 0.0, 0.0, 0.0, 0.0, 0.0, 1.0, 0.0, 0.0, 0.0, 0.0, 0.0, 0.0, 0.0, 1.0, 0.0, 0.0, 0.0, 1.0], "bins": [-0.23017928004264832, -0.22294026613235474, -0.21570125222206116, -0.20846222341060638, -0.2012232095003128, -0.19398419559001923, -0.18674516677856445, -0.17950615286827087, -0.1722671389579773, -0.16502812504768372, -0.15778911113739014, -0.15055008232593536, -0.14331106841564178, -0.1360720545053482, -0.12883302569389343, -0.12159401178359985, -0.11435499787330627, -0.1071159839630127, -0.09987697005271912, -0.09263794124126434, -0.08539892733097076, -0.07815991342067719, -0.07092088460922241, -0.06368187069892883, -0.056442856788635254, -0.049203842878341675, -0.041964828968048096, -0.03472580015659332, -0.027486786246299744, -0.020247772336006165, -0.013008743524551392, -0.0057697296142578125, 0.0014692842960357666, 0.008708298206329346, 0.015947312116622925, 0.023186326026916504, 0.030425339937210083, 0.03766438364982605, 0.04490339756011963, 0.05214241147041321, 0.05938142538070679, 0.06662043929100037, 0.07385945320129395, 0.08109846711158752, 0.08833751082420349, 0.09557652473449707, 0.10281553864479065, 0.11005455255508423, 0.11729356646537781, 0.12453258037567139, 0.13177159428596497, 0.13901060819625854, 0.14624962210655212, 0.1534886658191681, 0.16072767972946167, 0.16796669363975525, 0.17520570755004883, 0.1824447214603424, 0.189683735370636, 0.19692274928092957, 0.20416179299354553, 0.2114008069038391, 0.2186398208141327, 0.22587883472442627, 0.23311784863471985], "_type": "histogram"}, "Test Accuracy": 98.5, "gradients/conv1.bias": {"values": [1.0, 0.0, 0.0, 0.0, 0.0, 0.0, 0.0, 0.0, 0.0, 0.0, 0.0, 0.0, 0.0, 0.0, 0.0, 0.0, 0.0, 0.0, 0.0, 0.0, 0.0, 0.0, 0.0, 0.0, 0.0, 0.0, 0.0, 0.0, 1.0, 0.0, 0.0, 0.0, 0.0, 0.0, 0.0, 0.0, 0.0, 0.0, 0.0, 0.0, 0.0, 1.0, 0.0, 1.0, 0.0, 1.0, 1.0, 0.0, 0.0, 0.0, 0.0, 1.0, 0.0, 1.0, 1.0, 0.0, 0.0, 0.0, 0.0, 0.0, 0.0, 0.0, 0.0, 1.0], "bins": [-0.11821236461400986, -0.11477790027856827, -0.11134342849254608, -0.10790896415710449, -0.1044744923710823, -0.10104002803564072, -0.09760555624961853, -0.09417109191417694, -0.09073662757873535, -0.08730215579271317, -0.08386768400669098, -0.08043321967124939, -0.0769987553358078, -0.07356429100036621, -0.07012981921434402, -0.06669534742832184, -0.06326088309288025, -0.05982641503214836, -0.05639194697141647, -0.052957482635974884, -0.0495230108499527, -0.04608854651451111, -0.04265407472848892, -0.03921961039304733, -0.03578514605760574, -0.03235067427158356, -0.028916209936141968, -0.02548173815011978, -0.022047273814678192, -0.018612802028656006, -0.015178337693214417, -0.01174386590719223, -0.008309401571750641, -0.0048749372363090515, -0.0014404654502868652, 0.001993998885154724, 0.00542847067117691, 0.0088629350066185, 0.012297399342060089, 0.015731878578662872, 0.01916634291410446, 0.02260080724954605, 0.02603527158498764, 0.02946973592042923, 0.03290421515703201, 0.0363386794924736, 0.03977314382791519, 0.04320760816335678, 0.04664207249879837, 0.050076551735401154, 0.05351101607084274, 0.05694548040628433, 0.06037994474172592, 0.0638144239783287, 0.0672488883137703, 0.07068335264921188, 0.07411781698465347, 0.07755228132009506, 0.08098676055669785, 0.08442122489213943, 0.08785568922758102, 0.09129015356302261, 0.0947246327996254, 0.09815909713506699, 0.10159356147050858], "_type": "histogram"}, "Test Loss": 0.04980393409729004, "gradients/fc2.bias": {"values": [1.0, 0.0, 0.0, 0.0, 0.0, 0.0, 0.0, 0.0, 0.0, 0.0, 0.0, 0.0, 0.0, 0.0, 0.0, 0.0, 0.0, 0.0, 0.0, 1.0, 0.0, 0.0, 0.0, 0.0, 0.0, 0.0, 1.0, 0.0, 0.0, 1.0, 0.0, 0.0, 1.0, 0.0, 0.0, 0.0, 1.0, 0.0, 0.0, 0.0, 0.0, 1.0, 0.0, 0.0, 0.0, 0.0, 0.0, 1.0, 0.0, 0.0, 0.0, 0.0, 0.0, 0.0, 0.0, 1.0, 0.0, 0.0, 0.0, 0.0, 0.0, 0.0, 0.0, 1.0], "bins": [-0.018875818699598312, -0.018340665847063065, -0.017805512994527817, -0.017270362004637718, -0.01673520915210247, -0.016200056299567223, -0.015664903447031975, -0.015129751525819302, -0.014594599604606628, -0.01405944675207138, -0.013524293899536133, -0.01298914197832346, -0.012453989125788212, -0.011918837204575539, -0.01138368435204029, -0.010848532430827618, -0.01031337957829237, -0.009778226725757122, -0.009243074804544449, -0.008707921952009201, -0.008172770030796528, -0.00763761717826128, -0.007102465257048607, -0.006567312404513359, -0.006032159551978111, -0.005497007630765438, -0.00496185477823019, -0.004426702857017517, -0.0038915500044822693, -0.003356398083269596, -0.002821246162056923, -0.002286093309521675, -0.0017509404569864273, -0.0012157876044511795, -0.0006806347519159317, -0.00014548376202583313, 0.00038966909050941467, 0.0009248219430446625, 0.0014599747955799103, 0.001995125785470009, 0.0025302786380052567, 0.0030654314905405045, 0.0036005843430757523, 0.004135737195611, 0.004670888185501099, 0.0052060410380363464, 0.005741193890571594, 0.006276346743106842, 0.00681149959564209, 0.007346650585532188, 0.007881803438067436, 0.008416956290602684, 0.008952109143137932, 0.00948726013302803, 0.010022412985563278, 0.010557565838098526, 0.011092718690633774, 0.011627871543169022, 0.01216302253305912, 0.012698177248239517, 0.013233326375484467, 0.013768479228019714, 0.014303632080554962, 0.01483878493309021, 0.015373937785625458], "_type": "histogram"}, "gradients/conv2.weight": {"values": [1.0, 0.0, 0.0, 1.0, 0.0, 0.0, 0.0, 0.0, 2.0, 0.0, 1.0, 1.0, 2.0, 1.0, 3.0, 1.0, 3.0, 3.0, 1.0, 7.0, 3.0, 0.0, 4.0, 6.0, 7.0, 6.0, 6.0, 8.0, 8.0, 12.0, 22.0, 24.0, 18.0, 33.0, 44.0, 68.0, 133.0, 375.0, 3275.0, 487.0, 145.0, 69.0, 50.0, 33.0, 27.0, 24.0, 12.0, 11.0, 12.0, 6.0, 8.0, 6.0, 7.0, 3.0, 4.0, 4.0, 2.0, 1.0, 2.0, 2.0, 0.0, 2.0, 3.0, 1.0], "bins": [-0.1932123601436615, -0.18821744620800018, -0.18322251737117767, -0.17822760343551636, -0.17323267459869385, -0.16823776066303253, -0.16324284672737122, -0.1582479178905487, -0.1532530039548874, -0.14825809001922607, -0.14326316118240356, -0.13826824724674225, -0.13327333331108093, -0.12827840447425842, -0.1232834905385971, -0.1182885691523552, -0.11329364776611328, -0.10829872637987137, -0.10330380499362946, -0.09830889105796814, -0.09331396967172623, -0.08831904828548431, -0.083324134349823, -0.07832921296358109, -0.07333429157733917, -0.06833937019109726, -0.06334444880485535, -0.05834953486919403, -0.053354620933532715, -0.048359692096710205, -0.04336477816104889, -0.03836984932422638, -0.033374935388565063, -0.028380021452903748, -0.023385092616081238, -0.018390178680419922, -0.013395249843597412, -0.008400335907936096, -0.0034054219722747803, 0.0015895068645477295, 0.006584420800209045, 0.011579334735870361, 0.01657426357269287, 0.021569177508354187, 0.026564091444015503, 0.03155902028083801, 0.03655393421649933, 0.04154886305332184, 0.046543776988983154, 0.05153869092464447, 0.05653361976146698, 0.061528533697128296, 0.0665234625339508, 0.07151836156845093, 0.07651329040527344, 0.08150821924209595, 0.08650311827659607, 0.09149804711341858, 0.09649297595024109, 0.1014879047870636, 0.10648280382156372, 0.11147773265838623, 0.11647266149520874, 0.12146756052970886, 0.12646248936653137], "_type": "histogram"}, "Examples": {"format": "png", "_type": "images", "height": 28, "captions": ["Pred: 5 Truth: 5", "Pred: 1 Truth: 1", "Pred: 5 Truth: 9", "Pred: 6 Truth: 6", "Pred: 9 Truth: 9", "Pred: 0 Truth: 0", "Pred: 8 Truth: 8", "Pred: 9 Truth: 9", "Pred: 7 Truth: 7", "Pred: 4 Truth: 4"], "count": 10, "width": 28}, "_step": 9, "gradients/fc1.bias": {"values": [1.0, 0.0, 2.0, 0.0, 1.0, 0.0, 0.0, 1.0, 0.0, 0.0, 0.0, 1.0, 0.0, 0.0, 0.0, 0.0, 1.0, 4.0, 2.0, 2.0, 4.0, 0.0, 15.0, 4.0, 3.0, 1.0, 0.0, 1.0, 1.0, 1.0, 0.0, 0.0, 0.0, 0.0, 0.0, 1.0, 0.0, 0.0, 0.0, 0.0, 0.0, 1.0, 0.0, 1.0, 0.0, 1.0, 0.0, 0.0, 0.0, 0.0, 0.0, 0.0, 0.0, 0.0, 0.0, 0.0, 0.0, 0.0, 0.0, 0.0, 0.0, 0.0, 0.0, 1.0], "bins": [-0.016257185488939285, -0.01553436927497387, -0.014811553061008453, -0.014088736847043037, -0.013365920633077621, -0.012643104419112206, -0.01192028820514679, -0.011197471991181374, -0.010474655777215958, -0.009751839563250542, -0.009029023349285126, -0.008306208066642284, -0.0075833918526768684, -0.0068605756387114525, -0.0061377594247460365, -0.005414943210780621, -0.004692126996815205, -0.003969310782849789, -0.0032464945688843727, -0.0025236783549189568, -0.0018008621409535408, -0.0010780459269881248, -0.0003552306443452835, 0.00036758556962013245, 0.0010904017835855484, 0.0018132179975509644, 0.0025360342115163803, 0.0032588504254817963, 0.003981666639447212, 0.004704482853412628, 0.005427299067378044, 0.00615011528134346, 0.006872931495308876, 0.007595747709274292, 0.008318563923239708, 0.009041380137205124, 0.00976419635117054, 0.010487012565135956, 0.011209828779101372, 0.011932644993066788, 0.012655461207032204, 0.01337827742099762, 0.014101093634963036, 0.014823909848928452, 0.015546724200248718, 0.016269542276859283, 0.01699235662817955, 0.017715174704790115, 0.018437989056110382, 0.019160807132720947, 0.019883621484041214, 0.02060643956065178, 0.021329253911972046, 0.02205207198858261, 0.022774886339902878, 0.023497704416513443, 0.02422051876783371, 0.024943336844444275, 0.02566615119576454, 0.026388969272375107, 0.027111783623695374, 0.02783460170030594, 0.028557416051626205, 0.02928023412823677, 0.030003048479557037], "_type": "histogram"}, "graph_0": {"format": "torch", "_type": "graph", "edges": [], "nodes": [{"output_shape": [[64, 10, 24, 24]], "id": 139646413877488, "num_parameters": [250, 10], "class_name": "Conv2d(1, 10, kernel_size=(5, 5), stride=(1, 1))", "name": "conv1", "parameters": [["weight", [10, 1, 5, 5]], ["bias", [10]]]}, {"output_shape": [[64, 20, 8, 8]], "id": 139647546687952, "num_parameters": [5000, 20], "class_name": "Conv2d(10, 20, kernel_size=(5, 5), stride=(1, 1))", "name": "conv2", "parameters": [["weight", [20, 10, 5, 5]], ["bias", [20]]]}, {"output_shape": [[64, 20, 8, 8]], "id": 139646492681832, "num_parameters": [], "class_name": "Dropout2d(p=0.5)", "name": "conv2_drop", "parameters": []}, {"output_shape": [[64, 50]], "id": 139646426461464, "num_parameters": [16000, 50], "class_name": "Linear(in_features=320, out_features=50, bias=True)", "name": "fc1", "parameters": [["weight", [50, 320]], ["bias", [50]]]}, {"output_shape": [[64, 10]], "id": 139646488511264, "num_parameters": [500, 10], "class_name": "Linear(in_features=50, out_features=10, bias=True)", "name": "fc2", "parameters": [["weight", [10, 50]], ["bias", [10]]]}]}, "gradients/fc1.weight": {"values": [3.0, 1.0, 1.0, 2.0, 3.0, 6.0, 4.0, 6.0, 1.0, 4.0, 6.0, 3.0, 5.0, 4.0, 4.0, 3.0, 4.0, 10.0, 10.0, 15.0, 15.0, 21.0, 29.0, 25.0, 45.0, 72.0, 77.0, 210.0, 365.0, 14261.0, 342.0, 135.0, 70.0, 32.0, 32.0, 16.0, 18.0, 12.0, 19.0, 15.0, 13.0, 6.0, 9.0, 7.0, 5.0, 1.0, 1.0, 1.0, 7.0, 2.0, 6.0, 2.0, 6.0, 5.0, 3.0, 1.0, 3.0, 3.0, 6.0, 3.0, 2.0, 0.0, 1.0, 1.0], "bins": [-0.1013597920536995, -0.09793724119663239, -0.09451469033956528, -0.09109213948249817, -0.08766958862543106, -0.08424703776836395, -0.08082448691129684, -0.07740193605422974, -0.07397938519716263, -0.07055683434009552, -0.06713427603244781, -0.0637117326259613, -0.0602891780436039, -0.05686662718653679, -0.05344407632946968, -0.05002152547240257, -0.046598974615335464, -0.043176423758268356, -0.03975387290120125, -0.03633131831884384, -0.03290876746177673, -0.029486216604709625, -0.026063665747642517, -0.02264111489057541, -0.0192185640335083, -0.015796013176441193, -0.012373462319374084, -0.008950911462306976, -0.005528360605239868, -0.00210580974817276, 0.0013167411088943481, 0.004739291965961456, 0.008161842823028564, 0.011584393680095673, 0.01500694453716278, 0.01842949539422989, 0.021852046251296997, 0.025274597108364105, 0.02869715541601181, 0.03211969882249832, 0.03554225713014603, 0.03896480053663254, 0.04238735884428024, 0.045809902250766754, 0.04923246055841446, 0.05265500396490097, 0.056077562272548676, 0.05950010567903519, 0.06292266398668289, 0.0663452073931694, 0.06976776570081711, 0.07319030910730362, 0.07661286741495132, 0.08003541082143784, 0.08345796912908554, 0.08688051253557205, 0.09030307084321976, 0.09372561424970627, 0.09714817255735397, 0.10057071596384048, 0.10399327427148819, 0.1074158176779747, 0.1108383759856224, 0.11426091939210892, 0.11768347769975662], "_type": "histogram"}, "_timestamp": 1578885221.2589598, "gradients/conv2.bias": {"values": [1.0, 0.0, 0.0, 0.0, 0.0, 0.0, 0.0, 0.0, 0.0, 0.0, 0.0, 0.0, 0.0, 0.0, 0.0, 0.0, 0.0, 0.0, 1.0, 0.0, 0.0, 0.0, 0.0, 0.0, 0.0, 0.0, 0.0, 0.0, 0.0, 0.0, 0.0, 0.0, 0.0, 0.0, 0.0, 0.0, 0.0, 0.0, 0.0, 0.0, 0.0, 2.0, 0.0, 2.0, 1.0, 2.0, 0.0, 1.0, 4.0, 0.0, 0.0, 1.0, 0.0, 0.0, 0.0, 0.0, 0.0, 0.0, 2.0, 0.0, 0.0, 0.0, 2.0, 1.0], "bins": [-0.05662793293595314, -0.05544791743159294, -0.05426790192723274, -0.05308788642287254, -0.051907870918512344, -0.050727859139442444, -0.049547843635082245, -0.048367828130722046, -0.04718781262636185, -0.04600779712200165, -0.04482778161764145, -0.04364776611328125, -0.04246775060892105, -0.04128773510456085, -0.04010771960020065, -0.038927704095840454, -0.037747688591480255, -0.036567673087120056, -0.03538765758275986, -0.03420764580368996, -0.03302763029932976, -0.03184761479496956, -0.03066759929060936, -0.02948758378624916, -0.028307568281888962, -0.027127554640173912, -0.025947539135813713, -0.024767525494098663, -0.023587509989738464, -0.022407494485378265, -0.021227478981018066, -0.020047463476657867, -0.01886744797229767, -0.01768743246793747, -0.01650741696357727, -0.015327401459217072, -0.014147385954856873, -0.012967370450496674, -0.011787358671426773, -0.010607343167066574, -0.009427327662706375, -0.008247312158346176, -0.007067296653985977, -0.005887281149625778, -0.004707265645265579, -0.0035272501409053802, -0.0023472346365451813, -0.0011672191321849823, 1.2796372175216675e-05, 0.0011928081512451172, 0.002372823655605316, 0.003552839159965515, 0.004732854664325714, 0.0059128738939762115, 0.007092881947755814, 0.008272897452116013, 0.009452912956476212, 0.01063292846083641, 0.01181294396519661, 0.012992959469556808, 0.014172974973917007, 0.015352990478277206, 0.016533005982637405, 0.017713021486997604, 0.018893036991357803], "_type": "histogram"}, "_runtime": 63.92158842086792, "gradients/conv1.weight": {"values": [1.0, 1.0, 1.0, 1.0, 0.0, 1.0, 0.0, 1.0, 2.0, 0.0, 1.0, 2.0, 1.0, 1.0, 1.0, 1.0, 4.0, 1.0, 5.0, 4.0, 4.0, 6.0, 7.0, 17.0, 20.0, 24.0, 23.0, 9.0, 9.0, 9.0, 5.0, 6.0, 10.0, 6.0, 8.0, 8.0, 8.0, 3.0, 7.0, 7.0, 8.0, 4.0, 2.0, 1.0, 0.0, 3.0, 0.0, 0.0, 0.0, 2.0, 0.0, 0.0, 0.0, 0.0, 0.0, 1.0, 0.0, 0.0, 0.0, 0.0, 1.0, 1.0, 0.0, 2.0], "bins": [-0.1899733692407608, -0.1832336038351059, -0.17649385333061218, -0.16975408792495728, -0.16301433742046356, -0.15627457201480865, -0.14953482151031494, -0.14279505610466003, -0.13605530560016632, -0.1293155401945114, -0.1225757822394371, -0.11583602428436279, -0.10909626632928848, -0.10235650837421417, -0.09561675041913986, -0.08887699246406555, -0.08213723450899124, -0.07539747655391693, -0.06865771859884262, -0.06191796064376831, -0.0551781952381134, -0.04843844473361969, -0.04169867932796478, -0.03495892882347107, -0.028219163417816162, -0.02147941291332245, -0.014739647507667542, -0.007999897003173828, -0.001260131597518921, 0.0054796189069747925, 0.0122193843126297, 0.018959134817123413, 0.02569890022277832, 0.03243866562843323, 0.03917841613292694, 0.04591818153858185, 0.05265793204307556, 0.05939769744873047, 0.06613744795322418, 0.07287721335887909, 0.079616978764534, 0.08635671436786652, 0.09309647977352142, 0.09983624517917633, 0.10657601058483124, 0.11331574618816376, 0.12005551159381866, 0.12679527699947357, 0.13353504240512848, 0.1402748078107834, 0.1470145434141159, 0.1537543088197708, 0.16049407422542572, 0.16723383963108063, 0.17397357523441315, 0.18071334064006805, 0.18745310604572296, 0.19419287145137787, 0.2009326070547104, 0.2076723724603653, 0.2144121378660202, 0.2211519032716751, 0.22789163887500763, 0.23463140428066254, 0.24137116968631744], "_type": "histogram"}}
