{"gradients/decoder.bias": {"values": [1.0, 0.0, 1.0, 0.0, 0.0, 0.0, 0.0, 0.0, 0.0, 1.0, 0.0, 0.0, 0.0, 1.0, 0.0, 0.0, 0.0, 0.0, 0.0, 1.0, 1.0, 0.0, 0.0, 0.0, 0.0, 0.0, 6.0, 4.0, 7.0, 4.0, 3.0, 5.0, 148.0, 64.0, 41.0, 17.0, 20.0, 11.0, 31611.0, 1090.0, 139.0, 57.0, 20.0, 9.0, 4.0, 2.0, 1.0, 1.0, 1.0, 2.0, 0.0, 1.0, 0.0, 1.0, 0.0, 0.0, 0.0, 2.0, 0.0, 0.0, 0.0, 0.0, 0.0, 1.0], "_type": "histogram", "bins": [-0.008694317191839218, -0.008469760417938232, -0.008245203644037247, -0.008020646870136261, -0.007796090096235275, -0.0075715333223342896, -0.007346976548433304, -0.007122419308871031, -0.006897862534970045, -0.006673305761069059, -0.006448748987168074, -0.006224192213267088, -0.005999635439366102, -0.0057750786654651165, -0.0055505214259028435, -0.005325964652001858, -0.005101407878100872, -0.004876851104199886, -0.004652294330298901, -0.004427737556397915, -0.004203180782496929, -0.0039786240085959435, -0.0037540672346949577, -0.003529510460793972, -0.0033049536868929863, -0.0030803969129920006, -0.002855840139091015, -0.002631282899528742, -0.002406726125627756, -0.0021821693517267704, -0.0019576125778257847, -0.001733055803924799, -0.0015084990300238132, -0.0012839422561228275, -0.0010593854822218418, -0.0008348282426595688, -0.0006102714687585831, -0.00038571469485759735, -0.00016115792095661163, 6.339885294437408e-05, 0.0002879556268453598, 0.0005125124007463455, 0.0007370691746473312, 0.000961625948548317, 0.0011861827224493027, 0.0014107394963502884, 0.0016352962702512741, 0.0018598530441522598, 0.0020844098180532455, 0.0023089665919542313, 0.002533523365855217, 0.0027580801397562027, 0.0029826369136571884, 0.003207193687558174, 0.0034317513927817345, 0.00365630816668272, 0.003880864940583706, 0.004105421714484692, 0.004329978488385677, 0.004554535262286663, 0.004779092036187649, 0.0050036488100886345, 0.00522820558398962, 0.005452762357890606, 0.005677319131791592]}, "_runtime": 3077.531804561615, "gradients/rnn.bias_ih_l1": {"values": [1.0, 0.0, 0.0, 0.0, 0.0, 0.0, 0.0, 0.0, 0.0, 2.0, 1.0, 0.0, 0.0, 0.0, 0.0, 1.0, 1.0, 0.0, 0.0, 0.0, 0.0, 1.0, 4.0, 2.0, 4.0, 3.0, 3.0, 2.0, 4.0, 9.0, 4.0, 9.0, 18.0, 10.0, 24.0, 36.0, 53.0, 86.0, 78.0, 55.0, 49.0, 42.0, 17.0, 19.0, 12.0, 10.0, 8.0, 6.0, 4.0, 6.0, 2.0, 1.0, 4.0, 0.0, 1.0, 0.0, 1.0, 1.0, 2.0, 1.0, 2.0, 0.0, 0.0, 1.0], "_type": "histogram", "bins": [-0.010987343266606331, -0.010702230036258698, -0.010417116805911064, -0.010132004506886005, -0.009846891276538372, -0.009561778046190739, -0.00927666574716568, -0.008991552516818047, -0.008706439286470413, -0.00842132605612278, -0.008136212825775146, -0.007851100526750088, -0.007565987296402454, -0.007280874066054821, -0.006995761301368475, -0.006710648536682129, -0.0064255353063344955, -0.006140422075986862, -0.005855309311300516, -0.00557019654661417, -0.005285083316266537, -0.004999970085918903, -0.004714857321232557, -0.004429744556546211, -0.004144631326198578, -0.0038595180958509445, -0.0035744053311645985, -0.0032892925664782524, -0.003004179336130619, -0.0027190661057829857, -0.002433953806757927, -0.0021488405764102936, -0.0018637273460626602, -0.0015786141157150269, -0.0012935008853673935, -0.0010083885863423347, -0.0007232753559947014, -0.000438162125647068, -0.00015304982662200928, 0.00013206340372562408, 0.00041717663407325745, 0.0007022898644208908, 0.0009874030947685242, 0.001272515393793583, 0.0015576286241412163, 0.0018427418544888496, 0.0021278541535139084, 0.0024129673838615417, 0.002698080614209175, 0.0029831938445568085, 0.003268307074904442, 0.0035534193739295006, 0.003838532604277134, 0.004123645834624767, 0.004408758133649826, 0.004693871363997459, 0.004978984594345093, 0.005264097824692726, 0.0055492110550403595, 0.005834324285387993, 0.006119435653090477, 0.00640454888343811, 0.006689662113785744, 0.006974775344133377, 0.0072598885744810104]}, "_step": 20, "gradients/rnn.weight_ih_l1": {"values": [1.0, 0.0, 0.0, 0.0, 0.0, 0.0, 0.0, 0.0, 0.0, 1.0, 1.0, 0.0, 1.0, 0.0, 5.0, 1.0, 5.0, 8.0, 11.0, 22.0, 27.0, 28.0, 58.0, 100.0, 158.0, 273.0, 308.0, 500.0, 744.0, 1153.0, 1612.0, 2649.0, 4537.0, 9444.0, 21349.0, 37394.0, 19467.0, 8634.0, 4237.0, 2503.0, 1618.0, 1079.0, 665.0, 487.0, 314.0, 215.0, 124.0, 88.0, 63.0, 34.0, 27.0, 12.0, 7.0, 8.0, 10.0, 7.0, 2.0, 5.0, 0.0, 2.0, 1.0, 0.0, 0.0, 1.0], "_type": "histogram", "bins": [-0.009921159595251083, -0.009641204960644245, -0.009361250326037407, -0.009081295691430569, -0.00880134105682373, -0.008521386422216892, -0.008241431787610054, -0.007961477153003216, -0.0076815225183963776, -0.007401567883789539, -0.007121613249182701, -0.006841658614575863, -0.006561703979969025, -0.006281749345362186, -0.006001794710755348, -0.00572184007614851, -0.005441885441541672, -0.0051619308069348335, -0.004881976172327995, -0.004602021537721157, -0.004322066903114319, -0.004042112268507481, -0.0037621576339006424, -0.003482202999293804, -0.003202248364686966, -0.0029222937300801277, -0.0026423390954732895, -0.0023623844608664513, -0.002082429826259613, -0.0018024751916527748, -0.0015225205570459366, -0.0012425659224390984, -0.0009626112878322601, -0.0006826566532254219, -0.0004027020186185837, -0.00012274738401174545, 0.00015720725059509277, 0.000437161885201931, 0.0007171165198087692, 0.0009970711544156075, 0.0012770257890224457, 0.001556980423629284, 0.0018369350582361221, 0.0021168896928429604, 0.0023968443274497986, 0.002676798962056637, 0.002956753596663475, 0.0032367082312703133, 0.0035166628658771515, 0.0037966175004839897, 0.004076572135090828, 0.004356526769697666, 0.004636481404304504, 0.004916436038911343, 0.005196390673518181, 0.005476345308125019, 0.005756299942731857, 0.00603625550866127, 0.006316209211945534, 0.006596162915229797, 0.00687611848115921, 0.007156074047088623, 0.007436027750372887, 0.00771598145365715, 0.007995937019586563]}, "graph_0": {"edges": [], "format": "torch", "_type": "graph", "nodes": [{"id": 140352054725264, "name": "encoder", "num_parameters": [6655600], "output_shape": [[35, 20, 200]], "class_name": "Embedding(33278, 200)", "parameters": [["weight", [33278, 200]]]}, {"id": 140352427233520, "name": "drop", "num_parameters": [], "output_shape": [[35, 20, 200]], "class_name": "Dropout(p=0.2, inplace=False)", "parameters": []}, {"id": 140350714960584, "name": "rnn", "num_parameters": [120000, 120000, 600, 600, 120000, 120000, 600, 600], "output_shape": [[35, 20, 200], [2, 20, 200]], "class_name": "GRU(200, 200, num_layers=2, dropout=0.2)", "parameters": [["weight_ih_l0", [600, 200]], ["weight_hh_l0", [600, 200]], ["bias_ih_l0", [600]], ["bias_hh_l0", [600]], ["weight_ih_l1", [600, 200]], ["weight_hh_l1", [600, 200]], ["bias_ih_l1", [600]], ["bias_hh_l1", [600]]]}, {"id": 140350714958288, "name": "decoder", "num_parameters": [6655600, 33278], "output_shape": [[35, 20, 33278]], "class_name": "Linear(in_features=200, out_features=33278, bias=True)", "parameters": [["weight", [33278, 200]], ["bias", [33278]]]}]}, "gradients/rnn.bias_ih_l0": {"values": [1.0, 1.0, 1.0, 0.0, 0.0, 0.0, 0.0, 0.0, 0.0, 0.0, 0.0, 2.0, 3.0, 2.0, 2.0, 2.0, 2.0, 3.0, 4.0, 3.0, 1.0, 3.0, 4.0, 6.0, 3.0, 4.0, 5.0, 4.0, 8.0, 7.0, 18.0, 38.0, 64.0, 89.0, 131.0, 76.0, 27.0, 12.0, 9.0, 9.0, 6.0, 4.0, 6.0, 4.0, 2.0, 4.0, 0.0, 3.0, 7.0, 3.0, 4.0, 1.0, 2.0, 1.0, 1.0, 2.0, 0.0, 1.0, 2.0, 0.0, 0.0, 0.0, 0.0, 3.0], "_type": "histogram", "bins": [-0.022926874458789825, -0.02225503697991371, -0.021583201363682747, -0.020911363884806633, -0.02023952640593052, -0.019567690789699554, -0.01889585331082344, -0.018224015831947327, -0.017552180215716362, -0.016880342736840248, -0.016208507120609283, -0.01553666964173317, -0.014864832162857056, -0.014192995615303516, -0.013521159067749977, -0.012849321588873863, -0.012177485041320324, -0.011505648493766785, -0.01083381101489067, -0.010161974467337132, -0.009490137919783592, -0.008818300440907478, -0.008146463893353939, -0.0074746273458004, -0.006802789866924286, -0.006130954250693321, -0.005459116771817207, -0.0047872792929410934, -0.004115443676710129, -0.003443606197834015, -0.002771768718957901, -0.0020999331027269363, -0.0014280956238508224, -0.0007562581449747086, -8.44225287437439e-05, 0.00058741495013237, 0.0012592524290084839, 0.0019310880452394485, 0.0026029255241155624, 0.0032747630029916763, 0.003946598619222641, 0.004618436098098755, 0.005290273576974869, 0.0059621091932058334, 0.006633946672081947, 0.007305784150958061, 0.007977619767189026, 0.00864945724606514, 0.009321294724941254, 0.009993132203817368, 0.010664965957403183, 0.011336803436279297, 0.01200864091515541, 0.012680478394031525, 0.013352315872907639, 0.014024153351783752, 0.014695987105369568, 0.015367824584245682, 0.016039662063121796, 0.01671149954199791, 0.017383337020874023, 0.018055174499750137, 0.018727008253335953, 0.019398845732212067, 0.02007068321108818]}, "gradients/rnn.bias_hh_l0": {"values": [1.0, 0.0, 0.0, 0.0, 0.0, 0.0, 0.0, 0.0, 0.0, 1.0, 0.0, 0.0, 1.0, 0.0, 0.0, 0.0, 2.0, 1.0, 3.0, 2.0, 1.0, 3.0, 6.0, 6.0, 9.0, 12.0, 21.0, 19.0, 16.0, 31.0, 33.0, 40.0, 38.0, 29.0, 52.0, 47.0, 47.0, 37.0, 34.0, 21.0, 12.0, 20.0, 10.0, 11.0, 9.0, 3.0, 6.0, 3.0, 4.0, 2.0, 2.0, 0.0, 0.0, 1.0, 0.0, 0.0, 1.0, 0.0, 1.0, 0.0, 0.0, 1.0, 0.0, 1.0], "_type": "histogram", "bins": [-0.007058096118271351, -0.006853125989437103, -0.006648155394941568, -0.006443185266107321, -0.006238215137273073, -0.006033244542777538, -0.005828274413943291, -0.005623304285109043, -0.0054183341562747955, -0.005213363561779261, -0.005008393432945013, -0.004803422838449478, -0.0045984527096152306, -0.004393482580780983, -0.004188512451946735, -0.003983542323112488, -0.003778571728616953, -0.0035736013669520617, -0.003368631238117814, -0.003163660876452923, -0.0029586907476186752, -0.0027537201531231403, -0.0025487500242888927, -0.002343779895454645, -0.0021388093009591103, -0.0019338391721248627, -0.001728869043290615, -0.0015238989144563675, -0.0013189283199608326, -0.001113958191126585, -0.0009089880622923374, -0.0007040174677968025, -0.0004990473389625549, -0.00029407721012830734, -8.910661563277245e-05, 0.00011586351320147514, 0.00032083364203572273, 0.0005258042365312576, 0.0007307743653655052, 0.0009357444941997528, 0.0011407146230340004, 0.001345684751868248, 0.0015506558120250702, 0.0017556259408593178, 0.0019605960696935654, 0.002165566198527813, 0.0023705363273620605, 0.002575506456196308, 0.0027804775163531303, 0.002985447645187378, 0.0031904177740216255, 0.003395387902855873, 0.0036003580316901207, 0.0038053281605243683, 0.004010298289358616, 0.004215269349515438, 0.004420239478349686, 0.004625209607183933, 0.004830179736018181, 0.0050351498648524284, 0.005240119993686676, 0.005445091053843498, 0.005650061182677746, 0.005855031311511993, 0.006060001440346241]}, "train loss": 3.704169611381546, "gradients/rnn.weight_hh_l1": {"values": [1.0, 0.0, 0.0, 0.0, 0.0, 0.0, 0.0, 0.0, 3.0, 0.0, 2.0, 1.0, 3.0, 4.0, 10.0, 10.0, 13.0, 17.0, 35.0, 33.0, 76.0, 107.0, 136.0, 208.0, 338.0, 447.0, 711.0, 1030.0, 1530.0, 2347.0, 3504.0, 4921.0, 6804.0, 9598.0, 12557.0, 17423.0, 16078.0, 11931.0, 9189.0, 6443.0, 4656.0, 3281.0, 2165.0, 1415.0, 974.0, 642.0, 441.0, 283.0, 211.0, 124.0, 97.0, 65.0, 49.0, 30.0, 24.0, 6.0, 6.0, 7.0, 3.0, 2.0, 3.0, 1.0, 2.0, 3.0], "_type": "histogram", "bins": [-0.005191310774534941, -0.0050467317923903465, -0.004902152810245752, -0.004757573362439871, -0.004612994380295277, -0.0044684153981506824, -0.004323836416006088, -0.004179257433861494, -0.0040346784517169, -0.0038900990039110184, -0.003745520021766424, -0.00360094103962183, -0.003456362057477236, -0.003311782842501998, -0.0031672038603574038, -0.003022624645382166, -0.0028780456632375717, -0.0027334666810929775, -0.0025888874661177397, -0.0024443084839731455, -0.0022997292689979076, -0.0021551502868533134, -0.0020105713047087193, -0.0018659920897334814, -0.0017214131075888872, -0.001576834125444293, -0.0014322549104690552, -0.001287675928324461, -0.0011430969461798668, -0.0009985179640352726, -0.0008539385162293911, -0.0007093595340847969, -0.0005647805519402027, -0.0004202015697956085, -0.00027562258765101433, -0.00013104313984513283, 1.3535842299461365e-05, 0.00015811482444405556, 0.00030269380658864975, 0.00044727278873324394, 0.0005918522365391254, 0.0007364312186837196, 0.0008810102008283138, 0.001025589182972908, 0.0011701681651175022, 0.0013147471472620964, 0.001459326595067978, 0.001603905577212572, 0.0017484845593571663, 0.0018930635415017605, 0.0020376425236463547, 0.002182221971452236, 0.0023268009535968304, 0.0024713799357414246, 0.0026159589178860188, 0.0027605383656919003, 0.002905116882175207, 0.0030496963299810886, 0.0031942748464643955, 0.003338854294270277, 0.0034834337420761585, 0.0036280122585594654, 0.003772591706365347, 0.003917170222848654, 0.004061749670654535]}, "test loss": 4.968233307469671, "gradients/rnn.bias_hh_l1": {"values": [1.0, 0.0, 0.0, 0.0, 0.0, 0.0, 0.0, 0.0, 0.0, 0.0, 0.0, 0.0, 0.0, 2.0, 0.0, 0.0, 2.0, 2.0, 2.0, 1.0, 0.0, 3.0, 5.0, 2.0, 2.0, 4.0, 2.0, 4.0, 4.0, 10.0, 11.0, 12.0, 14.0, 23.0, 27.0, 16.0, 23.0, 41.0, 40.0, 35.0, 41.0, 28.0, 37.0, 30.0, 21.0, 19.0, 21.0, 20.0, 14.0, 14.0, 12.0, 6.0, 9.0, 5.0, 8.0, 7.0, 3.0, 5.0, 5.0, 2.0, 2.0, 1.0, 1.0, 1.0], "_type": "histogram", "bins": [-0.004107173997908831, -0.004006383940577507, -0.0039055936504155397, -0.0038048033602535725, -0.003704013070091605, -0.003603222779929638, -0.0035024327225983143, -0.003401642432436347, -0.0033008521422743797, -0.003200062084943056, -0.003099271794781089, -0.0029984815046191216, -0.002897691447287798, -0.002796900924295187, -0.0026961108669638634, -0.002595320576801896, -0.002494530286639929, -0.002393740229308605, -0.002292949939146638, -0.0021921596489846706, -0.002091369591653347, -0.0019905793014913797, -0.0018897890113294125, -0.0017889987211674452, -0.0016882086638361216, -0.0015874183736741543, -0.001486628083512187, -0.0013858380261808634, -0.001285047736018896, -0.0011842574458569288, -0.0010834671556949615, -0.000982677098363638, -0.0008818868082016706, -0.0007810965180397034, -0.0006803064607083797, -0.0005795161705464125, -0.0004787258803844452, -0.0003779355902224779, -0.0002771455328911543, -0.000176355242729187, -7.556518539786339e-05, 2.5225337594747543e-05, 0.00012601539492607117, 0.0002268054522573948, 0.0003275959752500057, 0.00042838603258132935, 0.0005291765555739403, 0.0006299666129052639, 0.0007307566702365875, 0.0008315471932291985, 0.0009323372505605221, 0.0010331273078918457, 0.0011339178308844566, 0.0012347078882157803, 0.0013354979455471039, 0.0014362884685397148, 0.0015370785258710384, 0.001637868583202362, 0.001738659106194973, 0.0018394491635262966, 0.0019402396865189075, 0.002041029743850231, 0.002141819801181555, 0.0022426103241741657, 0.0023434003815054893]}, "_timestamp": 1579822182.6801035, "gradients/encoder.weight": {"values": [2.0, 0.0, 1.0, 0.0, 0.0, 0.0, 2.0, 0.0, 0.0, 0.0, 0.0, 1.0, 2.0, 4.0, 3.0, 3.0, 5.0, 12.0, 10.0, 18.0, 29.0, 38.0, 74.0, 114.0, 277.0, 593.0, 1430.0, 3217.0, 7220.0, 14251.0, 6610016.0, 10082.0, 4580.0, 2007.0, 841.0, 345.0, 184.0, 79.0, 53.0, 20.0, 25.0, 16.0, 13.0, 5.0, 9.0, 7.0, 3.0, 2.0, 2.0, 0.0, 0.0, 1.0, 0.0, 1.0, 2.0, 0.0, 0.0, 0.0, 0.0, 0.0, 0.0, 0.0, 0.0, 1.0], "_type": "histogram", "bins": [-0.016476552933454514, -0.015931328758597374, -0.015386102721095085, -0.014840878546237946, -0.014295653440058231, -0.013750428333878517, -0.013205203227698803, -0.012659978121519089, -0.01211475394666195, -0.01156952790915966, -0.01102430373430252, -0.010479078628122807, -0.009933853521943092, -0.009388629347085953, -0.008843403309583664, -0.008298179134726524, -0.00775295402854681, -0.007207728922367096, -0.006662503816187382, -0.006117279641330242, -0.005572054535150528, -0.005026829428970814, -0.0044816043227910995, -0.003936379216611385, -0.003391154110431671, -0.0028459299355745316, -0.0023007048293948174, -0.0017554797232151031, -0.001210254617035389, -0.0006650295108556747, -0.00011980533599853516, 0.00042542070150375366, 0.0009706448763608932, 0.0015158690512180328, 0.0020610950887203217, 0.0026063192635774612, 0.00315154530107975, 0.0036967694759368896, 0.004241993650794029, 0.004787219688296318, 0.005332443863153458, 0.0058776699006557465, 0.006422894075512886, 0.006968118250370026, 0.0075133442878723145, 0.008058568462729454, 0.008603794500231743, 0.009149018675088882, 0.009694244712591171, 0.01023946888744831, 0.01078469306230545, 0.01132991909980774, 0.011875143274664879, 0.012420369312167168, 0.012965593487024307, 0.013510817661881447, 0.014056043699383736, 0.014601267874240875, 0.015146493911743164, 0.015691716223955154, 0.016236942261457443, 0.016782168298959732, 0.01732739433646202, 0.01787261664867401, 0.0184178426861763]}, "gradients/rnn.weight_hh_l0": {"values": [2.0, 0.0, 1.0, 0.0, 2.0, 1.0, 4.0, 10.0, 14.0, 23.0, 28.0, 42.0, 64.0, 98.0, 130.0, 221.0, 295.0, 528.0, 807.0, 1153.0, 1833.0, 2744.0, 4363.0, 6490.0, 9151.0, 12358.0, 14711.0, 15463.0, 13946.0, 11017.0, 8102.0, 5579.0, 3802.0, 2448.0, 1602.0, 1072.0, 656.0, 450.0, 263.0, 175.0, 116.0, 74.0, 57.0, 36.0, 28.0, 8.0, 15.0, 5.0, 2.0, 4.0, 1.0, 1.0, 2.0, 1.0, 0.0, 0.0, 0.0, 0.0, 0.0, 1.0, 0.0, 0.0, 0.0, 1.0], "_type": "histogram", "bins": [-0.003794004675000906, -0.003655052278190851, -0.00351610011421144, -0.0033771477174013853, -0.003238195553421974, -0.0030992431566119194, -0.0029602907598018646, -0.00282133836299181, -0.0026823861990123987, -0.0025434340350329876, -0.002404481638222933, -0.002265529241412878, -0.0021265768446028233, -0.001987624680623412, -0.0018486722838133574, -0.0017097201198339462, -0.0015707677230238914, -0.0014318153262138367, -0.0012928631622344255, -0.0011539107654243708, -0.0010149586014449596, -0.0008760062046349049, -0.0007370538078248501, -0.000598101643845439, -0.0004591492470353842, -0.0003201968502253294, -0.00018124468624591827, -4.2292289435863495e-05, 9.666010737419128e-05, 0.00023561250418424606, 0.00037456443533301353, 0.0005135168321430683, 0.0006524692289531231, 0.0007914216257631779, 0.0009303740225732327, 0.0010693259537220001, 0.001208278350532055, 0.0013472307473421097, 0.0014861831441521645, 0.0016251355409622192, 0.0017640874721109867, 0.0019030398689210415, 0.0020419922657310963, 0.002180944662541151, 0.002319897059351206, 0.0024588494561612606, 0.002597801387310028, 0.002736753784120083, 0.0028757061809301376, 0.0030146585777401924, 0.003153610974550247, 0.0032925629056990147, 0.0034315153025090694, 0.0035704676993191242, 0.003709420096129179, 0.0038483724929392338, 0.0039873248897492886, 0.004126277286559343, 0.004265229683369398, 0.004404181148856878, 0.004543133545666933, 0.004682085942476988, 0.004821038339287043, 0.004959990736097097, 0.005098943132907152]}, "gradients/decoder.weight": {"values": [1.0, 0.0, 0.0, 0.0, 2.0, 0.0, 0.0, 1.0, 0.0, 1.0, 1.0, 5.0, 6.0, 4.0, 6.0, 9.0, 5.0, 10.0, 8.0, 16.0, 27.0, 27.0, 39.0, 67.0, 95.0, 140.0, 382.0, 579.0, 889.0, 9602.0, 8692.0, 21163.0, 6584341.0, 11188.0, 9525.0, 6781.0, 784.0, 506.0, 268.0, 130.0, 85.0, 50.0, 37.0, 15.0, 28.0, 26.0, 11.0, 13.0, 6.0, 9.0, 5.0, 3.0, 1.0, 3.0, 2.0, 2.0, 1.0, 0.0, 1.0, 1.0, 0.0, 0.0, 0.0, 1.0], "_type": "histogram", "bins": [-0.018210479989647865, -0.017646895721554756, -0.017083313316106796, -0.016519729048013687, -0.015956146642565727, -0.015392563305795193, -0.014828979969024658, -0.014265395700931549, -0.01370181329548359, -0.01313822902739048, -0.01257464662194252, -0.012011062353849411, -0.011447479017078876, -0.010883895680308342, -0.010320312343537807, -0.009756729006767273, -0.009193145669996738, -0.008629562333226204, -0.00806597899645567, -0.007502395659685135, -0.0069388123229146, -0.006375228986144066, -0.005811645649373531, -0.005248062312602997, -0.004684478044509888, -0.004120894707739353, -0.0035573113709688187, -0.002993728034198284, -0.0024301446974277496, -0.0018665622919797897, -0.0013029780238866806, -0.0007393956184387207, -0.00017581135034561157, 0.00038777291774749756, 0.0009513553231954575, 0.0015149395912885666, 0.0020785219967365265, 0.0026421062648296356, 0.0032056886702775955, 0.0037692729383707047, 0.0043328553438186646, 0.004896439611911774, 0.005460022017359734, 0.006023606285452843, 0.006587188690900803, 0.007150772958993912, 0.007714355364441872, 0.00827793963253498, 0.00884152390062809, 0.00940510630607605, 0.009968690574169159, 0.010532272979617119, 0.011095857247710228, 0.011659439653158188, 0.012223023921251297, 0.012786606326699257, 0.013350190594792366, 0.013913774862885475, 0.014477355405688286, 0.015040939673781395, 0.015604523941874504, 0.016168108209967613, 0.016731688752770424, 0.017295273020863533, 0.017858857288956642]}, "valid loss": 5.028862374355724, "gradients/rnn.weight_ih_l0": {"values": [1.0, 1.0, 1.0, 1.0, 3.0, 7.0, 10.0, 2.0, 1.0, 3.0, 19.0, 24.0, 37.0, 34.0, 39.0, 65.0, 83.0, 102.0, 180.0, 195.0, 301.0, 330.0, 449.0, 537.0, 699.0, 882.0, 1135.0, 1251.0, 1596.0, 1956.0, 2478.0, 4001.0, 8841.0, 22770.0, 32793.0, 17478.0, 6925.0, 3359.0, 2198.0, 1792.0, 1526.0, 1174.0, 998.0, 841.0, 662.0, 525.0, 403.0, 318.0, 247.0, 183.0, 147.0, 121.0, 75.0, 51.0, 50.0, 29.0, 25.0, 12.0, 11.0, 9.0, 5.0, 2.0, 6.0, 1.0], "_type": "histogram", "bins": [-0.005911819636821747, -0.0057397205382585526, -0.005567621439695358, -0.005395522341132164, -0.00522342324256897, -0.0050513241440057755, -0.004879225045442581, -0.004707125946879387, -0.004535026848316193, -0.004362927749752998, -0.004190828651189804, -0.004018730018287897, -0.003846630919724703, -0.0036745318211615086, -0.0035024327225983143, -0.00333033362403512, -0.0031582345254719257, -0.0029861354269087315, -0.002814036328345537, -0.002641937229782343, -0.0024698381312191486, -0.002297739265486598, -0.0021256401669234037, -0.001953540835529566, -0.0017814422026276588, -0.0016093431040644646, -0.0014372440055012703, -0.001265144906938076, -0.0010930458083748817, -0.0009209467098116875, -0.0007488476112484932, -0.0005767485126852989, -0.00040464941412210464, -0.00023255031555891037, -6.0451216995716095e-05, 0.00011164788156747818, 0.00028374698013067245, 0.00045584607869386673, 0.000627945177257061, 0.0008000442758202553, 0.0009721433743834496, 0.0011442420072853565, 0.0013163411058485508, 0.001488440204411745, 0.0016605393029749393, 0.0018326384015381336, 0.002004737965762615, 0.0021768370643258095, 0.002348935231566429, 0.0025210343301296234, 0.0026931334286928177, 0.002865232527256012, 0.0030373316258192062, 0.0032094307243824005, 0.003381529822945595, 0.003553628921508789, 0.0037257280200719833, 0.0038978271186351776, 0.004069926217198372, 0.004242025315761566, 0.0044141244143247604, 0.004586223512887955, 0.004758322611451149, 0.004930421710014343, 0.0051025208085775375]}}
