{"gradients/transformer_encoder.layers.1.self_attn.out_proj.weight": {"values": [1.0, 1.0, 4.0, 2.0, 2.0, 10.0, 5.0, 9.0, 13.0, 27.0, 28.0, 44.0, 69.0, 81.0, 145.0, 206.0, 248.0, 427.0, 543.0, 746.0, 987.0, 1279.0, 1554.0, 1959.0, 2289.0, 2675.0, 2748.0, 3099.0, 3042.0, 2968.0, 2794.0, 2487.0, 2166.0, 1841.0, 1378.0, 1109.0, 828.0, 624.0, 455.0, 329.0, 232.0, 160.0, 133.0, 83.0, 50.0, 39.0, 27.0, 18.0, 10.0, 7.0, 9.0, 6.0, 1.0, 1.0, 0.0, 0.0, 0.0, 1.0, 0.0, 0.0, 0.0, 0.0, 0.0, 1.0], "bins": [-0.009940249845385551, -0.009588290005922318, -0.009236329235136509, -0.0088843684643507, -0.008532408624887466, -0.008180448785424232, -0.007828488014638424, -0.007476527709513903, -0.007124567404389381, -0.00677260709926486, -0.006420646794140339, -0.006068686489015818, -0.005716726183891296, -0.005364765878766775, -0.005012805573642254, -0.004660845268517733, -0.004308884963393211, -0.00395692465826869, -0.003604964353144169, -0.0032530040480196476, -0.0029010437428951263, -0.002549083437770605, -0.002197123132646084, -0.0018451623618602753, -0.0014932025223970413, -0.0011412426829338074, -0.0007892819121479988, -0.00043732114136219025, -8.53613018989563e-05, 0.00026659853756427765, 0.0006185593083500862, 0.0009705200791358948, 0.0013224799185991287, 0.0016744397580623627, 0.0020264005288481712, 0.00237836129963398, 0.0027303211390972137, 0.0030822809785604477, 0.0034342417493462563, 0.003786202520132065, 0.004138162359595299, 0.004490122199058533, 0.004842082969844341, 0.00519404374063015, 0.005546003580093384, 0.005897963419556618, 0.006249925121665001, 0.006601884961128235, 0.006953844800591469, 0.007305804640054703, 0.007657764479517937, 0.00800972618162632, 0.008361686021089554, 0.008713645860552788, 0.009065607562661171, 0.009417567402124405, 0.009769527241587639, 0.010121487081050873, 0.010473446920514107, 0.01082540862262249, 0.011177368462085724, 0.011529328301548958, 0.011881290003657341, 0.012233249843120575, 0.012585209682583809], "_type": "histogram"}, "valid loss": 5.634291534141622, "gradients/transformer_encoder.layers.0.norm1.weight": {"values": [2.0, 0.0, 0.0, 1.0, 0.0, 2.0, 1.0, 1.0, 2.0, 1.0, 1.0, 3.0, 1.0, 3.0, 4.0, 1.0, 3.0, 2.0, 1.0, 4.0, 5.0, 5.0, 4.0, 7.0, 3.0, 2.0, 8.0, 7.0, 6.0, 5.0, 5.0, 8.0, 10.0, 6.0, 7.0, 8.0, 2.0, 7.0, 4.0, 6.0, 5.0, 3.0, 4.0, 6.0, 2.0, 1.0, 5.0, 3.0, 3.0, 1.0, 2.0, 3.0, 2.0, 0.0, 3.0, 2.0, 1.0, 2.0, 0.0, 2.0, 1.0, 0.0, 0.0, 1.0], "bins": [-0.009799902327358723, -0.00949812587350607, -0.009196349419653416, -0.008894572034478188, -0.008592795580625534, -0.00829101912677288, -0.007989242672920227, -0.0076874662190675735, -0.007385689299553633, -0.007083912380039692, -0.006782135926187038, -0.006480359472334385, -0.006178583018481731, -0.005876806098967791, -0.005575029645115137, -0.005273252725601196, -0.004971476271748543, -0.004669699817895889, -0.0043679228983819485, -0.004066146444529295, -0.003764369525015354, -0.0034625930711627007, -0.003160816617310047, -0.0028590396977961063, -0.002557263243943453, -0.0022554867900907993, -0.0019537098705768585, -0.001651933416724205, -0.0013501569628715515, -0.001048380509018898, -0.0007466031238436699, -0.0004448266699910164, -0.00014305021613836288, 0.00015872623771429062, 0.0004605026915669441, 0.0007622800767421722, 0.0010640565305948257, 0.0013658329844474792, 0.0016676094383001328, 0.0019693858921527863, 0.0022711632773280144, 0.002572939731180668, 0.0028747161850333214, 0.003176492638885975, 0.0034782690927386284, 0.003780045546591282, 0.00408182293176651, 0.0043835993856191635, 0.004685375839471817, 0.0049871522933244705, 0.005288928747177124, 0.005590706132352352, 0.005892482586205006, 0.006194259040057659, 0.006496035493910313, 0.006797811947762966, 0.00709958840161562, 0.007401364855468273, 0.007703141309320927, 0.00800491962581873, 0.008306696079671383, 0.008608472533524036, 0.00891024898737669, 0.009212025441229343, 0.009513801895081997], "_type": "histogram"}, "gradients/transformer_encoder.layers.1.linear1.bias": {"values": [1.0, 1.0, 0.0, 0.0, 0.0, 1.0, 0.0, 0.0, 0.0, 0.0, 0.0, 2.0, 3.0, 1.0, 3.0, 0.0, 1.0, 4.0, 1.0, 8.0, 5.0, 4.0, 12.0, 14.0, 10.0, 12.0, 13.0, 27.0, 12.0, 9.0, 10.0, 12.0, 5.0, 3.0, 4.0, 4.0, 3.0, 4.0, 1.0, 2.0, 1.0, 0.0, 1.0, 3.0, 0.0, 1.0, 0.0, 0.0, 0.0, 0.0, 0.0, 0.0, 0.0, 0.0, 1.0, 0.0, 0.0, 0.0, 0.0, 0.0, 0.0, 0.0, 0.0, 1.0], "bins": [-0.004659286700189114, -0.004489650949835777, -0.004320015199482441, -0.004150379449129105, -0.003980743698775768, -0.003811107948422432, -0.0036414724308997393, -0.003471836680546403, -0.0033022009301930666, -0.0031325651798397303, -0.002962929429486394, -0.0027932939119637012, -0.002623658161610365, -0.0024540224112570286, -0.0022843866609036922, -0.002114750910550356, -0.0019451151601970196, -0.0017754794098436832, -0.001605843659490347, -0.0014362079091370106, -0.0012665721587836742, -0.0010969366412609816, -0.0009273008909076452, -0.0007576651405543089, -0.0005880296230316162, -0.0004183938726782799, -0.00024875812232494354, -7.912237197160721e-05, 9.051337838172913e-05, 0.00026014912873506546, 0.0004297848790884018, 0.0005994206294417381, 0.0007690563797950745, 0.0009386921301484108, 0.0011083278805017471, 0.0012779636308550835, 0.0014475993812084198, 0.0016172351315617561, 0.0017868708819150925, 0.001956506632268429, 0.002126142382621765, 0.002295777667313814, 0.0024654134176671505, 0.002635049168020487, 0.002804684918373823, 0.0029743206687271595, 0.003143956419080496, 0.0033135926350951195, 0.003483227454125881, 0.0036528632044792175, 0.003822498954832554, 0.00399213470518589, 0.0041617704555392265, 0.004331406205892563, 0.004501041956245899, 0.0046706777065992355, 0.004840313456952572, 0.005009949207305908, 0.0051795849576592445, 0.005349220708012581, 0.005518856458365917, 0.0056884922087192535, 0.00585812795907259, 0.006027763709425926, 0.0061973994597792625], "_type": "histogram"}, "gradients/transformer_encoder.layers.1.norm1.weight": {"values": [1.0, 0.0, 0.0, 0.0, 0.0, 0.0, 0.0, 0.0, 0.0, 0.0, 0.0, 0.0, 0.0, 0.0, 2.0, 2.0, 3.0, 2.0, 6.0, 3.0, 10.0, 8.0, 5.0, 12.0, 5.0, 6.0, 7.0, 9.0, 8.0, 11.0, 12.0, 12.0, 5.0, 6.0, 5.0, 8.0, 6.0, 9.0, 9.0, 4.0, 4.0, 4.0, 0.0, 5.0, 3.0, 0.0, 1.0, 2.0, 1.0, 2.0, 0.0, 0.0, 0.0, 0.0, 1.0, 0.0, 0.0, 0.0, 0.0, 0.0, 0.0, 0.0, 0.0, 1.0], "bins": [-0.015751894563436508, -0.015227412804961205, -0.014702931046485901, -0.014178448356688023, -0.013653966598212719, -0.013129484839737415, -0.012605002149939537, -0.012080520391464233, -0.01155603863298893, -0.011031556874513626, -0.010507075116038322, -0.009982592426240444, -0.00945811066776514, -0.008933628909289837, -0.008409146219491959, -0.007884664461016655, -0.007360182702541351, -0.006835700944066048, -0.006311219185590744, -0.005786736495792866, -0.005262254737317562, -0.0047377729788422585, -0.00421329028904438, -0.0036888085305690765, -0.003164326772093773, -0.0026398450136184692, -0.0021153632551431656, -0.0015908805653452873, -0.0010663988068699837, -0.00054191704839468, -1.7434358596801758e-05, 0.0005070473998785019, 0.0010315291583538055, 0.0015560109168291092, 0.002080492675304413, 0.0026049744337797165, 0.00312945619225502, 0.003653939813375473, 0.004178421571850777, 0.00470290333032608, 0.005227385088801384, 0.005751866847276688, 0.006276348605751991, 0.006800830364227295, 0.007325313985347748, 0.007849795743823051, 0.008374277502298355, 0.008898759260773659, 0.009423241019248962, 0.009947722777724266, 0.01047220453619957, 0.010996686294674873, 0.011521168053150177, 0.01204565167427063, 0.012570133432745934, 0.013094615191221237, 0.01361909694969654, 0.014143578708171844, 0.014668060466647148, 0.015192542225122452, 0.015717025846242905, 0.01624150574207306, 0.016765989363193512, 0.017290469259023666, 0.01781495288014412], "_type": "histogram"}, "_step": 12, "gradients/transformer_encoder.layers.1.self_attn.out_proj.bias": {"values": [1.0, 0.0, 1.0, 1.0, 1.0, 2.0, 2.0, 1.0, 2.0, 2.0, 1.0, 2.0, 3.0, 4.0, 5.0, 3.0, 5.0, 6.0, 9.0, 4.0, 9.0, 5.0, 9.0, 5.0, 3.0, 5.0, 8.0, 6.0, 10.0, 5.0, 3.0, 5.0, 9.0, 5.0, 5.0, 9.0, 5.0, 5.0, 2.0, 1.0, 2.0, 6.0, 0.0, 4.0, 2.0, 1.0, 3.0, 1.0, 0.0, 2.0, 3.0, 0.0, 1.0, 0.0, 1.0, 1.0, 2.0, 0.0, 0.0, 1.0, 0.0, 0.0, 0.0, 1.0], "bins": [-0.01765327900648117, -0.01700635999441147, -0.016359439119696617, -0.015712520107626915, -0.015065599232912064, -0.014418680220842361, -0.013771760277450085, -0.013124840334057808, -0.012477920390665531, -0.011831000447273254, -0.011184080503880978, -0.0105371605604887, -0.009890241548418999, -0.009243321605026722, -0.008596401661634445, -0.007949481718242168, -0.007302561774849892, -0.006655641831457615, -0.006008721888065338, -0.005361801944673061, -0.004714882001280785, -0.0040679629892110825, -0.0034210430458188057, -0.002774123102426529, -0.002127203159034252, -0.0014802832156419754, -0.0008333642035722733, -0.00018644332885742188, 0.0004604756832122803, 0.0011073965579271317, 0.0017543155699968338, 0.002401236444711685, 0.0030481554567813873, 0.0036950744688510895, 0.004341995343565941, 0.004988914355635643, 0.005635835230350494, 0.0062827542424201965, 0.006929675117135048, 0.00757659412920475, 0.008223515003919601, 0.008870434015989304, 0.009517353028059006, 0.010164273902773857, 0.01081119291484356, 0.01145811378955841, 0.012105032801628113, 0.012751953676342964, 0.013398872688412666, 0.014045793563127518, 0.01469271257519722, 0.015339631587266922, 0.015986550599336624, 0.016633473336696625, 0.017280392348766327, 0.01792731136083603, 0.01857423037290573, 0.019221149384975433, 0.019868072122335434, 0.020514991134405136, 0.021161910146474838, 0.02180882915854454, 0.02245575189590454, 0.023102670907974243, 0.023749589920043945], "_type": "histogram"}, "gradients/transformer_encoder.layers.0.linear1.weight": {"values": [1.0, 0.0, 0.0, 0.0, 0.0, 0.0, 0.0, 0.0, 0.0, 1.0, 0.0, 0.0, 0.0, 0.0, 1.0, 1.0, 0.0, 1.0, 1.0, 1.0, 4.0, 7.0, 3.0, 1.0, 5.0, 12.0, 17.0, 24.0, 27.0, 53.0, 90.0, 174.0, 384.0, 1753.0, 11563.0, 22121.0, 2746.0, 552.0, 194.0, 95.0, 51.0, 27.0, 27.0, 20.0, 10.0, 9.0, 6.0, 7.0, 1.0, 1.0, 2.0, 1.0, 0.0, 1.0, 0.0, 2.0, 0.0, 0.0, 0.0, 0.0, 1.0, 1.0, 0.0, 1.0], "bins": [-0.033679280430078506, -0.03272062912583351, -0.031761977821588516, -0.03080332651734352, -0.029844673350453377, -0.02888602204620838, -0.027927370741963387, -0.02696871943771839, -0.026010068133473396, -0.025051414966583252, -0.024092763662338257, -0.02313411235809326, -0.022175461053848267, -0.02121680974960327, -0.020258158445358276, -0.01929950714111328, -0.018340855836868286, -0.017382202669978142, -0.016423551365733147, -0.015464900061488152, -0.014506248757243156, -0.013547597452998161, -0.012588946148753166, -0.011630292981863022, -0.010671641677618027, -0.009712990373373032, -0.008754339069128036, -0.007795687764883041, -0.006837036460638046, -0.005878383293747902, -0.004919731989502907, -0.003961080685257912, -0.0030024293810129166, -0.002043776214122772, -0.001085124909877777, -0.00012647360563278198, 0.0008321776986122131, 0.0017908290028572083, 0.0027494803071022034, 0.0037081316113471985, 0.004666782915592194, 0.005625434219837189, 0.006584085524082184, 0.007542736828327179, 0.008501388132572174, 0.009460043162107468, 0.010418694466352463, 0.011377345770597458, 0.012335997074842453, 0.013294648379087448, 0.014253299683332443, 0.015211950987577438, 0.016170602291822433, 0.01712925359606743, 0.018087904900312424, 0.01904655620455742, 0.020005207508802414, 0.02096385881304741, 0.021922513842582703, 0.022881165146827698, 0.023839816451072693, 0.024798467755317688, 0.025757119059562683, 0.026715770363807678, 0.027674421668052673], "_type": "histogram"}, "gradients/transformer_encoder.layers.1.norm2.bias": {"values": [2.0, 1.0, 0.0, 0.0, 0.0, 1.0, 1.0, 1.0, 2.0, 1.0, 1.0, 2.0, 0.0, 1.0, 3.0, 1.0, 2.0, 4.0, 8.0, 7.0, 4.0, 6.0, 3.0, 4.0, 9.0, 6.0, 13.0, 9.0, 3.0, 8.0, 9.0, 5.0, 8.0, 10.0, 6.0, 5.0, 5.0, 8.0, 4.0, 2.0, 1.0, 0.0, 9.0, 5.0, 1.0, 4.0, 2.0, 1.0, 4.0, 0.0, 1.0, 1.0, 0.0, 0.0, 2.0, 2.0, 0.0, 0.0, 1.0, 0.0, 0.0, 0.0, 0.0, 1.0], "bins": [-0.009587788954377174, -0.009266193024814129, -0.008944597095251083, -0.008623000234365463, -0.008301404304802418, -0.007979808375239372, -0.0076582119800150394, -0.007336615584790707, -0.007015019655227661, -0.006693423725664616, -0.006371827330440283, -0.00605023093521595, -0.0057286350056529045, -0.005407039076089859, -0.005085442680865526, -0.004763846285641193, -0.004442250356078148, -0.004120654426515102, -0.0037990580312907696, -0.0034774616360664368, -0.0031558657065033913, -0.0028342697769403458, -0.002512673381716013, -0.00219107698649168, -0.0018694810569286346, -0.0015478851273655891, -0.0012262891978025436, -0.0009046923369169235, -0.000583096407353878, -0.0002615004777908325, 6.00963830947876e-05, 0.0003816923126578331, 0.0007032882422208786, 0.001024884171783924, 0.0013464801013469696, 0.0016680769622325897, 0.0019896728917956352, 0.0023112688213586807, 0.002632865682244301, 0.0029544616118073463, 0.003276057541370392, 0.0035976534709334373, 0.003919249400496483, 0.004240846261382103, 0.0045624421909451485, 0.004884038120508194, 0.005205634981393814, 0.00552723091095686, 0.005848826840519905, 0.006170423701405525, 0.006492018699645996, 0.006813615560531616, 0.007135210558772087, 0.007456807419657707, 0.007778404280543327, 0.008099999278783798, 0.008421596139669418, 0.008743193000555038, 0.00906478799879551, 0.00938638485968113, 0.00970798172056675, 0.01002957671880722, 0.01035117357969284, 0.010672768577933311, 0.010994365438818932], "_type": "histogram"}, "gradients/transformer_encoder.layers.0.self_attn.out_proj.bias": {"values": [1.0, 0.0, 1.0, 0.0, 0.0, 0.0, 1.0, 1.0, 2.0, 1.0, 1.0, 1.0, 4.0, 1.0, 6.0, 2.0, 0.0, 3.0, 6.0, 2.0, 4.0, 4.0, 8.0, 5.0, 8.0, 11.0, 5.0, 8.0, 5.0, 10.0, 8.0, 9.0, 8.0, 12.0, 7.0, 6.0, 5.0, 3.0, 5.0, 8.0, 2.0, 2.0, 3.0, 5.0, 3.0, 2.0, 1.0, 4.0, 1.0, 0.0, 1.0, 0.0, 0.0, 0.0, 1.0, 0.0, 0.0, 0.0, 2.0, 0.0, 0.0, 0.0, 0.0, 1.0], "bins": [-0.007266754284501076, -0.007020908873528242, -0.0067750634625554085, -0.006529218051582575, -0.006283372640609741, -0.00603752676397562, -0.005791681353002787, -0.005545835942029953, -0.005299990531057119, -0.005054145120084286, -0.004808299709111452, -0.0045624542981386185, -0.0043166084215044975, -0.004070763476192951, -0.0038249175995588303, -0.0035790721885859966, -0.003333226777613163, -0.0030873813666403294, -0.0028415359556674957, -0.002595690544694662, -0.0023498451337218285, -0.0021039992570877075, -0.0018581538461148739, -0.0016123084351420403, -0.0013664630241692066, -0.001120617613196373, -0.0008747722022235394, -0.0006289267912507057, -0.0003830809146165848, -0.00013723550364375114, 0.00010860990732908249, 0.0003544553183019161, 0.0006003007292747498, 0.0008461466059088707, 0.001091991551220417, 0.001337837427854538, 0.0015836823731660843, 0.0018295282498002052, 0.0020753731951117516, 0.0023212190717458725, 0.002567064017057419, 0.0028129098936915398, 0.0030587557703256607, 0.003304600715637207, 0.003550446592271328, 0.0037962915375828743, 0.004042137414216995, 0.0042879823595285416, 0.0045338282361626625, 0.0047796741127967834, 0.00502551905810833, 0.005271364934742451, 0.005517209880053997, 0.005763055756688118, 0.006008900701999664, 0.006254746578633785, 0.006500592455267906, 0.0067464374005794525, 0.0069922832772135735, 0.00723812822252512, 0.007483974099159241, 0.007729819044470787, 0.007975664921104908, 0.008221509866416454, 0.008467355743050575], "_type": "histogram"}, "gradients/transformer_encoder.layers.1.self_attn.in_proj_weight": {"values": [1.0, 0.0, 1.0, 2.0, 5.0, 5.0, 5.0, 19.0, 17.0, 29.0, 39.0, 43.0, 78.0, 99.0, 166.0, 241.0, 349.0, 468.0, 605.0, 740.0, 974.0, 1232.0, 1582.0, 2113.0, 2589.0, 4479.0, 9099.0, 19066.0, 27705.0, 21220.0, 10288.0, 4768.0, 2934.0, 2041.0, 1627.0, 1287.0, 1093.0, 782.0, 604.0, 440.0, 322.0, 241.0, 172.0, 129.0, 91.0, 61.0, 37.0, 30.0, 22.0, 19.0, 14.0, 11.0, 6.0, 4.0, 2.0, 0.0, 1.0, 2.0, 0.0, 0.0, 0.0, 0.0, 0.0, 1.0], "bins": [-0.0094178831204772, -0.009088365361094475, -0.008758848533034325, -0.0084293307736516, -0.00809981394559145, -0.007770296186208725, -0.0074407788924872875, -0.00711126159876585, -0.006781744305044413, -0.006452227011322975, -0.006122709717601538, -0.0057931924238801, -0.0054636746644973755, -0.005134157370775938, -0.004804640077054501, -0.004475122783333063, -0.004145605489611626, -0.0038160881958901882, -0.0034865709021687508, -0.0031570536084473133, -0.002827536314725876, -0.002498018555343151, -0.0021685012616217136, -0.0018389839679002762, -0.0015094662085175514, -0.0011799493804574013, -0.0008504316210746765, -0.0005209147930145264, -0.0001913970336318016, 0.00013811979442834854, 0.0004676375538110733, 0.0007971543818712234, 0.0011266721412539482, 0.001456189900636673, 0.0017857067286968231, 0.002115224488079548, 0.002444741316139698, 0.002774259075522423, 0.003103775903582573, 0.0034332936629652977, 0.003762810491025448, 0.004092328250408173, 0.004421846009790897, 0.0047513628378510475, 0.005080880597233772, 0.005410397425293922, 0.005739915184676647, 0.006069432012736797, 0.006398950703442097, 0.006728467531502247, 0.007057984359562397, 0.007387501187622547, 0.0077170198783278465, 0.008046536706387997, 0.008376053534448147, 0.008705570362508297, 0.009035089053213596, 0.009364605881273746, 0.009694122709333897, 0.010023641400039196, 0.010353158228099346, 0.010682675056159496, 0.011012191884219646, 0.011341710574924946, 0.011671227402985096], "_type": "histogram"}, "gradients/transformer_encoder.layers.0.norm1.bias": {"values": [1.0, 0.0, 0.0, 0.0, 0.0, 2.0, 3.0, 0.0, 0.0, 2.0, 1.0, 2.0, 0.0, 2.0, 2.0, 2.0, 5.0, 6.0, 6.0, 5.0, 5.0, 3.0, 9.0, 2.0, 7.0, 7.0, 6.0, 6.0, 12.0, 5.0, 7.0, 5.0, 10.0, 4.0, 6.0, 8.0, 5.0, 4.0, 4.0, 7.0, 6.0, 3.0, 4.0, 8.0, 1.0, 2.0, 3.0, 3.0, 1.0, 2.0, 0.0, 1.0, 0.0, 1.0, 0.0, 0.0, 0.0, 1.0, 0.0, 0.0, 1.0, 1.0, 0.0, 1.0], "bins": [-0.013989774510264397, -0.013524126261472702, -0.013058478012681007, -0.012592829763889313, -0.012127181515097618, -0.011661533266305923, -0.011195884086191654, -0.01073023583739996, -0.010264587588608265, -0.00979893933981657, -0.009333291091024876, -0.008867641910910606, -0.008401993662118912, -0.007936345413327217, -0.0074706971645355225, -0.007005048915743828, -0.006539400666952133, -0.0060737524181604385, -0.005608104169368744, -0.005142455920577049, -0.004676807671785355, -0.004211158491671085, -0.0037455102428793907, -0.003279861994087696, -0.0028142137452960014, -0.002348565496504307, -0.0018829172477126122, -0.0014172689989209175, -0.0009516198188066483, -0.0004859715700149536, -2.0323321223258972e-05, 0.00044532492756843567, 0.0009109731763601303, 0.001376621425151825, 0.0018422696739435196, 0.0023079179227352142, 0.002773566171526909, 0.0032392144203186035, 0.003704862669110298, 0.004170510917901993, 0.0046361591666936874, 0.005101809278130531, 0.005567457526922226, 0.006033105775713921, 0.006498754024505615, 0.00696440227329731, 0.0074300505220890045, 0.0078956987708807, 0.008361347019672394, 0.008826995268464088, 0.009292643517255783, 0.009758291766047478, 0.010223940014839172, 0.010689588263630867, 0.011155236512422562, 0.011620884761214256, 0.0120865348726511, 0.012552183121442795, 0.01301783137023449, 0.013483479619026184, 0.013949127867817879, 0.014414776116609573, 0.014880424365401268, 0.015346072614192963, 0.015811720862984657], "_type": "histogram"}, "gradients/transformer_encoder.layers.1.linear2.bias": {"values": [1.0, 0.0, 0.0, 0.0, 0.0, 0.0, 0.0, 0.0, 1.0, 1.0, 0.0, 0.0, 0.0, 1.0, 1.0, 1.0, 4.0, 2.0, 3.0, 5.0, 1.0, 1.0, 6.0, 3.0, 8.0, 4.0, 9.0, 9.0, 5.0, 6.0, 7.0, 6.0, 4.0, 16.0, 10.0, 9.0, 15.0, 5.0, 7.0, 5.0, 9.0, 5.0, 2.0, 5.0, 7.0, 2.0, 0.0, 3.0, 1.0, 2.0, 0.0, 3.0, 1.0, 2.0, 0.0, 0.0, 0.0, 0.0, 0.0, 0.0, 0.0, 1.0, 0.0, 1.0], "bins": [-0.018380125984549522, -0.01782282441854477, -0.017265522852540016, -0.016708221286535263, -0.01615091972053051, -0.015593617223203182, -0.015036315657198429, -0.014479014091193676, -0.013921711593866348, -0.013364410027861595, -0.012807108461856842, -0.012249806895852089, -0.011692505329847336, -0.011135203763842583, -0.01057790219783783, -0.010020599700510502, -0.009463298134505749, -0.008905996568500996, -0.008348695002496243, -0.007791392505168915, -0.007234090939164162, -0.006676789373159409, -0.0061194878071546555, -0.005562186241149902, -0.005004884675145149, -0.0044475821778178215, -0.0038902806118130684, -0.0033329790458083153, -0.002775677479803562, -0.0022183749824762344, -0.0016610734164714813, -0.0011037718504667282, -0.0005464702844619751, 1.0831281542778015e-05, 0.0005681328475475311, 0.0011254344135522842, 0.0016827359795570374, 0.0022400375455617905, 0.002797340974211693, 0.003354642540216446, 0.003911944106221199, 0.004469245672225952, 0.005026547238230705, 0.005583848804235458, 0.0061411503702402115, 0.006698451936244965, 0.007255753502249718, 0.00781305506825447, 0.008370356634259224, 0.008927660062909126, 0.00948496162891388, 0.010042263194918633, 0.010599564760923386, 0.011156866326928139, 0.011714167892932892, 0.012271469458937645, 0.012828771024942398, 0.013386072590947151, 0.013943376019597054, 0.014500675722956657, 0.01505797915160656, 0.015615278854966164, 0.016172582283616066, 0.01672988198697567, 0.017287185415625572], "_type": "histogram"}, "graph_0": {"edges": [], "nodes": [{"output_shape": [[35, 20, 200]], "id": 139976060279608, "name": "encoder", "parameters": [["weight", [33278, 200]]], "class_name": "Embedding(33278, 200)", "num_parameters": [6655600]}, {"output_shape": [[35, 20, 200]], "id": 139976043463792, "name": "pos_encoder", "parameters": [], "class_name": "PositionalEncoding(\n  (dropout): Dropout(p=0.2, inplace=False)\n)", "num_parameters": []}, {"output_shape": [[35, 20, 200]], "id": 139976025028592, "name": "transformer_encoder", "parameters": [["layers.0.self_attn.in_proj_weight", [600, 200]], ["layers.0.self_attn.in_proj_bias", [600]], ["layers.0.self_attn.out_proj.weight", [200, 200]], ["layers.0.self_attn.out_proj.bias", [200]], ["layers.0.linear1.weight", [200, 200]], ["layers.0.linear1.bias", [200]], ["layers.0.linear2.weight", [200, 200]], ["layers.0.linear2.bias", [200]], ["layers.0.norm1.weight", [200]], ["layers.0.norm1.bias", [200]], ["layers.0.norm2.weight", [200]], ["layers.0.norm2.bias", [200]], ["layers.1.self_attn.in_proj_weight", [600, 200]], ["layers.1.self_attn.in_proj_bias", [600]], ["layers.1.self_attn.out_proj.weight", [200, 200]], ["layers.1.self_attn.out_proj.bias", [200]], ["layers.1.linear1.weight", [200, 200]], ["layers.1.linear1.bias", [200]], ["layers.1.linear2.weight", [200, 200]], ["layers.1.linear2.bias", [200]], ["layers.1.norm1.weight", [200]], ["layers.1.norm1.bias", [200]], ["layers.1.norm2.weight", [200]], ["layers.1.norm2.bias", [200]]], "class_name": "TransformerEncoder(\n  (layers): ModuleList(\n    (0): TransformerEncoderLayer(\n      (self_attn): MultiheadAttention(\n        (out_proj): Linear(in_features=200, out_features=200, bias=True)\n      )\n      (linear1): Linear(in_features=200, out_features=200, bias=True)\n      (dropout): Dropout(p=0.2, inplace=False)\n      (linear2): Linear(in_features=200, out_features=200, bias=True)\n      (norm1): LayerNorm((200,), eps=1e-05, elementwise_affine=True)\n      (norm2): LayerNorm((200,), eps=1e-05, elementwise_affine=True)\n      (dropout1): Dropout(p=0.2, inplace=False)\n      (dropout2): Dropout(p=0.2, inplace=False)\n    )\n    (1): TransformerEncoderLayer(\n      (self_attn): MultiheadAttention(\n        (out_proj): Linear(in_features=200, out_features=200, bias=True)\n      )\n      (linear1): Linear(in_features=200, out_features=200, bias=True)\n      (dropout): Dropout(p=0.2, inplace=False)\n      (linear2): Linear(in_features=200, out_features=200, bias=True)\n      (norm1): LayerNorm((200,), eps=1e-05, elementwise_affine=True)\n      (norm2): LayerNorm((200,), eps=1e-05, elementwise_affine=True)\n      (dropout1): Dropout(p=0.2, inplace=False)\n      (dropout2): Dropout(p=0.2, inplace=False)\n    )\n  )\n)", "num_parameters": [120000, 600, 40000, 200, 40000, 200, 40000, 200, 200, 200, 200, 200, 120000, 600, 40000, 200, 40000, 200, 40000, 200, 200, 200, 200, 200]}, {"output_shape": [[35, 20, 33278]], "id": 139976060278656, "name": "decoder", "parameters": [["weight", [33278, 200]], ["bias", [33278]]], "class_name": "Linear(in_features=200, out_features=33278, bias=True)", "num_parameters": [6655600, 33278]}], "format": "torch", "_type": "graph"}, "_timestamp": 1579806674.6290393, "gradients/transformer_encoder.layers.0.self_attn.in_proj_weight": {"values": [1.0, 0.0, 0.0, 0.0, 0.0, 0.0, 1.0, 0.0, 0.0, 0.0, 1.0, 2.0, 1.0, 4.0, 4.0, 5.0, 8.0, 9.0, 15.0, 20.0, 34.0, 59.0, 81.0, 125.0, 260.0, 401.0, 657.0, 1136.0, 2127.0, 3569.0, 6478.0, 11873.0, 21617.0, 28012.0, 19579.0, 10581.0, 5861.0, 3147.0, 1831.0, 966.0, 619.0, 337.0, 199.0, 146.0, 83.0, 47.0, 27.0, 24.0, 13.0, 9.0, 9.0, 7.0, 3.0, 5.0, 2.0, 1.0, 0.0, 0.0, 0.0, 2.0, 1.0, 0.0, 0.0, 1.0], "bins": [-0.022585483267903328, -0.021909568458795547, -0.021233651787042618, -0.020557736977934837, -0.019881820306181908, -0.019205905497074127, -0.018529988825321198, -0.017854074016213417, -0.017178159207105637, -0.016502242535352707, -0.015826325863599777, -0.015150411054491997, -0.014474496245384216, -0.013798580504953861, -0.013122664764523506, -0.012446749024093151, -0.011770833283662796, -0.011094917543232441, -0.010419001802802086, -0.00974308606237173, -0.009067170321941376, -0.008391255512833595, -0.00771533977240324, -0.007039424031972885, -0.006363509222865105, -0.005687592551112175, -0.0050116777420043945, -0.004335761070251465, -0.0036598462611436844, -0.0029839295893907547, -0.0023080147802829742, -0.0016320981085300446, -0.0009561832994222641, -0.00028026849031448364, 0.00039564818143844604, 0.0010715629905462265, 0.0017474796622991562, 0.0024233944714069366, 0.0030993111431598663, 0.003775225952267647, 0.0044511426240205765, 0.005127057433128357, 0.005802972242236137, 0.006478888913989067, 0.0071548037230968475, 0.007830720394849777, 0.008506635203957558, 0.009182551875710487, 0.009858464822173119, 0.010534381493926048, 0.011210298165678978, 0.011886214837431908, 0.012562127783894539, 0.013238044455647469, 0.013913961127400398, 0.014589877799153328, 0.01526579074561596, 0.01594170741736889, 0.01661762408912182, 0.01729353703558445, 0.01796945370733738, 0.01864537037909031, 0.01932128705084324, 0.01999719999730587, 0.0206731166690588], "_type": "histogram"}, "gradients/transformer_encoder.layers.1.self_attn.in_proj_bias": {"values": [1.0, 0.0, 0.0, 0.0, 1.0, 0.0, 0.0, 1.0, 2.0, 1.0, 0.0, 2.0, 0.0, 0.0, 0.0, 2.0, 2.0, 3.0, 5.0, 4.0, 6.0, 6.0, 4.0, 2.0, 4.0, 6.0, 8.0, 3.0, 23.0, 35.0, 267.0, 68.0, 37.0, 17.0, 12.0, 9.0, 8.0, 5.0, 5.0, 6.0, 5.0, 6.0, 1.0, 7.0, 4.0, 3.0, 6.0, 2.0, 2.0, 3.0, 0.0, 1.0, 1.0, 0.0, 1.0, 0.0, 1.0, 0.0, 0.0, 1.0, 0.0, 0.0, 0.0, 1.0], "bins": [-0.020031239837408066, -0.01938118226826191, -0.018731126561760902, -0.018081068992614746, -0.01743101142346859, -0.016780955716967583, -0.016130898147821426, -0.015480841509997845, -0.014830784872174263, -0.014180727303028107, -0.013530670665204525, -0.012880614027380943, -0.012230556458234787, -0.011580499820411205, -0.010930443182587624, -0.010280385613441467, -0.009630328975617886, -0.008980272337794304, -0.008330214768648148, -0.007680158130824566, -0.007030101493000984, -0.006380043923854828, -0.005729987286031246, -0.0050799306482076645, -0.004429873079061508, -0.003779817372560501, -0.003129759803414345, -0.0024797022342681885, -0.0018296465277671814, -0.001179588958621025, -0.0005295313894748688, 0.0001205243170261383, 0.0007705818861722946, 0.001420639455318451, 0.002070695161819458, 0.0027207527309656143, 0.0033708103001117706, 0.004020866006612778, 0.004670923575758934, 0.00532098114490509, 0.005971036851406097, 0.006621094420552254, 0.00727115198969841, 0.007921207696199417, 0.008571265265345573, 0.00922132283449173, 0.009871378540992737, 0.010521436110138893, 0.01117149367928505, 0.011821549385786057, 0.012471605092287064, 0.01312166452407837, 0.013771720230579376, 0.014421775937080383, 0.015071835368871689, 0.015721891075372696, 0.016371946781873703, 0.01702200621366501, 0.017672061920166016, 0.018322117626667023, 0.018972177058458328, 0.019622232764959335, 0.020272288471460342, 0.020922347903251648, 0.021572403609752655], "_type": "histogram"}, "gradients/transformer_encoder.layers.0.self_attn.in_proj_bias": {"values": [2.0, 1.0, 0.0, 0.0, 0.0, 0.0, 0.0, 2.0, 1.0, 0.0, 0.0, 0.0, 0.0, 1.0, 0.0, 2.0, 1.0, 2.0, 1.0, 2.0, 4.0, 7.0, 3.0, 5.0, 9.0, 7.0, 9.0, 20.0, 15.0, 17.0, 16.0, 31.0, 32.0, 230.0, 30.0, 23.0, 23.0, 17.0, 16.0, 9.0, 16.0, 6.0, 6.0, 7.0, 3.0, 3.0, 4.0, 4.0, 2.0, 1.0, 1.0, 1.0, 0.0, 2.0, 1.0, 0.0, 2.0, 2.0, 0.0, 0.0, 0.0, 0.0, 0.0, 1.0], "bins": [-0.006388828158378601, -0.006195391528308392, -0.006001954898238182, -0.0058085182681679726, -0.005615081172436476, -0.005421644542366266, -0.005228207912296057, -0.005034771282225847, -0.004841334652155638, -0.004647897556424141, -0.004454460926353931, -0.004261024296283722, -0.004067587666213512, -0.003874151036143303, -0.0036807144060730934, -0.0034872775431722403, -0.0032938409131020308, -0.0031004042830318213, -0.002906967420130968, -0.0027135307900607586, -0.002520094159990549, -0.0023266575299203396, -0.00213322089985013, -0.0019397838041186333, -0.0017463471740484238, -0.0015529105439782143, -0.0013594739139080048, -0.0011660372838377953, -0.0009726006537675858, -0.0007791635580360889, -0.0005857269279658794, -0.00039229029789566994, -0.00019885366782546043, -5.417037755250931e-06, 0.00018801959231495857, 0.0003814562223851681, 0.0005748933181166649, 0.0007683299481868744, 0.0009617665782570839, 0.0011552032083272934, 0.001348639838397503, 0.0015420764684677124, 0.001735513098537922, 0.0019289497286081314, 0.002122386358678341, 0.002315823920071125, 0.0025092605501413345, 0.002702697180211544, 0.0028961338102817535, 0.003089570440351963, 0.0032830070704221725, 0.003476443700492382, 0.0036698803305625916, 0.003863316960632801, 0.0040567535907030106, 0.00425019022077322, 0.0044436268508434296, 0.004637063480913639, 0.004830501042306423, 0.005023937672376633, 0.005217374302446842, 0.005410810932517052, 0.005604247562587261, 0.005797684192657471, 0.00599112082272768], "_type": "histogram"}, "gradients/transformer_encoder.layers.1.linear1.weight": {"values": [1.0, 1.0, 0.0, 1.0, 0.0, 0.0, 0.0, 1.0, 0.0, 0.0, 0.0, 1.0, 1.0, 1.0, 0.0, 1.0, 3.0, 4.0, 4.0, 7.0, 3.0, 8.0, 12.0, 9.0, 22.0, 26.0, 64.0, 172.0, 1452.0, 29142.0, 8279.0, 549.0, 111.0, 41.0, 20.0, 14.0, 10.0, 7.0, 4.0, 1.0, 4.0, 6.0, 3.0, 0.0, 4.0, 5.0, 2.0, 0.0, 0.0, 0.0, 2.0, 0.0, 0.0, 0.0, 0.0, 0.0, 0.0, 0.0, 1.0, 0.0, 0.0, 0.0, 0.0, 1.0], "bins": [-0.07328014075756073, -0.07082025706768036, -0.06836038082838058, -0.06590049713850021, -0.06344062089920044, -0.06098073720932007, -0.058520857244729996, -0.05606097728013992, -0.05360109731554985, -0.05114121735095978, -0.048681337386369705, -0.04622145742177963, -0.04376157373189926, -0.04130169376730919, -0.038841813802719116, -0.036381933838129044, -0.03392205387353897, -0.0314621739089489, -0.029002293944358826, -0.026542413979768753, -0.02408253401517868, -0.02162265032529831, -0.019162770360708237, -0.016702890396118164, -0.014243010431528091, -0.011783130466938019, -0.009323246777057648, -0.0068633705377578735, -0.0044034868478775024, -0.0019436106085777283, 0.0005162730813026428, 0.002976149320602417, 0.005436033010482788, 0.00789591670036316, 0.010355792939662933, 0.012815676629543304, 0.015275552868843079, 0.01773543655872345, 0.020195312798023224, 0.022655196487903595, 0.02511507272720337, 0.02757495641708374, 0.03003484010696411, 0.032494716346263885, 0.03495460003614426, 0.03741447627544403, 0.0398743599653244, 0.042334236204624176, 0.04479411989450455, 0.04725400358438492, 0.04971387982368469, 0.052173763513565063, 0.054633647203445435, 0.05709351599216461, 0.05955339968204498, 0.062013283371925354, 0.06447316706180573, 0.0669330507516861, 0.06939291954040527, 0.07185280323028564, 0.07431268692016602, 0.07677257061004639, 0.07923243939876556, 0.08169232308864594, 0.0841522067785263], "_type": "histogram"}, "gradients/transformer_encoder.layers.1.norm2.weight": {"values": [1.0, 0.0, 0.0, 0.0, 0.0, 0.0, 0.0, 0.0, 0.0, 0.0, 0.0, 0.0, 0.0, 0.0, 0.0, 0.0, 0.0, 1.0, 1.0, 0.0, 0.0, 0.0, 0.0, 0.0, 0.0, 0.0, 0.0, 1.0, 0.0, 0.0, 0.0, 0.0, 1.0, 0.0, 0.0, 0.0, 1.0, 0.0, 3.0, 2.0, 3.0, 2.0, 8.0, 10.0, 16.0, 20.0, 27.0, 22.0, 19.0, 17.0, 14.0, 11.0, 4.0, 5.0, 3.0, 3.0, 2.0, 1.0, 0.0, 1.0, 0.0, 0.0, 0.0, 1.0], "bins": [-0.03878141567111015, -0.03797236829996109, -0.03716332092881203, -0.036354273557662964, -0.0355452261865139, -0.03473617881536484, -0.033927131444215775, -0.03311808407306671, -0.03230903670191765, -0.031499989330768585, -0.030690941959619522, -0.02988189458847046, -0.029072847217321396, -0.028263799846172333, -0.02745475247502327, -0.026645705103874207, -0.025836657732725143, -0.02502761036157608, -0.024218562990427017, -0.023409515619277954, -0.02260047011077404, -0.021791422739624977, -0.020982375368475914, -0.02017332799732685, -0.019364280626177788, -0.018555233255028725, -0.01774618588387966, -0.0169371385127306, -0.016128091141581535, -0.015319043770432472, -0.014509996399283409, -0.013700949028134346, -0.012891901656985283, -0.01208285428583622, -0.011273806914687157, -0.010464759543538094, -0.00965571217238903, -0.008846664801239967, -0.008037617430090904, -0.00722857192158699, -0.006419524550437927, -0.005610477179288864, -0.004801429808139801, -0.003992382436990738, -0.003183335065841675, -0.0023742876946926117, -0.0015652403235435486, -0.0007561929523944855, 5.285441875457764e-05, 0.0008619017899036407, 0.0016709491610527039, 0.002479996532201767, 0.00328904390335083, 0.004098091274499893, 0.004907138645648956, 0.005716186016798019, 0.0065252333879470825, 0.007334280759096146, 0.008143328130245209, 0.008952375501394272, 0.009761422872543335, 0.010570470243692398, 0.011379517614841461, 0.012188564985990524, 0.012997612357139587], "_type": "histogram"}, "gradients/transformer_encoder.layers.0.norm2.bias": {"values": [2.0, 0.0, 3.0, 1.0, 0.0, 0.0, 1.0, 2.0, 2.0, 0.0, 2.0, 2.0, 1.0, 3.0, 3.0, 6.0, 2.0, 4.0, 2.0, 10.0, 7.0, 4.0, 3.0, 7.0, 8.0, 6.0, 9.0, 6.0, 5.0, 4.0, 5.0, 4.0, 11.0, 4.0, 10.0, 6.0, 5.0, 8.0, 6.0, 5.0, 2.0, 3.0, 1.0, 4.0, 2.0, 2.0, 3.0, 2.0, 3.0, 2.0, 3.0, 0.0, 0.0, 0.0, 0.0, 2.0, 0.0, 0.0, 0.0, 0.0, 0.0, 0.0, 1.0, 1.0], "bins": [-0.027201032266020775, -0.026278145611286163, -0.0253552608191967, -0.02443237602710724, -0.023509489372372627, -0.022586602717638016, -0.021663717925548553, -0.02074083313345909, -0.01981794647872448, -0.018895059823989868, -0.017972175031900406, -0.017049290239810944, -0.016126403585076332, -0.015203517861664295, -0.014280632138252258, -0.013357746414840221, -0.012434860691428185, -0.011511975899338722, -0.01058908924460411, -0.0096662025898695, -0.008743317797780037, -0.007820433005690575, -0.006897546350955963, -0.005974659696221352, -0.005051774904131889, -0.004128890112042427, -0.0032060034573078156, -0.002283116802573204, -0.0013602320104837418, -0.0004373472183942795, 0.00048553943634033203, 0.0014084260910749435, 0.002331310883164406, 0.003254195675253868, 0.00417708046734333, 0.005099968984723091, 0.006022853776812553, 0.006945738568902016, 0.007868627086281776, 0.008791511878371239, 0.009714396670460701, 0.010637281462550163, 0.011560166254639626, 0.012483054772019386, 0.013405939564108849, 0.01432882435619831, 0.015251712873578072, 0.016174597665667534, 0.017097482457756996, 0.01802036724984646, 0.01894325204193592, 0.01986614055931568, 0.020789025351405144, 0.021711910143494606, 0.022634798660874367, 0.02355768345296383, 0.02448056824505329, 0.025403453037142754, 0.026326337829232216, 0.027249226346611977, 0.02817211113870144, 0.0290949959307909, 0.030017884448170662, 0.030940769240260124, 0.03186365216970444], "_type": "histogram"}, "gradients/transformer_encoder.layers.0.linear2.bias": {"values": [1.0, 0.0, 0.0, 0.0, 2.0, 2.0, 0.0, 0.0, 0.0, 1.0, 3.0, 3.0, 2.0, 1.0, 1.0, 3.0, 4.0, 3.0, 4.0, 7.0, 7.0, 4.0, 10.0, 4.0, 4.0, 11.0, 11.0, 5.0, 10.0, 3.0, 11.0, 7.0, 5.0, 10.0, 7.0, 6.0, 10.0, 2.0, 6.0, 3.0, 7.0, 4.0, 5.0, 2.0, 1.0, 1.0, 0.0, 1.0, 3.0, 0.0, 0.0, 1.0, 1.0, 0.0, 0.0, 0.0, 0.0, 0.0, 0.0, 0.0, 0.0, 0.0, 0.0, 1.0], "bins": [-0.016339877620339394, -0.01577620767056942, -0.01521253865212202, -0.014648869633674622, -0.014085199683904648, -0.013521530665457249, -0.01295786164700985, -0.012394191697239876, -0.011830522678792477, -0.011266853660345078, -0.010703183710575104, -0.010139514692127705, -0.009575845673680305, -0.009012175723910332, -0.008448506705462933, -0.007884836755692959, -0.00732116773724556, -0.0067574987187981606, -0.006193828769028187, -0.005630159750580788, -0.005066489800810814, -0.004502820782363415, -0.003939151763916016, -0.003375481814146042, -0.0028118127956986427, -0.0022481437772512436, -0.0016844738274812698, -0.0011208048090338707, -0.0005571357905864716, 6.534159183502197e-06, 0.000570204108953476, 0.0011338721960783005, 0.0016975421458482742, 0.002261212095618248, 0.0028248801827430725, 0.0033885501325130463, 0.00395222008228302, 0.0045158881694078445, 0.005079558119177818, 0.005643228068947792, 0.006206898018717766, 0.00677056610584259, 0.007334236055612564, 0.007897906005382538, 0.008461574092507362, 0.009025244042277336, 0.00958891399204731, 0.010152582079172134, 0.010716252028942108, 0.011279921978712082, 0.011843590065836906, 0.01240726001560688, 0.012970929965376854, 0.013534598052501678, 0.014098268002271652, 0.014661937952041626, 0.01522560603916645, 0.015789275988936424, 0.016352945938706398, 0.016916615888476372, 0.017480285838246346, 0.01804395206272602, 0.018607622012495995, 0.01917129196226597, 0.019734961912035942], "_type": "histogram"}, "gradients/transformer_encoder.layers.0.linear1.bias": {"values": [1.0, 1.0, 0.0, 1.0, 1.0, 0.0, 0.0, 0.0, 0.0, 1.0, 0.0, 0.0, 2.0, 0.0, 0.0, 1.0, 1.0, 0.0, 3.0, 1.0, 2.0, 4.0, 4.0, 4.0, 8.0, 5.0, 13.0, 13.0, 13.0, 35.0, 17.0, 19.0, 11.0, 6.0, 7.0, 6.0, 2.0, 3.0, 5.0, 3.0, 2.0, 0.0, 1.0, 0.0, 0.0, 0.0, 0.0, 2.0, 0.0, 0.0, 0.0, 0.0, 0.0, 0.0, 1.0, 0.0, 0.0, 0.0, 0.0, 0.0, 0.0, 0.0, 0.0, 1.0], "bins": [-0.0038066082634031773, -0.0036787432618439198, -0.0035508782602846622, -0.0034230132587254047, -0.0032951482571661472, -0.0031672832556068897, -0.0030394180212169886, -0.002911553019657731, -0.0027836880180984735, -0.002655823016539216, -0.0025279580149799585, -0.0024000927805900574, -0.0022722277790308, -0.0021443627774715424, -0.002016497775912285, -0.0018886327743530273, -0.0017607677727937698, -0.0016329027712345123, -0.0015050377696752548, -0.0013771727681159973, -0.0012493077665567398, -0.0011214425321668386, -0.0009935775306075811, -0.0008657125290483236, -0.0007378475274890661, -0.0006099825259298086, -0.0004821175243705511, -0.0003542525228112936, -0.00022638728842139244, -9.852228686213493e-05, 2.9342714697122574e-05, 0.00015720771625638008, 0.0002850727178156376, 0.0004129377193748951, 0.0005408027209341526, 0.0006686677224934101, 0.0007965327240526676, 0.0009243977256119251, 0.0010522627271711826, 0.0011801277287304401, 0.0013079927302896976, 0.0014358581975102425, 0.0015637231990695, 0.0016915882006287575, 0.001819453202188015, 0.0019473182037472725, 0.00207518320530653, 0.0022030482068657875, 0.002330913208425045, 0.0024587782099843025, 0.00258664321154356, 0.0027145082131028175, 0.002842373214662075, 0.0029702382162213326, 0.00309810321778059, 0.0032259682193398476, 0.0033538336865603924, 0.00348169868811965, 0.0036095636896789074, 0.003737428691238165, 0.0038652936927974224, 0.00399315869435668, 0.004121023695915937, 0.004248888697475195, 0.0043767536990344524], "_type": "histogram"}, "gradients/transformer_encoder.layers.1.norm1.bias": {"values": [1.0, 0.0, 0.0, 1.0, 0.0, 0.0, 0.0, 1.0, 0.0, 0.0, 2.0, 1.0, 3.0, 3.0, 0.0, 0.0, 3.0, 3.0, 2.0, 4.0, 2.0, 3.0, 5.0, 7.0, 7.0, 9.0, 4.0, 9.0, 2.0, 8.0, 11.0, 10.0, 9.0, 1.0, 6.0, 8.0, 11.0, 9.0, 3.0, 2.0, 5.0, 5.0, 3.0, 7.0, 5.0, 3.0, 5.0, 4.0, 0.0, 1.0, 3.0, 0.0, 0.0, 2.0, 0.0, 2.0, 1.0, 0.0, 0.0, 1.0, 0.0, 0.0, 2.0, 1.0], "bins": [-0.01366133987903595, -0.013247047550976276, -0.012832755222916603, -0.012418461963534355, -0.012004169635474682, -0.011589877307415009, -0.011175584979355335, -0.010761292651295662, -0.010346999391913414, -0.00993270706385374, -0.009518414735794067, -0.00910412147641182, -0.00868983007967472, -0.008275536820292473, -0.0078612444922328, -0.007446951698511839, -0.007032659370452166, -0.006618367042392492, -0.006204074248671532, -0.005789781920611858, -0.005375489592552185, -0.004961196333169937, -0.004546904005110264, -0.0041326116770505905, -0.003718319348990917, -0.003304027020931244, -0.002889733761548996, -0.0024754414334893227, -0.0020611491054296494, -0.001646856777369976, -0.0012325635179877281, -0.0008182711899280548, -0.0004039788618683815, 1.0313466191291809e-05, 0.0004246057942509651, 0.000838899053633213, 0.0012531913816928864, 0.0016674837097525597, 0.002081776037812233, 0.002496069297194481, 0.0029103606939315796, 0.0033246539533138275, 0.0037389472126960754, 0.004153238609433174, 0.004567531868815422, 0.004981823265552521, 0.005396116524934769, 0.005810409784317017, 0.006224701181054115, 0.006638994440436363, 0.007053285837173462, 0.00746757909655571, 0.007881872355937958, 0.008296163752675056, 0.008710457012057304, 0.009124750271439552, 0.009539041668176651, 0.009953334927558899, 0.010367626324295998, 0.010781919583678246, 0.011196212843060493, 0.011610504239797592, 0.01202479749917984, 0.012439088895916939, 0.012853382155299187], "_type": "histogram"}, "gradients/encoder.weight": {"values": [1.0, 1.0, 3.0, 0.0, 3.0, 0.0, 2.0, 2.0, 5.0, 4.0, 9.0, 6.0, 6.0, 14.0, 23.0, 16.0, 18.0, 46.0, 39.0, 62.0, 117.0, 196.0, 339.0, 678.0, 1748.0, 4697.0, 11994.0, 6612690.0, 13577.0, 5547.0, 2020.0, 762.0, 382.0, 171.0, 111.0, 82.0, 51.0, 46.0, 29.0, 21.0, 16.0, 9.0, 12.0, 7.0, 7.0, 4.0, 3.0, 7.0, 6.0, 0.0, 3.0, 2.0, 1.0, 0.0, 0.0, 0.0, 0.0, 2.0, 0.0, 0.0, 1.0, 1.0, 0.0, 1.0], "bins": [-0.031544074416160583, -0.03040018305182457, -0.029256293550133705, -0.02811240404844284, -0.026968512684106827, -0.025824621319770813, -0.02468073181807995, -0.023536842316389084, -0.02239295095205307, -0.021249059587717056, -0.02010517008602619, -0.018961280584335327, -0.017817389219999313, -0.0166734978556633, -0.015529608353972435, -0.01438571885228157, -0.013241827487945557, -0.012097936123609543, -0.010954046621918678, -0.009810157120227814, -0.0086662657558918, -0.007522374391555786, -0.006378484889864922, -0.005234595388174057, -0.004090704023838043, -0.0029468126595020294, -0.0018029231578111649, -0.0006590336561203003, 0.0004848577082157135, 0.0016287490725517273, 0.0027726367115974426, 0.003916528075933456, 0.00506041944026947, 0.006204310804605484, 0.007348202168941498, 0.008492089807987213, 0.009635981172323227, 0.01077987253665924, 0.011923760175704956, 0.01306765154004097, 0.014211542904376984, 0.015355434268712997, 0.01649932563304901, 0.017643213272094727, 0.01878710463643074, 0.019930996000766754, 0.02107488363981247, 0.022218775004148483, 0.023362666368484497, 0.02450655773282051, 0.025650449097156525, 0.02679433673620224, 0.027938228100538254, 0.029082119464874268, 0.030226007103919983, 0.031369902193546295, 0.03251378983259201, 0.033657677471637726, 0.03480157256126404, 0.03594546020030975, 0.03708934783935547, 0.03823324292898178, 0.039377130568027496, 0.04052102565765381, 0.041664913296699524], "_type": "histogram"}, "gradients/transformer_encoder.layers.1.linear2.weight": {"values": [2.0, 0.0, 1.0, 0.0, 1.0, 0.0, 0.0, 1.0, 1.0, 2.0, 6.0, 5.0, 1.0, 7.0, 14.0, 17.0, 22.0, 33.0, 47.0, 89.0, 94.0, 142.0, 190.0, 306.0, 471.0, 793.0, 1150.0, 1869.0, 3100.0, 5315.0, 12692.0, 5261.0, 3014.0, 1841.0, 1223.0, 726.0, 513.0, 311.0, 239.0, 131.0, 125.0, 70.0, 52.0, 33.0, 27.0, 15.0, 10.0, 8.0, 6.0, 4.0, 3.0, 5.0, 3.0, 1.0, 2.0, 1.0, 1.0, 2.0, 1.0, 0.0, 0.0, 0.0, 0.0, 1.0], "bins": [-0.009354868903756142, -0.009048241190612316, -0.00874161347746849, -0.008434985764324665, -0.00812835805118084, -0.007821731269359589, -0.007515103090554476, -0.0072084758430719376, -0.006901848129928112, -0.0065952204167842865, -0.006288592703640461, -0.0059819649904966354, -0.00567533727735281, -0.005368709564208984, -0.005062082316726446, -0.004755454603582621, -0.004448826890438795, -0.0041421991772949696, -0.003835571464151144, -0.003528944216668606, -0.0032223165035247803, -0.0029156887903809547, -0.002609061077237129, -0.0023024333640933037, -0.001995805650949478, -0.00168917840346694, -0.001382550224661827, -0.0010759234428405762, -0.0007692957296967506, -0.0004626680165529251, -0.00015604030340909958, 0.00015058740973472595, 0.0004572151228785515, 0.000763842836022377, 0.0010704705491662025, 0.001377098262310028, 0.0016837259754538536, 0.001990353688597679, 0.00229698047041893, 0.0026036081835627556, 0.002910235896706581, 0.0032168636098504066, 0.003523491322994232, 0.0038301190361380577, 0.004136746749281883, 0.004443374462425709, 0.004750002175569534, 0.00505662988871336, 0.005363257601857185, 0.005669884383678436, 0.005976512096822262, 0.006283139809966087, 0.0065897684544324875, 0.006896395236253738, 0.007203022018074989, 0.0075096506625413895, 0.00781627744436264, 0.00812290608882904, 0.008429532870650291, 0.008736161515116692, 0.009042788296937943, 0.009349416941404343, 0.009656043723225594, 0.009962672367691994, 0.010269299149513245], "_type": "histogram"}, "_runtime": 629.2932364940643, "gradients/transformer_encoder.layers.0.self_attn.out_proj.weight": {"values": [1.0, 0.0, 0.0, 0.0, 0.0, 2.0, 1.0, 4.0, 1.0, 5.0, 9.0, 9.0, 20.0, 17.0, 15.0, 28.0, 53.0, 70.0, 69.0, 107.0, 155.0, 204.0, 272.0, 380.0, 485.0, 591.0, 803.0, 971.0, 1268.0, 1567.0, 1831.0, 2226.0, 2587.0, 2736.0, 3043.0, 2988.0, 2928.0, 2570.0, 2285.0, 1961.0, 1702.0, 1386.0, 1030.0, 858.0, 668.0, 516.0, 419.0, 306.0, 215.0, 161.0, 125.0, 91.0, 76.0, 50.0, 37.0, 23.0, 17.0, 19.0, 13.0, 9.0, 5.0, 8.0, 2.0, 2.0], "bins": [-0.012414494529366493, -0.012061042711138725, -0.011707590892910957, -0.01135413907468319, -0.011000687256455421, -0.010647235438227654, -0.010293783619999886, -0.009940331801772118, -0.00958687998354435, -0.009233428165316582, -0.008879976347088814, -0.008526523597538471, -0.008173071779310703, -0.007819619961082935, -0.007466168142855167, -0.0071127163246273994, -0.0067592645063996315, -0.0064058126881718636, -0.006052360869944096, -0.005698909051716328, -0.00534545723348856, -0.0049920049495995045, -0.0046385531313717365, -0.004285101778805256, -0.003931649029254913, -0.0035781972110271454, -0.0032247453927993774, -0.0028712935745716095, -0.0025178417563438416, -0.0021643899381160736, -0.0018109381198883057, -0.0014574863016605377, -0.0011040344834327698, -0.0007505826652050018, -0.0003971308469772339, -4.367902874946594e-05, 0.000309772789478302, 0.00066322460770607, 0.0010166764259338379, 0.0013701282441616058, 0.0017235800623893738, 0.0020770328119397163, 0.0024304846301674843, 0.0027839364483952522, 0.00313738826662302, 0.0034908391535282135, 0.0038442909717559814, 0.004197742789983749, 0.0045511964708566666, 0.0049046482890844345, 0.0052581001073122025, 0.00561155192553997, 0.005965003743767738, 0.006318455561995506, 0.006671907380223274, 0.007025359198451042, 0.00737881101667881, 0.007732262834906578, 0.008085714653134346, 0.008439166471362114, 0.008792618289589882, 0.00914607010781765, 0.009499521926045418, 0.009852973744273186, 0.010206425562500954], "_type": "histogram"}, "train loss": 3.7536877698395132, "gradients/decoder.bias": {"values": [1.0, 0.0, 0.0, 0.0, 0.0, 0.0, 0.0, 0.0, 2.0, 1.0, 0.0, 0.0, 2.0, 2.0, 2.0, 1.0, 1.0, 3.0, 4.0, 7.0, 4.0, 4.0, 5.0, 133.0, 83.0, 44.0, 18.0, 24.0, 15.0, 32429.0, 341.0, 88.0, 26.0, 14.0, 7.0, 2.0, 1.0, 4.0, 1.0, 2.0, 0.0, 2.0, 0.0, 1.0, 0.0, 0.0, 0.0, 0.0, 0.0, 1.0, 0.0, 0.0, 0.0, 1.0, 0.0, 0.0, 1.0, 0.0, 0.0, 0.0, 0.0, 0.0, 0.0, 1.0], "bins": [-0.0071431053802371025, -0.006899477913975716, -0.006655850913375616, -0.006412223447114229, -0.00616859644651413, -0.005924968980252743, -0.005681341513991356, -0.005437714513391256, -0.0051940870471298695, -0.00495046004652977, -0.004706832580268383, -0.004463205114006996, -0.004219578113406897, -0.003975951112806797, -0.0037323234137147665, -0.0034886961802840233, -0.00324506894685328, -0.003001441713422537, -0.00275781424716115, -0.0025141872465610504, -0.0022705597802996635, -0.002026932779699564, -0.0017833053134381771, -0.0015396778471767902, -0.0012960508465766907, -0.0010524233803153038, -0.0008087963797152042, -0.0005651689134538174, -0.0003215414471924305, -7.791444659233093e-05, 0.00016571301966905594, 0.0004093400202691555, 0.0006529674865305424, 0.0008965944871306419, 0.0011402219533920288, 0.0013838494196534157, 0.0016274768859148026, 0.0018711034208536148, 0.0021147308871150017, 0.0023583583533763885, 0.0026019858196377754, 0.0028456132858991623, 0.0030892398208379745, 0.0033328672870993614, 0.0035764947533607483, 0.003820122219622135, 0.004063749685883522, 0.004307376220822334, 0.004551003687083721, 0.004794631153345108, 0.005038258619606495, 0.005281886085867882, 0.005525512620806694, 0.005769140087068081, 0.006012767553329468, 0.006256395019590855, 0.0065000224858522415, 0.006743649020791054, 0.006987276487052441, 0.0072309039533138275, 0.007474531419575214, 0.007718158885836601, 0.007961785420775414, 0.0082054128870368, 0.008449040353298187], "_type": "histogram"}, "gradients/transformer_encoder.layers.0.linear2.weight": {"values": [1.0, 2.0, 0.0, 1.0, 2.0, 1.0, 1.0, 1.0, 6.0, 3.0, 3.0, 2.0, 3.0, 9.0, 4.0, 6.0, 15.0, 22.0, 11.0, 21.0, 28.0, 53.0, 104.0, 196.0, 322.0, 601.0, 1039.0, 1741.0, 3279.0, 5980.0, 13834.0, 5694.0, 3033.0, 1762.0, 890.0, 530.0, 305.0, 162.0, 108.0, 68.0, 42.0, 26.0, 21.0, 13.0, 7.0, 15.0, 8.0, 0.0, 3.0, 3.0, 3.0, 4.0, 6.0, 2.0, 2.0, 1.0, 0.0, 0.0, 0.0, 0.0, 0.0, 0.0, 0.0, 1.0], "bins": [-0.009960371069610119, -0.009633253328502178, -0.009306135587394238, -0.008979017846286297, -0.00865190103650093, -0.00832478329539299, -0.00799766555428505, -0.007670547813177109, -0.007343430072069168, -0.007016312330961227, -0.006689194589853287, -0.006362077314406633, -0.006034959573298693, -0.005707841832190752, -0.005380724556744099, -0.005053606815636158, -0.004726489074528217, -0.004399371333420277, -0.004072253592312336, -0.0037451363168656826, -0.003418018575757742, -0.0030909008346498013, -0.002763783559203148, -0.002436665818095207, -0.0021095480769872665, -0.0017824303358793259, -0.0014553125947713852, -0.0011281948536634445, -0.0008010780438780785, -0.0004739603027701378, -0.0001468425616621971, 0.00018027517944574356, 0.0005073929205536842, 0.0008345106616616249, 0.0011616284027695656, 0.0014887461438775063, 0.001815863884985447, 0.002142980694770813, 0.0024700984358787537, 0.0027972161769866943, 0.003124333918094635, 0.0034514516592025757, 0.0037785694003105164, 0.004105687141418457, 0.004432803951203823, 0.004759921692311764, 0.0050870394334197044, 0.005414157174527645, 0.005741274915635586, 0.0060683926567435265, 0.006395510397851467, 0.006722628138959408, 0.0070497458800673485, 0.007376863621175289, 0.00770398136228323, 0.00803109910339117, 0.008358214981853962, 0.008685332722961903, 0.009012450464069843, 0.009339568205177784, 0.009666685946285725, 0.009993803687393665, 0.010320921428501606, 0.010648039169609547, 0.010975156910717487], "_type": "histogram"}, "gradients/decoder.weight": {"values": [3.0, 3.0, 1.0, 4.0, 3.0, 1.0, 0.0, 0.0, 5.0, 3.0, 7.0, 6.0, 13.0, 12.0, 16.0, 20.0, 23.0, 32.0, 30.0, 49.0, 88.0, 123.0, 131.0, 202.0, 355.0, 692.0, 1323.0, 2658.0, 5152.0, 9495.0, 25287.0, 6578612.0, 15874.0, 7404.0, 3715.0, 1907.0, 943.0, 498.0, 260.0, 186.0, 121.0, 83.0, 71.0, 39.0, 36.0, 24.0, 21.0, 15.0, 11.0, 5.0, 6.0, 4.0, 8.0, 0.0, 5.0, 4.0, 1.0, 1.0, 2.0, 3.0, 0.0, 1.0, 1.0, 2.0], "bins": [-0.026258444413542747, -0.025420300662517548, -0.024582158774137497, -0.023744015023112297, -0.022905871272087097, -0.022067729383707047, -0.021229585632681847, -0.020391441881656647, -0.019553299993276596, -0.018715156242251396, -0.017877012491226196, -0.017038870602846146, -0.016200726851820946, -0.015362583100795746, -0.01452444028109312, -0.01368629653006792, -0.012848153710365295, -0.01201001089066267, -0.01117186713963747, -0.010333724319934845, -0.009495580568909645, -0.008657438680529594, -0.007819294929504395, -0.006981151178479195, -0.006143009290099144, -0.005304865539073944, -0.004466721788048744, -0.0036285780370235443, -0.0027904361486434937, -0.0019522923976182938, -0.0011141486465930939, -0.0002760067582130432, 0.0005621369928121567, 0.0014002807438373566, 0.0022384226322174072, 0.003076566383242607, 0.003914710134267807, 0.004752852022647858, 0.0055909957736730576, 0.006429137662053108, 0.007267283275723457, 0.008105425164103508, 0.008943567052483559, 0.009781712666153908, 0.010619854554533958, 0.011457996442914009, 0.012296142056584358, 0.013134283944964409, 0.01397242583334446, 0.014810571447014809, 0.01564871333539486, 0.01648685894906521, 0.01732500083744526, 0.01816314272582531, 0.01900128833949566, 0.01983943022787571, 0.02067757211625576, 0.02151571772992611, 0.02235385961830616, 0.02319200150668621, 0.02403014712035656, 0.02486828900873661, 0.02570643089711666, 0.02654457651078701, 0.02738271839916706], "_type": "histogram"}, "gradients/transformer_encoder.layers.0.norm2.weight": {"values": [1.0, 0.0, 0.0, 0.0, 0.0, 0.0, 0.0, 0.0, 0.0, 1.0, 1.0, 0.0, 0.0, 0.0, 1.0, 0.0, 1.0, 0.0, 0.0, 1.0, 2.0, 0.0, 5.0, 0.0, 5.0, 4.0, 4.0, 6.0, 5.0, 8.0, 6.0, 5.0, 5.0, 3.0, 8.0, 10.0, 12.0, 8.0, 9.0, 10.0, 12.0, 6.0, 9.0, 10.0, 3.0, 1.0, 5.0, 3.0, 3.0, 4.0, 4.0, 1.0, 2.0, 6.0, 4.0, 1.0, 0.0, 1.0, 1.0, 0.0, 2.0, 0.0, 0.0, 1.0], "bins": [-0.028856530785560608, -0.028090335428714752, -0.027324138209223747, -0.026557940989732742, -0.025791745632886887, -0.02502555027604103, -0.024259353056550026, -0.02349315583705902, -0.022726960480213165, -0.02196076512336731, -0.021194567903876305, -0.0204283706843853, -0.019662175327539444, -0.018895979970693588, -0.018129782751202583, -0.01736358553171158, -0.016597390174865723, -0.015831194818019867, -0.015064997598528862, -0.014298801310360432, -0.013532605022192001, -0.012766409665346146, -0.01200021244585514, -0.011234015226364136, -0.01046781986951828, -0.009701624512672424, -0.00893542729318142, -0.008169230073690414, -0.007403034716844559, -0.006636839359998703, -0.005870642140507698, -0.005104444921016693, -0.004338249564170837, -0.0035720542073249817, -0.0028058569878339767, -0.002039659768342972, -0.001273464411497116, -0.0005072690546512604, 0.00025892816483974457, 0.0010251253843307495, 0.0017913207411766052, 0.002557516098022461, 0.0033237114548683167, 0.004089910537004471, 0.0048561058938503265, 0.005622301250696182, 0.006388500332832336, 0.007154695689678192, 0.007920891046524048, 0.008687086403369904, 0.00945328176021576, 0.010219480842351913, 0.01098567619919777, 0.011751871556043625, 0.012518070638179779, 0.013284265995025635, 0.01405046135187149, 0.014816656708717346, 0.015582852065563202, 0.016349051147699356, 0.017115246504545212, 0.017881441861391068, 0.01864764094352722, 0.019413836300373077, 0.020180031657218933], "_type": "histogram"}}
